
long double conv1_weight[450] = { //[6][3][5][5] 
   
  -0.40127707, 0.09379097, 0.16542952, 0.11624573, 0.10793922 ,
  -0.09591858, 0.39632362, 0.54298335, 0.28071117, 0.3330019  ,
   0.05948386, 0.6314236 , 0.8600211 , 0.7480737 , 0.6314893  ,
   0.15339567, 0.6564047 , 0.76245123, 0.77632415, 0.6872255  ,
  -0.05178659, 0.29313472, 0.6449656 , 0.6887653 , 0.477422   ,
 
   -0.3907937 ,-0.20384315,-0.07564985,-0.21351884,-0.19752927 ,
  -0.4616665 ,-0.21674925,-0.20520511,-0.28769347,-0.26248777 ,
  -0.7208263 ,-0.28380996,-0.26321018,-0.27939257,-0.39504328 ,
  -0.7381042 ,-0.47991085,-0.23174399,-0.18456769,-0.42949194 ,
  -0.8028733 ,-0.66216856,-0.4884449 ,-0.3712295 ,-0.3547242   ,
 
    0.11799532, 0.37020978, 0.2807084 , 0.45049426, 0.43885624 ,
  -0.10239964, 0.38329265, 0.20319027, 0.17361996, 0.25840667 ,
  -0.1283214 , 0.04128845, 0.12485134, 0.15451768, 0.05413002 ,
  -0.27558783,-0.03807269, 0.23734245, 0.03920248,-0.1289991  ,
  -0.39661646,-0.00413082,-0.02569388, 0.03559746,-0.02940709   ,
 
 
    -0.64909583,-0.08752646, 0.27174145, 0.07234037,-0.31913885 ,
  -0.4768072 ,-0.08333659, 0.18549292, 0.14122516,-0.4302395  ,
  -0.5090106 , 0.2017984 , 0.3815123 , 0.118792 ,-0.42490438 ,
  -0.5240773 , 0.24668731, 0.36371946, 0.16676764,-0.4015598  ,
  -0.36626685, 0.3145956 , 0.33276784, 0.17873694,-0.3551656   ,
 
   -0.336062 , 0.20325384, 0.3729382 , 0.1259852 ,-0.30638328 ,
  -0.49701315, 0.20255752, 0.39850318, 0.08317133,-0.36530158 ,
  -0.4313158 , 0.09691717, 0.42598093, 0.12077747,-0.58804065 ,
  -0.29917544, 0.12194473, 0.45292208, 0.1127881 ,-0.41567764 ,
  -0.26687667, 0.23832135, 0.52535963, 0.22593716,-0.43453974  ,
 
   -0.01300063, 0.5077434 , 0.7482964 , 0.37942845,-0.16497307 ,
  -0.1886705 , 0.35819882, 0.6589471 , 0.32035327,-0.40793195 ,
  -0.34664077, 0.34146023, 0.634843 , 0.2777556 ,-0.29901564 ,
  -0.3394303 , 0.22367729, 0.5952024 , 0.30130678,-0.45996678 ,
  -0.22577284, 0.41333804, 0.57485324, 0.28195283,-0.5240813    ,
 
 
    -0.2083747 ,-0.32029817,-0.38328263,-0.3856086 ,-0.07314923 ,
  -0.6739728 ,-0.98598915,-0.986841 ,-0.8861351 ,-0.79620624 ,
  -0.68562406,-0.74298096,-0.4751402 ,-0.6451998 ,-0.6707662  ,
  -0.25875628,-0.22408433, 0.1416089 ,-0.1398173 ,-0.08027808 ,
   0.2826473 , 0.42606342, 0.6245474 , 0.6785319 , 0.45042098  ,
 
   -0.12536731, 0.22006409, 0.3793506 , 0.23713936, 0.13041179 ,
  -0.26301843, 0.0512155 , 0.36737636, 0.11286873,-0.29251596 ,
  -0.27690673, 0.22151563, 0.6781461 , 0.13929711,-0.32264844 ,
  -0.24075395, 0.25317472, 0.41371873, 0.23131827,-0.39982998 ,
  -0.54011875,-0.00925854, 0.04189803,-0.01432244,-0.43753392  ,
 
    0.1118581 , 0.59536326, 0.6612239 , 0.26297998,-0.058994  ,
   0.2515699 , 0.8395314 , 1.000939 , 0.49327913,-0.13849254 ,
   0.26924598, 0.90345716, 1.1819718 , 0.6514836 ,-0.03292482 ,
  -0.01085506, 0.5518575 , 0.8183547 , 0.52471805,-0.1958573  ,
  -0.25295043, 0.08775552, 0.39344025,-0.01555518,-0.54735625   ,
 
 
     0.5386812 , 0.18858418,-0.0888962 , 0.20495497, 0.22264408 ,
   0.5128829 , 0.08846647,-0.20004892,-0.11917453, 0.24863382 ,
   0.48956656,-0.02296153,-0.3613856 ,-0.19065727, 0.27072006 ,
   0.7318066 , 0.24150403, 0.00722652, 0.16362832, 0.4287063  ,
   0.8186841 , 0.7328776 , 0.60298556, 0.48868212, 0.7077952   ,
 
    0.16156426,-0.23442146,-0.32434338,-0.06936228, 0.02620233 ,
   0.04894716,-0.45019284,-0.52471584,-0.2785114 , 0.11465721 ,
   0.09955366,-0.39437848,-0.58948064,-0.45986962,-0.02531561 ,
   0.2757448 ,-0.20804745,-0.44654104,-0.2879547 , 0.15378815 ,
   0.55366987, 0.28858742, 0.23657449, 0.37704736, 0.5202363   ,
 
   -0.548253 ,-0.63892883,-0.50669605,-0.4598605 ,-0.57122004 ,
  -0.24307372,-0.52128965,-0.6338405 ,-0.58453184,-0.29177377 ,
  -0.06124282,-0.44097844,-0.6908651 ,-0.56900173,-0.17533614 ,
   0.12492785,-0.09274598,-0.33162063,-0.12455695, 0.01475584 ,
   0.5595646 , 0.3292862 , 0.31593072, 0.37133288, 0.25573602   ,
 
 
    -0.09784233, 0.0105972 , 0.11592032,-0.0501981 ,-0.29415566 ,
   0.0054139 , 0.1630634 , 0.11557473, 0.04987619,-0.08946658 ,
   0.05986984, 0.22816388, 0.18848039, 0.0780717 ,-0.10706754 ,
  -0.05157879, 0.18341099, 0.19813865, 0.08434348,-0.2377065  ,
  -0.01994358, 0.33199912, 0.17692097, 0.10625708,-0.36076957  ,
 
    0.22846833, 0.4031967 , 0.2531451 , 0.19551821, 0.0568925  ,
   0.42926797, 0.48810574, 0.4471631 , 0.21684435, 0.1239794  ,
   0.25804844, 0.510551 , 0.59949285, 0.24117206, 0.08217198 ,
   0.23178233, 0.63080716, 0.54768586, 0.2123718 , 0.05013143 ,
   0.18937494, 0.43452132, 0.5331237 , 0.16224137,-0.14694344  ,
 
    0.27401355, 0.4076406 , 0.36881936, 0.3040675 ,-0.01466499 ,
   0.03563616, 0.15077546, 0.05499797,-0.00737107,-0.25737083 ,
  -0.2410666 , 0.07802717, 0.03509497,-0.19530737,-0.48749352 ,
  -0.29633743,-0.25467378,-0.1798353 ,-0.431678 ,-0.6889948  ,
  -0.51320446,-0.18457356,-0.2946948 ,-0.577348 ,-0.7581438    ,
 
 
    -0.28261334,-0.6347722 ,-0.86991763,-0.49006018,-0.13670284 ,
  -0.68370134,-0.8928735 ,-0.8616568 ,-0.7627778 ,-0.610855  ,
  -0.30608693,-0.19500299,-0.01962749,-0.27813178,-0.22807084 ,
   0.42300177, 0.73033124, 1.0002512 , 0.821996 , 0.49413204 ,
   0.44478035, 0.77316296, 0.78321296, 0.54108846, 0.12287549  ,
 
   -0.21187878,-0.62863195,-0.8982887 ,-0.48877066,-0.06228124 ,
  -0.6034898 ,-0.5469275 ,-0.7281122 ,-0.48570627,-0.3198674  ,
  -0.19193654, 0.0966983 , 0.2436561 , 0.17326002,-0.0906854  ,
   0.5325722 , 1.1501063 , 1.2921076 , 0.9137552 , 0.57238305 ,
   0.36017078, 0.87161475, 0.9961816 , 0.6953706 , 0.05877233  ,
 
   -0.06124112,-0.3427878 ,-0.5272285 ,-0.27303678, 0.09895501 ,
  -0.4316672 ,-0.39192122,-0.4783034 ,-0.46653095,-0.25745827 ,
  -0.26498663,-0.07125001, 0.24612388,-0.05232013,-0.09784044 ,
   0.2719631 , 0.60009986, 0.91428185, 0.6852588 , 0.23085147 ,
  -0.17501898, 0.17319736, 0.46428913, 0.15151276,-0.38214228    };


long double conv1_bias[6] = { -1.3027272 ,-1.7298336 , 0.72277856,-1.0044328 , 0.34764746, 3.7486804  };


/*#########################################################################################################################*/


long double conv2_weight[2400] =  {    9.73644257e-02, 9.06213596e-02, 1.05716243e-01, 1.64331317e-01, //[16][6][5][5] 
 8.32089856e-02 ,
   2.08414122e-01, 1.12321399e-01, 2.32979640e-01, 3.55375707e-01,
 2.64970869e-01 ,
   3.08637619e-01, 2.23461628e-01, 2.21669927e-01, 1.57769918e-01,
 2.20566556e-01 ,
   3.04139107e-01, 1.97729915e-01, 6.73801899e-02, 1.42425910e-01,
 2.26006284e-02 ,
   2.22986028e-01, 9.72991884e-02, 9.30497423e-02,-4.09662351e-02,
 6.08108602e-02  ,
 
   -1.43240526e-01,-1.37129486e-01,-4.04510461e-02, 2.41901986e-02,
 -4.73138057e-02 ,
   7.54591301e-02, 8.50905329e-02, 9.32985395e-02, 8.18318278e-02,
 2.41590962e-01 ,
   3.78859527e-02, 9.54856575e-02, 1.76073864e-01, 2.02087656e-01,
 2.03585401e-01 ,
   1.17207214e-01, 2.96709299e-01, 2.59768188e-01, 1.94371060e-01,
 1.33970901e-01 ,
   8.37042462e-03, 1.02155164e-01, 1.70728937e-01, 1.10259250e-01,
 7.63782039e-02  ,
 
   -4.18567419e-01,-3.67921978e-01,-3.95825237e-01,-3.30452621e-01,
 -3.54909956e-01 ,
  -2.02378497e-01,-2.15753347e-01,-2.16127649e-01,-2.55469620e-01,
 -1.77393585e-01 ,
  -2.82035530e-01,-6.82742149e-02,-1.48644924e-01,-1.47358820e-01,
 -8.51179287e-02 ,
  -2.30747059e-01,-3.61391753e-02,-1.08370632e-01,-8.03593397e-02,
 -6.42052367e-02 ,
  -3.37239772e-01,-2.61999041e-01,-2.07550153e-01,-1.45909920e-01,
 -1.54618070e-01  ,
 
    1.37477994e-01, 1.23594701e-01,-5.43798916e-02,-3.20273452e-02,
 -1.55359507e-01 ,
   9.33719873e-02,-1.93055961e-02,-2.18646884e-01,-3.12663049e-01,
 -2.37191573e-01 ,
  -1.52103305e-01,-1.38755590e-01,-1.78353220e-01,-3.00086588e-01,
 -4.05737489e-01 ,
  -1.16710633e-01,-1.34848833e-01,-2.57731438e-01,-3.01766038e-01,
 -3.10941190e-01 ,
  -3.43569547e-01,-2.38355279e-01,-3.66348445e-01,-4.54096913e-01,
 -4.10815209e-01  ,
 
    4.25999016e-01, 3.79243404e-01, 2.78148115e-01, 2.12050006e-01,
 1.97488144e-01 ,
   3.54566842e-01, 2.38965139e-01, 2.61123955e-01, 2.61049330e-01,
 9.78882387e-02 ,
   3.92507344e-01, 2.57175982e-01, 2.67000824e-01, 2.02076882e-01,
 2.31156260e-01 ,
   3.11402857e-01, 3.38850766e-01, 2.75318384e-01, 2.05503538e-01,
 2.10545287e-01 ,
   1.83810532e-01, 2.50359118e-01, 1.80261537e-01, 1.86086148e-01,
 7.74930492e-02  ,
 
    1.65368170e-01, 1.20092787e-01,-3.09952982e-02, 4.87445779e-02,
 2.04631798e-02 ,
  -5.23965918e-02, 4.43811808e-03,-7.31575266e-02,-2.93992847e-01,
 -3.60214263e-01 ,
  -1.15844034e-01,-1.41059965e-01,-1.68082103e-01,-3.49475622e-01,
 -4.59454238e-01 ,
  -1.45867467e-01,-1.06438182e-01,-1.88971266e-01,-2.55359769e-01,
 -3.24932456e-01 ,
  -3.17798346e-01,-2.73010731e-01,-1.39163867e-01,-3.28821748e-01,
 -3.42753619e-01   ,
 
 
     3.73745441e-01, 1.31933481e-01, 3.05458575e-01, 2.92704105e-01,
 5.87500632e-01 ,
   4.37094748e-01, 4.37881649e-01, 4.65617537e-01, 5.04513681e-01,
 5.37463009e-01 ,
   2.78017104e-01, 3.58803481e-01, 2.79412061e-01, 2.69845963e-01,
 1.26117945e-01 ,
  -2.87408352e-01,-3.33233804e-01,-2.85099655e-01,-2.61178315e-01,
 -4.20909971e-01 ,
  -5.96000373e-01,-5.69693387e-01,-5.42700887e-01,-5.54352403e-01,
 -5.37212074e-01  ,
 
   -4.31429129e-03,-1.65107474e-01,-2.01590639e-02,-1.62399709e-02,
 8.77405852e-02 ,
  -1.26931161e-01,-8.38312730e-02,-6.50360715e-03, 9.24172904e-03,
 -3.87084894e-02 ,
  -2.37011909e-01,-1.65146247e-01,-7.96509311e-02,-1.22068346e-01,
 -1.75430432e-01 ,
  -4.39017057e-01,-2.48530611e-01,-3.58039796e-01,-2.42914960e-01,
 -3.08039010e-01 ,
  -2.63458431e-01,-3.74246866e-01,-2.84180284e-01,-2.22432807e-01,
 -1.16347745e-01  ,
 
    1.17319509e-01, 2.78577924e-01, 2.38091663e-01, 2.57843971e-01,
 1.16785385e-01 ,
   6.43796548e-02, 4.80561592e-02, 1.34834617e-01, 1.32298768e-01,
 1.85954589e-02 ,
  -2.25960389e-01,-5.08086234e-02,-2.20977649e-01,-3.14898677e-02,
 -8.00040290e-02 ,
   2.33552843e-01, 2.75625020e-01, 2.77370274e-01, 3.50275636e-01,
 2.25948021e-01 ,
   6.66890085e-01, 7.69719541e-01, 7.04930782e-01, 6.94990158e-01,
 6.76208675e-01  ,
 
    3.40746582e-01, 3.25955540e-01, 3.91467810e-01, 2.40522951e-01,
 2.36568585e-01 ,
   3.77494872e-01, 5.21020710e-01, 6.11419141e-01, 6.17277741e-01,
 3.72398943e-01 ,
   3.60813402e-02, 7.73191750e-02, 7.85242990e-02, 6.92852912e-03,
 1.23260878e-01 ,
   8.67477432e-02,-4.58230153e-02, 6.93093985e-02, 1.88695397e-02,
 2.15803549e-01 ,
   2.88548563e-02,-2.73691472e-02,-3.05673224e-03, 9.45436489e-03,
 8.60411897e-02  ,
 
    1.54766008e-01, 2.41149608e-02,-7.71589950e-03, 9.87903215e-04,
 1.89231798e-01 ,
   3.57085392e-02, 9.66317132e-02, 5.05826995e-02, 6.28512353e-02,
 1.28236726e-01 ,
  -1.38091072e-01,-4.94343564e-02,-1.28318416e-02,-3.98033522e-02,
 -7.51122832e-02 ,
  -4.12519962e-01,-3.67493987e-01,-3.90375733e-01,-3.62270385e-01,
 -4.89635378e-01 ,
  -3.41668397e-01,-2.32983947e-01,-2.67987341e-01,-3.71031523e-01,
 -3.41353029e-01  ,
 
   -1.40329167e-01, 2.02403846e-03, 1.62466928e-01, 1.27889737e-01,
 -1.87220290e-01 ,
  -2.76436776e-01, 4.67233472e-02, 1.88597277e-01, 6.65352866e-03,
 -3.43433142e-01 ,
  -7.28532016e-01,-5.92545867e-01,-6.62286580e-01,-6.22585177e-01,
 -7.89796352e-01 ,
  -5.90626299e-01,-5.47124743e-01,-5.50622582e-01,-5.99145055e-01,
 -4.17274088e-01 ,
  -2.97992378e-01,-4.41376507e-01,-3.94880265e-01,-3.95946831e-01,
 -1.96582898e-01   ,
 
 
    -1.97870165e-01,-2.53439933e-01,-2.47531921e-01,-2.84576952e-01,
 -2.28891239e-01 ,
  -2.95787811e-01,-1.58453763e-01,-2.28859514e-01,-3.13942164e-01,
 -3.34217250e-01 ,
  -1.41547188e-01, 1.05527760e-02, 9.85489041e-02, 2.50382684e-02,
 4.57341745e-02 ,
   9.53771845e-02, 2.71702945e-01, 3.69591594e-01, 1.78414389e-01,
 1.63051113e-01 ,
   2.11576596e-02, 1.42104954e-01, 2.18308061e-01, 2.22777113e-01,
 8.46276879e-02  ,
 
   -2.42578432e-01,-1.90163091e-01,-2.03809515e-01,-9.49029997e-02,
 -1.92753106e-01 ,
  -4.10076857e-01,-4.47244406e-01,-3.57584000e-01,-2.60505944e-01,
 -2.37724483e-01 ,
  -2.96494812e-01,-3.96252811e-01,-4.02905852e-01,-2.61374533e-01,
 -2.13221818e-01 ,
  -2.46253923e-01,-2.43686870e-01,-2.70007014e-01,-2.61184603e-01,
 -3.02441388e-01 ,
  -1.84443206e-01,-1.92281470e-01,-2.35792160e-01,-2.23933801e-01,
 -1.90630317e-01  ,
 
    3.02722186e-01, 3.00889224e-01, 4.22841191e-01, 4.01389092e-01,
 4.21658725e-01 ,
   1.85615957e-01, 2.00503498e-01, 2.97529519e-01, 3.85781497e-01,
 4.27791238e-01 ,
   1.24522641e-01, 1.35640755e-01, 6.30827323e-02, 9.37361717e-02,
 1.31773412e-01 ,
   1.01577789e-01,-1.78875327e-01,-2.73326039e-01,-1.64822698e-01,
 -2.34591961e-02 ,
   3.64373177e-01,-1.34504214e-02,-1.40023723e-01,-7.43284151e-02,
 1.81505397e-01  ,
 
   -2.31456414e-01,-4.06182557e-01,-3.93283665e-01,-1.69037804e-01,
 -1.77165866e-01 ,
   1.22423068e-01, 1.30181268e-01,-3.73881944e-02, 6.16135299e-02,
 5.69285378e-02 ,
   5.00811636e-02, 2.08078437e-02, 5.38394265e-02, 1.28657877e-01,
 1.98691431e-02 ,
   3.37903239e-02, 1.63724810e-01, 1.47887081e-01, 2.22673222e-01,
 1.09888740e-01 ,
   8.10573846e-02, 1.28577888e-01, 3.15233052e-01, 2.95329034e-01,
 2.04106838e-01  ,
 
   -6.26769185e-01,-5.16826451e-01,-3.93472642e-01,-3.14603388e-01,
 -3.12396735e-01 ,
  -5.97315192e-01,-4.26106393e-01,-3.89679849e-01,-3.14444691e-01,
 -2.46966198e-01 ,
  -1.91054404e-01,-6.46930039e-02,-8.16606358e-02, 7.12780356e-02,
 -5.92261851e-02 ,
   1.38913363e-01, 2.93099940e-01, 3.28738332e-01, 2.79180348e-01,
 2.15481818e-01 ,
   3.43903780e-01, 4.21786249e-01, 4.01191592e-01, 4.26347882e-01,
 3.80763263e-01  ,
 
   -2.03497306e-01,-2.05365747e-01,-1.32354736e-01,-1.58915460e-01,
 -5.60949184e-02 ,
   5.69084957e-02, 9.27140415e-02, 1.82977654e-02, 7.28761107e-02,
 2.74235737e-02 ,
  -7.03300759e-02,-1.38609514e-01,-3.26067507e-02,-8.25283974e-02,
 8.02454948e-02 ,
  -1.27568603e-01,-2.84909457e-01,-3.01400155e-01,-1.79954991e-01,
 -6.92790672e-02 ,
  -9.21421051e-02,-3.31900299e-01,-2.71795154e-01,-2.31333584e-01,
 3.92578449e-03   ,
 
 
    -5.33596754e-01,-4.83407199e-01,-3.95787209e-01,-3.20334435e-01,
 -4.62308936e-02 ,
  -3.03597867e-01,-3.85509819e-01,-3.80245477e-01,-2.09386334e-01,
 1.18294023e-02 ,
  -1.40418977e-01,-1.95058897e-01,-2.02929765e-01, 1.07825279e-01,
 2.47011796e-01 ,
   3.77919935e-02, 1.48799449e-01, 2.67126918e-01, 3.25841486e-01,
 4.24251348e-01 ,
   2.52772659e-01, 4.12308484e-01, 6.34006083e-01, 6.70575500e-01,
 7.33598530e-01  ,
 
    1.17408909e-01, 1.82537869e-01, 1.46981105e-01, 1.71303511e-01,
 2.05816880e-01 ,
  -6.15793616e-02, 4.02784869e-02,-5.55947050e-02, 2.90758312e-02,
 1.09553998e-02 ,
  -4.85841073e-02, 1.08881909e-02,-9.41434577e-02, 4.49460521e-02,
 3.20196375e-02 ,
  -3.17971073e-02, 4.03534994e-02, 2.13941932e-01, 1.57145694e-01,
 5.32605536e-02 ,
   1.80842429e-02, 6.35678470e-02, 1.78163514e-01, 1.38733134e-01,
 -1.23088630e-02  ,
 
   -1.59968644e-01,-1.22090168e-01,-9.28884521e-02, 2.68006977e-02,
 -1.29283085e-01 ,
  -2.11376309e-01,-1.19794749e-01, 1.04628047e-02,-1.15288068e-02,
 -8.13761503e-02 ,
  -2.89236844e-01,-1.53699607e-01,-1.22933023e-01,-1.33089602e-01,
 -2.53192186e-01 ,
  -3.48802865e-01,-2.05584228e-01,-1.92579091e-01,-9.84353051e-02,
 -4.11703587e-01 ,
  -5.52192092e-01,-5.10692835e-01,-3.74102980e-01,-4.51936126e-01,
 -6.27182662e-01  ,
 
   -6.35406196e-01,-5.81630051e-01,-4.87072766e-01,-6.42388344e-01,
 -6.55022323e-01 ,
  -4.96616215e-01,-2.46426255e-01,-1.61714554e-01,-2.66703427e-01,
 -4.20826882e-01 ,
  -3.96710932e-01,-8.67374390e-02,-6.15028329e-02,-1.60465613e-02,
 -1.18097089e-01 ,
  -1.89508468e-01,-7.99234062e-02, 5.75125739e-02, 1.17254265e-01,
 1.06994778e-01 ,
  -3.47725265e-02, 2.86079068e-02, 1.78586677e-01, 3.03242236e-01,
 3.00507843e-01  ,
 
   -1.19292870e-01,-2.03618124e-01,-2.23156184e-01,-2.60503650e-01,
 -1.07581265e-01 ,
  -1.22690015e-01,-1.39367655e-01,-1.04509756e-01,-1.37529960e-02,
 2.47362703e-02 ,
  -5.47920279e-02, 4.65172231e-02, 1.67050928e-01, 2.11586177e-01,
 1.63398117e-01 ,
  -2.00200483e-01, 2.41641343e-01, 3.78927231e-01, 2.86065727e-01,
 2.01292500e-01 ,
  -1.98853806e-01, 2.56009102e-01, 3.41354400e-01, 4.32380825e-01,
 1.91952050e-01  ,
 
    1.39770433e-01, 2.67577559e-01, 1.65323287e-01, 7.52920806e-02,
 -4.73385826e-02 ,
   1.18292890e-01, 3.09291244e-01, 2.02829212e-01, 2.87144870e-01,
 2.18845427e-01 ,
   9.20506045e-02, 3.14897597e-01, 3.99863869e-01, 4.28992510e-01,
 2.42298290e-01 ,
  -5.99986389e-02, 3.31843793e-01, 5.55871964e-01, 6.22225940e-01,
 2.49143079e-01 ,
  -1.44635603e-01, 1.70334712e-01, 3.05592448e-01, 2.65256137e-01,
 -1.03622572e-02   ,
 
 
     1.39707789e-01, 1.06519498e-01,-3.12190969e-02,-1.26981363e-02,
 -1.06714733e-01 ,
   2.21612886e-01, 3.84669930e-01, 3.48521411e-01, 2.99483389e-01,
 1.91040859e-01 ,
   4.88687754e-01, 6.49868429e-01, 5.43290555e-01, 4.11971331e-01,
 2.83133864e-01 ,
   5.25899351e-01, 5.52409768e-01, 5.13868630e-01, 3.96071345e-01,
 4.12326574e-01 ,
   2.77900815e-01, 3.68380100e-01, 2.51560837e-01, 1.34180278e-01,
 1.26409546e-01  ,
 
   -6.51969835e-02,-1.27515450e-01,-2.14619353e-01,-1.43239006e-01,
 -7.39473803e-03 ,
   7.68988132e-02,-1.65011734e-01,-1.09124221e-01,-2.97545753e-02,
 1.21511608e-01 ,
   6.71249721e-03,-6.07165731e-02,-9.46069583e-02, 9.48009118e-02,
 2.00967029e-01 ,
   1.86413392e-01,-5.32819554e-02,-7.93312639e-02, 4.76570576e-02,
 1.42602757e-01 ,
   1.90219253e-01, 1.86938271e-01, 5.20892479e-02, 3.98417264e-02,
 2.18733028e-01  ,
 
    1.05686970e-01,-1.26308268e-02,-4.31566760e-02, 1.63978823e-02,
 1.71163321e-01 ,
  -5.22553436e-02,-1.19305588e-01,-7.56442621e-02,-1.06841736e-01,
 9.09754261e-02 ,
  -1.59045644e-02,-1.92153215e-01,-1.85944825e-01,-5.15525751e-02,
 2.98209302e-02 ,
  -1.01906106e-01,-2.34213904e-01,-1.56737715e-01,-9.73148346e-02,
 8.79734233e-02 ,
   2.05145329e-01, 1.27823964e-01, 1.16082177e-01, 1.56863391e-01,
 3.36299211e-01  ,
 
    1.46396875e-01, 4.43159230e-02,-6.14015572e-02, 1.94438919e-01,
 1.82326078e-01 ,
   2.06970721e-01, 1.53821528e-01, 7.93738961e-02, 8.23097825e-02,
 -4.90488857e-02 ,
   3.58024985e-01, 3.34078223e-01, 2.85743386e-01, 1.73304051e-01,
 7.61346817e-02 ,
   3.64625990e-01, 4.00465637e-01, 2.45543227e-01, 1.18483730e-01,
 -1.25664264e-01 ,
   2.76537687e-01, 3.19335639e-01, 2.60381192e-01, 1.85203716e-01,
 3.55738588e-02  ,
 
   -1.17239505e-01,-1.41800806e-01,-2.25199491e-01,-1.84949860e-01,
 -1.72661498e-01 ,
  -1.90366432e-02,-3.41324776e-01,-2.96447009e-01,-3.73739183e-01,
 -2.50787497e-01 ,
  -1.09237388e-01,-4.08318281e-01,-5.63572168e-01,-4.75937575e-01,
 -3.37939352e-01 ,
   1.90908797e-02,-3.84436637e-01,-3.55394900e-01,-4.15789723e-01,
 -3.70685250e-01 ,
  -1.01148129e-01,-1.50297046e-01,-3.71528447e-01,-4.80944723e-01,
 -3.56224537e-01  ,
 
   -3.43540609e-02,-1.98864579e-01,-1.74457371e-01,-8.99186283e-02,
 4.35841046e-02 ,
  -2.17298016e-01,-3.87972325e-01,-4.87849057e-01,-4.09444928e-01,
 -1.20982721e-01 ,
  -6.92080110e-02,-1.66363925e-01,-2.10909978e-01,-1.59823656e-01,
 -8.09160620e-02 ,
   3.00781101e-01, 1.13472372e-01,-9.98081192e-02,-1.67749211e-01,
 -5.44717796e-02 ,
   2.15055987e-01, 2.69098114e-02, 6.66482234e-03,-1.33770064e-01,
 5.78748062e-03   ,
 
 
    -2.26899788e-01,-1.33595049e-01, 1.18968694e-03,-5.78693906e-03,
 1.03856593e-01 ,
  -4.42895517e-02, 4.00882103e-02, 2.07549676e-01, 3.07371765e-01,
 2.10618347e-01 ,
   1.63471878e-01, 2.42232084e-01, 3.29872638e-01, 3.34600389e-01,
 4.11263853e-01 ,
   1.21917218e-01, 2.01993987e-01, 1.84538826e-01, 2.68407971e-01,
 3.35399598e-01 ,
  -8.93721208e-02,-8.75256211e-02,-8.59726220e-02,-5.64058870e-02,
 1.36255904e-03  ,
 
    9.77750402e-03,-4.67808843e-02,-3.29620317e-02,-2.20204387e-02,
 -5.63653223e-02 ,
   9.44542512e-03,-2.04310473e-02,-1.67517498e-01,-1.98556259e-01,
 -7.60969445e-02 ,
   2.74863392e-01, 9.98555049e-02, 4.28133644e-04,-9.58069265e-02,
 -1.54232726e-01 ,
   2.10970372e-01, 2.14401186e-01, 7.07128122e-02,-1.28409073e-01,
 -1.49180517e-01 ,
   3.13314378e-01, 2.98023850e-01, 1.48003593e-01,-1.23265132e-01,
 -6.56694323e-02  ,
 
    4.70162213e-01, 2.51638323e-01, 3.46730724e-02,-4.05413210e-02,
 -8.98268670e-02 ,
   3.42691034e-01, 3.81980985e-02,-1.87557667e-01,-1.91050276e-01,
 -1.45530239e-01 ,
   2.50759810e-01,-5.13067171e-02,-2.21941426e-01,-4.50394750e-01,
 -4.24663693e-01 ,
   3.84728074e-01, 4.04447056e-02,-3.07791561e-01,-3.89194906e-01,
 -4.31480885e-01 ,
   6.35341823e-01, 3.38056087e-01, 4.70107086e-02,-1.25865012e-01,
 -1.45861328e-01  ,
 
   -1.47401795e-01,-1.40483186e-01,-1.57123625e-01,-8.66745859e-02,
 -3.46351713e-02 ,
  -1.10323563e-01, 5.34431860e-02, 1.42590608e-02, 7.30811730e-02,
 8.74348953e-02 ,
  -1.48121163e-01, 8.59494954e-02, 2.34790906e-01, 1.93705946e-01,
 4.86368127e-02 ,
  -1.69074729e-01, 9.95692611e-02, 2.13346004e-01, 2.91930586e-01,
 2.17298642e-01 ,
  -4.52853382e-01,-2.53282070e-01,-8.97486433e-02, 1.31222680e-01,
 1.27711177e-01  ,
 
   -1.53045893e-01,-1.53830200e-01,-8.34887400e-02,-1.41431779e-01,
 -1.64452776e-01 ,
  -1.82492957e-01,-2.15499312e-01,-2.92098135e-01,-2.07930267e-01,
 -2.43236139e-01 ,
  -5.55132963e-02,-1.73190027e-01,-2.60251552e-01,-3.30503315e-01,
 -3.69772524e-01 ,
  -8.51456821e-02,-9.71661732e-02,-2.66115367e-01,-3.81525725e-01,
 -5.43097496e-01 ,
  -2.41235614e-01,-2.03279942e-01,-3.49230528e-01,-5.45330048e-01,
 -6.84707224e-01  ,
 
    2.68637072e-02,-1.67352021e-01,-6.79213628e-02,-1.67332232e-01,
 -3.17240730e-02 ,
  -5.63936261e-03,-2.06992216e-03, 9.80555639e-03,-1.69452652e-01,
 -1.09639138e-01 ,
   5.88085651e-02, 1.37349129e-01, 3.08652464e-02,-8.09386447e-02,
 -1.82062194e-01 ,
   5.90358302e-02, 2.17249036e-01, 1.75233353e-02,-7.06488267e-02,
 -1.63433984e-01 ,
   1.02777071e-01, 1.61849806e-04,-3.42923007e-03,-7.60507071e-03,
 -8.06386545e-02   ,
 
 
    -1.34847179e-01,-1.33532286e-01,-1.61078125e-01,-2.25751624e-01,
 -4.74507034e-01 ,
  -8.66178051e-03,-1.00387745e-01,-2.09009573e-01,-1.99896380e-01,
 -4.07241970e-01 ,
  -5.55684266e-04, 3.82009335e-02, 7.93735236e-02, 8.97918735e-03,
 -1.11225456e-01 ,
   1.25365525e-01, 1.69140652e-01, 8.15907195e-02, 1.48086116e-01,
 -1.10270314e-01 ,
   1.81728423e-01, 1.58414114e-02, 1.99088767e-01, 1.07403770e-01,
 -1.38624972e-02  ,
 
   -2.41431594e-01,-3.68493557e-01,-1.72501683e-01,-2.22286493e-01,
 -2.15464219e-01 ,
  -2.63195187e-01,-3.11753422e-01,-2.87433177e-01,-1.82044849e-01,
 -1.53550521e-01 ,
  -6.25448450e-02,-1.91750556e-01,-1.80122167e-01,-1.61954686e-01,
 -1.13547772e-01 ,
  -8.69360343e-02,-1.66328162e-01,-6.18154518e-02,-1.11447446e-01,
 -1.72126040e-01 ,
  -1.30936325e-01,-4.10303265e-01,-3.25971246e-01,-4.53926533e-01,
 -4.22373950e-01  ,
 
   -2.97650903e-01,-3.31627190e-01,-2.43729144e-01,-9.95553061e-02,
 1.48947332e-02 ,
  -9.02562812e-02,-1.87657163e-01,-3.79053056e-02, 7.15175597e-03,
 1.19162351e-01 ,
  -1.22966647e-01,-4.60482091e-02,-1.14849068e-01, 8.74314308e-02,
 1.19029112e-01 ,
   1.08736753e-01,-3.43569890e-02,-1.02335811e-01, 9.20093618e-03,
 1.31599173e-01 ,
   9.14705619e-02,-2.07156003e-01,-1.10359438e-01,-1.02389328e-01,
 -8.56511965e-02  ,
 
    1.20224006e-01, 1.44813880e-01, 1.90303206e-01, 1.62412643e-01,
 -1.11238018e-01 ,
   1.01194479e-01, 2.19561994e-01, 2.30983004e-01,-1.68846939e-02,
 -1.15437023e-01 ,
  -3.53686735e-02, 2.45771036e-02,-5.89079708e-02,-2.73308575e-01,
 -2.83107400e-01 ,
  -2.58070260e-01,-1.18695833e-01,-1.62109628e-01,-2.71615922e-01,
 -3.36091608e-01 ,
  -6.35356367e-01,-4.21252131e-01,-3.37897331e-01,-5.57966232e-01,
 -6.79052234e-01  ,
 
    7.03464746e-02, 1.89871460e-01, 2.38718480e-01, 3.40755045e-01,
 3.41918886e-01 ,
  -8.39154050e-02, 1.33810520e-01, 2.08021015e-01, 3.09222490e-01,
 2.29814544e-01 ,
   4.30810079e-02, 2.13451579e-01, 3.20843548e-01, 2.16875717e-01,
 -8.39157626e-02 ,
  -2.83603054e-02, 1.25989467e-01, 7.55957812e-02,-1.96653381e-02,
 -2.68190891e-01 ,
  -4.62074935e-01,-3.71780366e-01,-4.12711799e-01,-5.72655201e-01,
 -6.81623697e-01  ,
 
    6.72388256e-01, 6.62609875e-01, 4.81240153e-01, 3.83033991e-01,
 4.19596463e-01 ,
   6.04007125e-01, 5.32231688e-01, 4.35117185e-01, 4.38535333e-01,
 3.59775126e-01 ,
   5.88001072e-01, 4.60495204e-01, 4.20355439e-01, 2.76017457e-01,
 2.64805317e-01 ,
   2.66324401e-01, 2.78451145e-01, 1.13714613e-01, 3.78968045e-02,
 -8.03662837e-02 ,
  -4.55246419e-01,-3.76188815e-01,-3.94255072e-01,-4.80196327e-01,
 -6.33089721e-01   ,
 
 
    -5.72247356e-02,-1.77270696e-01,-1.60347432e-01,-6.21234812e-02,
 2.26129949e-01 ,
   1.07663900e-01, 3.19780037e-02, 9.70307589e-02, 9.83347744e-02,
 3.80573869e-01 ,
   2.26725936e-01, 1.51478440e-01, 1.35400504e-01, 2.76607513e-01,
 3.20310771e-01 ,
  -1.89684749e-01,-1.30399466e-01,-6.77005574e-02,-5.15147038e-02,
 5.11428192e-02 ,
  -3.35060924e-01,-3.33881557e-01,-3.96760404e-01,-3.45232397e-01,
 -7.22818300e-02  ,
 
    1.06844686e-01, 2.47670524e-02, 1.64295211e-01, 2.26711556e-01,
 4.56318319e-01 ,
  -1.03373632e-01, 1.88970026e-02, 1.01808913e-01, 5.85078299e-02,
 1.49678588e-01 ,
  -3.05476695e-01,-1.77482754e-01,-7.90473148e-02,-6.44131228e-02,
 -1.49298543e-02 ,
  -5.12253165e-01,-4.00808632e-01,-3.44585001e-01,-2.61169672e-01,
 -1.67135030e-01 ,
  -3.18981528e-01,-1.70673758e-01,-2.07672924e-01,-2.23136127e-01,
 4.12698202e-02  ,
 
    6.36060357e-01, 6.95555091e-01, 7.67341912e-01, 6.15064621e-01,
 6.43029153e-01 ,
   3.55881095e-01, 5.15331507e-01, 5.32805383e-01, 3.68755460e-01,
 4.30110902e-01 ,
  -1.07207455e-01, 1.50170982e-01, 1.09324507e-01, 5.13551459e-02,
 1.00478172e-01 ,
  -1.34275243e-01,-1.09882772e-01,-2.89891567e-02,-1.57214642e-01,
 -6.53152689e-02 ,
  -3.90137546e-02, 4.64307368e-02, 1.43259531e-02, 1.92794446e-02,
 1.67632952e-01  ,
 
   -1.01455793e-01,-9.88390446e-02,-1.91579670e-01,-1.53405353e-01,
 -1.27283603e-01 ,
   6.95064515e-02, 2.11506009e-01, 2.73111492e-01, 2.18177259e-01,
 1.63603827e-01 ,
   1.75115928e-01, 1.10342674e-01, 1.10791668e-01, 1.62612826e-01,
 1.79647163e-01 ,
   3.03392112e-01, 2.48117104e-01, 1.26948729e-01, 2.88151056e-01,
 2.77163714e-01 ,
   6.32594764e-01, 4.17607099e-01, 5.23283184e-01, 4.86099005e-01,
 5.23843229e-01  ,
 
    2.90505707e-01, 1.77402183e-01, 1.64466098e-01, 2.43928775e-01,
 5.39671779e-01 ,
   2.49322653e-01, 4.03141916e-01, 2.86474437e-01, 3.76355916e-01,
 4.16038841e-01 ,
   2.28272095e-01, 2.15863332e-01, 3.34944814e-01, 1.73987955e-01,
 2.74718046e-01 ,
  -1.97974905e-01,-1.88254550e-01,-5.52343726e-02,-3.19072455e-02,
 -6.97821975e-02 ,
  -1.15034230e-01,-2.63701528e-01,-1.81689426e-01,-6.16602711e-02,
 -6.91087916e-02  ,
 
   -5.59423506e-01,-2.96375632e-01,-8.05313215e-02,-2.59511858e-01,
 -3.44231993e-01 ,
  -6.60873175e-01,-2.74332702e-01,-1.50280952e-01,-1.38632357e-01,
 -4.93602097e-01 ,
  -9.41003025e-01,-7.06633151e-01,-5.87778211e-01,-6.22951686e-01,
 -6.79814219e-01 ,
  -6.56367064e-01,-7.19301999e-01,-7.13444591e-01,-5.52591562e-01,
 -5.57857394e-01 ,
  -4.29171354e-01,-4.44728792e-01,-4.30521697e-01,-3.36340785e-01,
 -1.52730644e-01   ,
 
 
    -2.30389595e-01,-3.09428751e-01,-2.37938836e-01,-1.90558687e-01,
 5.52161131e-03 ,
  -2.47762859e-01,-3.23485613e-01,-2.98606366e-01,-2.37158626e-01,
 -1.93554074e-01 ,
  -2.29304269e-01,-1.04025170e-01,-2.13958010e-01,-1.99336708e-01,
 -2.10738704e-01 ,
  -7.72158429e-02,-5.07621430e-02,-3.85799222e-02,-2.12456316e-01,
 -1.97852507e-01 ,
  -2.26025388e-01,-1.34805247e-01,-1.39729261e-01,-1.75899446e-01,
 -2.67362803e-01  ,
 
    2.68597752e-02,-1.67509466e-02,-3.65171209e-02,-1.06519304e-01,
 -4.13486324e-02 ,
   1.07070491e-01,-4.75011617e-02,-1.33895025e-01,-5.17316870e-02,
 -1.15677573e-01 ,
   4.51820791e-02,-2.47520953e-02, 8.12820867e-02, 1.07357306e-02,
 -7.90894777e-02 ,
   5.29935956e-02, 6.77544102e-02, 4.10659425e-02, 7.96880666e-03,
 -3.33802924e-02 ,
   1.94396265e-02, 3.30732018e-02, 2.46453309e-03,-6.32424951e-02,
 -2.07361281e-01  ,
 
    4.21525389e-01, 3.79051387e-01, 3.62361878e-01, 3.44253272e-01,
 4.42197859e-01 ,
   3.52386802e-01, 3.32057387e-01, 3.47059965e-01, 2.68879771e-01,
 3.53722274e-01 ,
   1.93047971e-01, 9.07891542e-02, 1.40134469e-01, 1.65842012e-01,
 2.28480965e-01 ,
   3.38457562e-02, 5.54459281e-02, 8.98423865e-02, 6.06577136e-02,
 -4.78176138e-04 ,
   1.43427197e-02,-6.54395148e-02, 1.23957833e-02,-8.80488530e-02,
 3.26327421e-02  ,
 
   -3.57588291e-01,-3.67682427e-01,-2.90652871e-01,-3.07546437e-01,
 -4.42244679e-01 ,
  -2.71700710e-01,-1.65586904e-01,-2.02490702e-01,-2.14687362e-01,
 -2.59995073e-01 ,
  -3.49983782e-01,-2.20767274e-01,-1.20486937e-01,-2.63265073e-01,
 -2.13852987e-01 ,
  -3.07252616e-01,-1.28433824e-01,-1.23082519e-01,-9.54785645e-02,
 -1.67447120e-01 ,
  -3.45216870e-01,-1.64443031e-01,-1.81540042e-01,-7.48344064e-02,
 -1.06396072e-01  ,
 
    1.89403526e-03,-5.98716214e-02,-1.37198359e-01,-1.32748127e-01,
 -4.62146699e-02 ,
   4.76002395e-02,-3.24480794e-02, 2.92601902e-02,-2.65701953e-02,
 -2.01415867e-02 ,
   1.14307076e-01,-3.12274264e-04, 8.11551213e-02, 5.20053096e-02,
 5.38812131e-02 ,
  -6.84278384e-02, 7.48807862e-02, 1.39825925e-01, 1.31631330e-01,
 -7.80800581e-02 ,
  -1.27198353e-01, 8.36405531e-02, 7.59417489e-02, 1.89235494e-01,
 8.80743340e-02  ,
 
   -1.71287507e-01,-1.35389924e-01,-1.01145931e-01,-5.81251010e-02,
 -2.56128997e-01 ,
  -1.96587324e-01,-1.34441555e-01,-1.74533948e-02,-5.61098270e-02,
 -1.92684889e-01 ,
  -2.21033230e-01,-4.85599861e-02,-8.31725076e-02,-7.21252784e-02,
 -3.09386373e-01 ,
  -9.02451053e-02, 1.18847471e-02, 6.12608828e-02,-6.30374402e-02,
 -7.26036653e-02 ,
  -1.25354394e-01,-5.73965609e-02,-5.46367392e-02,-1.57822579e-01,
 -8.78830478e-02   ,
 
 
     5.07907420e-02, 8.67009386e-02, 1.11644082e-01, 9.47024897e-02,
 3.35272439e-02 ,
   6.66603521e-02, 1.84612200e-01, 1.76680312e-01, 8.62834677e-02,
 1.80122428e-04 ,
   1.73782203e-02, 1.13676324e-01, 2.77801216e-01, 7.27083832e-02,
 8.03183950e-03 ,
  -1.67352095e-01,-6.47824109e-02, 1.11074507e-01, 5.95756294e-03,
 -2.11957440e-01 ,
  -4.20200080e-01,-2.09568962e-01,-1.67714238e-01,-1.16133206e-01,
 -4.13324296e-01  ,
 
    7.13798590e-03,-5.27948178e-02, 3.62172499e-02,-2.65957750e-02,
 9.92074236e-02 ,
  -1.50418162e-01,-2.22364768e-01,-1.55114427e-01, 3.18771135e-03,
 1.10248491e-01 ,
  -1.93322942e-01,-2.77198195e-01,-1.00606143e-01, 7.28919059e-02,
 1.97746113e-01 ,
  -1.56031311e-01,-9.44633484e-02, 1.34311840e-02, 2.70882368e-01,
 2.69213825e-01 ,
   5.36120236e-02,-9.33795888e-03, 1.85622022e-01, 3.44295144e-01,
 3.51045787e-01  ,
 
    6.90665245e-02,-1.66792214e-01,-4.02472876e-02,-1.10817872e-01,
 8.62210765e-02 ,
  -1.16888873e-01,-3.19104135e-01,-3.20011497e-01,-1.68176770e-01,
 5.73916994e-02 ,
  -3.05100977e-01,-5.45632482e-01,-4.19776022e-01,-2.01759934e-01,
 1.28829971e-01 ,
  -7.77971447e-02,-3.51792455e-01,-2.16894761e-01, 3.11638284e-02,
 2.61287659e-01 ,
   3.57396752e-01, 1.56119078e-01, 1.57874614e-01, 4.77723122e-01,
 8.04697931e-01  ,
 
   -3.89168739e-01,-2.85493493e-01,-1.84867963e-01,-2.40475267e-01,
 -3.34129333e-01 ,
  -2.76330173e-01,-1.84732497e-01,-3.96991558e-02,-2.86163203e-02,
 -2.78336227e-01 ,
  -2.21443251e-01, 1.19428762e-04,-4.78483960e-02,-5.84698729e-02,
 -2.48568580e-01 ,
  -5.94779626e-02, 1.59670383e-01,-9.10467654e-03,-1.02233991e-01,
 -3.23153526e-01 ,
  -5.99028945e-01,-2.73210377e-01,-3.57928902e-01,-5.08075714e-01,
 -8.02933812e-01  ,
 
   -2.00060327e-02,-3.89580280e-02, 3.01263463e-02,-9.54694077e-02,
 -1.13839135e-01 ,
  -2.43013520e-02,-2.26255879e-02,-1.43087376e-02,-6.13286011e-02,
 -2.05370724e-01 ,
  -1.07513145e-01,-8.21630880e-02, 3.25743295e-02, 7.68181011e-02,
 -1.75928593e-01 ,
  -2.10494950e-01,-1.36992723e-01, 2.50091739e-02, 9.85203683e-03,
 -7.31624439e-02 ,
  -3.40072453e-01,-1.84210852e-01,-1.94621518e-01, 9.68536548e-03,
 -2.46163800e-01  ,
 
    8.77791420e-02, 5.81740476e-02, 4.89240624e-02, 2.02818319e-01,
 1.24316558e-01 ,
   6.87639713e-02,-6.77541923e-03,-1.92735754e-02, 6.98276833e-02,
 1.05443895e-01 ,
  -7.08069950e-02, 3.96923069e-03,-6.25742450e-02, 1.79015857e-04,
 1.00443773e-01 ,
   1.31860569e-01, 1.54780760e-01, 3.27723533e-01, 4.11747217e-01,
 4.75038320e-01 ,
   2.56664515e-01, 3.20768833e-01, 4.48876619e-01, 4.02301461e-01,
 5.05835950e-01   ,
 
 
    -2.32166693e-01,-1.71801552e-01,-1.31438091e-01,-1.81540921e-01,
 -1.84416994e-01 ,
  -1.81726307e-01,-1.06001139e-01,-5.79197481e-02, 3.45061347e-02,
 -2.35818308e-02 ,
  -3.11698858e-02, 8.39201435e-02, 8.52743834e-02, 2.27955859e-02,
 -2.40953248e-02 ,
  -9.06169266e-02, 5.58538176e-02, 1.02892987e-01, 5.98979928e-02,
 7.37580238e-03 ,
  -2.03306898e-02, 3.37709114e-02,-4.04067077e-02, 1.34841735e-02,
 -1.12746149e-01  ,
 
   -6.73452467e-02,-1.50811806e-01,-4.96587791e-02,-1.87298924e-01,
 -9.92522016e-02 ,
  -6.09345101e-02, 1.47824483e-02,-3.38282399e-02,-2.82719675e-02,
 -9.98631865e-02 ,
   3.10251266e-02, 1.64295286e-01, 1.20218374e-01, 1.79127127e-01,
 9.07879472e-02 ,
   2.05611750e-01, 2.45670930e-01, 2.81629831e-01, 1.66849181e-01,
 6.64376915e-02 ,
   2.99578428e-01, 2.88382053e-01, 4.11179751e-01, 1.87036410e-01,
 5.22836372e-02  ,
 
    1.56776577e-01, 9.71043035e-02,-4.45938110e-02,-2.35894369e-03,
 1.18083082e-01 ,
   7.57805854e-02, 1.08290482e-02, 9.56413150e-02,-2.09734719e-02,
 9.90064740e-02 ,
   7.60053173e-02,-9.14511532e-02, 6.69409633e-02, 8.73325020e-03,
 1.17857613e-01 ,
   5.97787201e-02, 6.05756184e-03, 8.28982517e-02, 9.16919112e-02,
 1.09410822e-01 ,
   1.48121774e-01, 1.42264396e-01, 2.08460197e-01, 1.20744064e-01,
 1.69062138e-01  ,
 
   -3.24225754e-01,-2.03272507e-01,-1.41572371e-01,-1.12162888e-01,
 -1.78520843e-01 ,
  -3.41296047e-01,-1.43828541e-01,-2.05024004e-01,-8.63022059e-02,
 -2.04376310e-01 ,
  -3.63133460e-01,-3.43492538e-01,-3.04566532e-01,-4.10156190e-01,
 -3.92980397e-01 ,
  -4.52705771e-01,-2.67343551e-01,-3.40960950e-01,-3.67124081e-01,
 -3.76464069e-01 ,
  -5.08229315e-01,-4.75540161e-01,-3.97807717e-01,-3.68335903e-01,
 -5.38100779e-01  ,
 
   -1.37347847e-01,-2.40263209e-01,-1.76227033e-01,-1.06784374e-01,
 -1.56393364e-01 ,
  -2.01029629e-01,-1.22532427e-01,-1.04647942e-01,-1.11823320e-01,
 -6.65652081e-02 ,
  -1.71982765e-01,-2.62097567e-02,-1.32091358e-01,-9.92838144e-02,
 -1.24564402e-01 ,
  -1.11067906e-01,-1.73304342e-02, 2.77106985e-02,-7.96195716e-02,
 -6.63773865e-02 ,
  -2.27792606e-01,-2.94740088e-02,-2.23027673e-02,-4.98821288e-02,
 -1.88589171e-01  ,
 
    2.52462268e-01, 2.39490464e-01, 2.23566830e-01, 1.45305306e-01,
 2.23689988e-01 ,
  -4.03535776e-02, 8.10212046e-02, 7.72054568e-02, 4.84066941e-02,
 7.64538581e-03 ,
  -9.29215401e-02,-4.10510711e-02,-7.97388032e-02,-2.17678010e-01,
 -1.42299354e-01 ,
   1.26981661e-01, 1.26602605e-01, 1.05162635e-01, 1.15873357e-02,
 -1.43107131e-01 ,
   2.33569980e-01, 2.99614757e-01, 9.10297707e-02, 1.16750978e-01,
 -9.70903859e-02   ,
 
 
     1.15607657e-01, 3.15969825e-01, 5.44261277e-01, 6.19921088e-01,
 6.54277980e-01 ,
   8.77979863e-03, 1.34566352e-01, 3.58792841e-01, 3.99963051e-01,
 5.90343535e-01 ,
  -1.50201127e-01, 8.32929388e-02, 3.06414753e-01, 4.88289982e-01,
 4.76195961e-01 ,
  -1.33148625e-01, 1.52445063e-01, 2.42282167e-01, 4.29694355e-01,
 3.75001073e-01 ,
  -2.75925606e-01,-1.27958685e-01, 5.25707863e-02, 1.61898926e-01,
 1.88291579e-01  ,
 
   -2.32891273e-02, 4.74560708e-02, 1.84611306e-01, 1.00386128e-01,
 1.95058346e-01 ,
  -1.88969016e-01,-1.17669888e-01,-1.26024887e-01,-1.24661811e-02,
 4.18234989e-02 ,
  -1.63149744e-01,-1.38576642e-01, 3.71358581e-02,-6.87520355e-02,
 3.91719583e-03 ,
  -1.87503919e-01,-9.78650246e-03, 7.98485950e-02,-1.33885816e-02,
 1.70412421e-01 ,
  -1.85272604e-01, 2.79858317e-02,-2.63041537e-02,-4.90893843e-03,
 1.16802588e-01  ,
 
    8.33939314e-02, 1.29146012e-03,-1.10030703e-01,-1.04120784e-01,
 2.18026824e-02 ,
  -3.16004157e-02, 1.01573188e-02,-1.29528001e-01,-7.31178075e-02,
 -5.90803940e-03 ,
   1.12494677e-01,-1.05505601e-01,-7.18544349e-02,-2.44802043e-01,
 -5.15193604e-02 ,
   1.87596321e-01,-3.82271782e-02,-1.02181122e-01,-1.64872944e-01,
 -1.37580678e-01 ,
   4.04136479e-01, 1.41971707e-01, 1.20755091e-01, 8.92836377e-02,
 1.02475844e-01  ,
 
   -4.95321274e-01,-3.66650254e-01,-3.13249081e-01,-1.98090583e-01,
 -2.22207129e-01 ,
  -3.92528504e-01,-1.05589032e-01,-9.05349925e-02, 7.70897418e-02,
 -7.69844186e-03 ,
  -3.83440435e-01,-2.14837134e-01,-2.63996422e-03, 1.40457049e-01,
 -9.25987493e-03 ,
  -3.62680107e-01,-2.24297613e-01,-1.58846518e-03, 4.14976291e-02,
 2.00383253e-02 ,
  -5.92471123e-01,-3.40001136e-01,-3.39799494e-01,-2.22873300e-01,
 -2.96465039e-01  ,
 
   -2.55478561e-01, 8.49049687e-02, 1.76344842e-01, 3.39678019e-01,
 3.43425214e-01 ,
  -2.63071924e-01, 2.70518977e-02, 1.09015390e-01, 2.61183590e-01,
 1.81676507e-01 ,
  -2.85653025e-01,-2.25764196e-02, 1.44492492e-01, 2.87761807e-01,
 2.74365157e-01 ,
  -2.26522401e-01,-1.02012366e-01, 1.67607874e-01, 4.05683994e-01,
 3.31438512e-01 ,
  -4.24764574e-01,-1.27923965e-01, 1.23297498e-01, 2.70038873e-01,
 2.98469096e-01  ,
 
   -2.49852151e-01,-2.26076782e-01,-1.60711914e-01, 4.39091660e-02,
 -7.62146572e-03 ,
  -1.30183935e-01,-1.46823660e-01,-2.76836175e-02, 3.51996459e-02,
 8.88643637e-02 ,
  -1.47524998e-01,-1.82681322e-01, 5.56514552e-03, 4.99200337e-02,
 -1.88168529e-02 ,
  -6.40892312e-02,-8.15527886e-02, 5.67982756e-02, 8.48858282e-02,
 1.95375293e-01 ,
  -1.51796609e-01,-1.98348865e-01,-1.51597172e-01,-1.23215519e-01,
 -1.67800903e-01   ,
 
 
    -2.47456342e-01, 1.45017891e-03,-9.94693954e-03,-9.82580855e-02,
 -1.25060529e-02 ,
   1.26898475e-02, 6.92816824e-02, 7.31991008e-02, 2.20664874e-01,
 6.08507767e-02 ,
   2.24034339e-01, 2.33664691e-01, 2.72855163e-01, 2.46386796e-01,
 1.68043971e-01 ,
   1.31738916e-01, 2.57348835e-01, 2.91692168e-01, 2.59650320e-01,
 2.07293153e-01 ,
   2.52407156e-02, 1.57914445e-01, 2.18684137e-01, 1.73708320e-01,
 4.05536257e-02  ,
 
    1.22626700e-01,-1.83326425e-03,-5.56650534e-02,-1.25829726e-01,
 -2.41376851e-02 ,
   2.26652607e-01,-2.52068695e-03, 3.42897363e-02,-4.20649722e-02,
 -1.23967476e-01 ,
   4.34865266e-01, 3.26340407e-01, 1.66116774e-01,-1.10698808e-02,
 -1.45853702e-02 ,
   4.87774342e-01, 4.75347728e-01, 2.89329380e-01, 1.61879554e-01,
 1.07075490e-01 ,
   5.69503069e-01, 6.31772220e-01, 4.66181785e-01, 3.71433556e-01,
 2.35176161e-01  ,
 
    2.99638212e-01, 5.80059327e-02, 3.36907730e-02,-5.01298569e-02,
 1.23427706e-02 ,
   2.76750505e-01, 1.27303213e-01, 5.67160640e-03, 2.70914310e-03,
 2.01681908e-02 ,
   3.20608526e-01, 1.25564516e-01,-8.03457275e-02,-1.32229209e-01,
 2.02746149e-02 ,
   3.17417979e-01, 1.03524454e-01, 3.87117937e-02,-6.01490550e-02,
 -1.79186258e-02 ,
   6.02207184e-01, 3.41941953e-01, 1.08583644e-01, 1.02472186e-01,
 2.94441283e-01  ,
 
   -1.52243644e-01,-1.18719302e-02,-1.44542111e-02, 1.14917889e-01,
 8.83179754e-02 ,
  -1.50878906e-01,-2.85906764e-03, 1.24593548e-01, 1.77578852e-01,
 1.57800913e-01 ,
  -3.25325042e-01,-3.15207392e-02, 3.08291018e-02, 4.04570810e-02,
 -2.28205621e-02 ,
  -2.83769846e-01,-7.04176771e-03, 3.23675796e-02, 1.59154877e-01,
 -8.55169967e-02 ,
  -5.68966746e-01,-2.27204844e-01,-1.23930380e-01,-8.84320736e-02,
 -1.40291080e-01  ,
 
   -9.98054892e-02,-1.46827966e-01,-1.06954880e-01,-1.32602021e-01,
 -2.27225274e-01 ,
  -1.33275196e-01,-2.02311292e-01,-1.71574920e-01,-1.43386573e-01,
 -2.55841255e-01 ,
  -2.82640249e-01,-2.18842790e-01,-2.05748737e-01,-9.86403972e-02,
 -2.59308696e-01 ,
  -3.50104481e-01,-2.04867050e-01,-1.42838284e-01,-2.18318745e-01,
 -3.51022840e-01 ,
  -4.96671915e-01,-1.81378782e-01,-1.57941237e-01,-3.77900988e-01,
 -5.00502825e-01  ,
 
   -8.97905156e-02,-4.26641144e-02,-4.71705757e-02,-8.85169208e-02,
 7.77833397e-04 ,
  -1.47603676e-01,-5.37068434e-02,-1.57701552e-01,-8.56262669e-02,
 -1.38861537e-01 ,
  -1.92749128e-01,-1.34129733e-01,-6.91121817e-02,-9.78290290e-02,
 -1.86387479e-01 ,
   8.51906650e-03, 1.00656249e-01, 1.24002956e-02,-1.80722997e-02,
 4.24978174e-02 ,
   1.99407727e-01, 1.75285652e-01, 1.57769293e-01, 1.65036470e-01,
 1.11684524e-01   ,
 
 
    -3.29108685e-01,-2.17421025e-01,-2.72013903e-01,-2.97227979e-01,
 -5.96021153e-02 ,
  -7.73029774e-02, 4.31799050e-03,-7.40949735e-02,-1.32532775e-01,
 -2.05064327e-01 ,
   1.32442400e-01, 1.86591685e-01, 2.17862889e-01, 8.23628753e-02,
 4.36754748e-02 ,
   2.53509879e-01, 3.88158321e-01, 4.18168992e-01, 3.63670379e-01,
 1.57418206e-01 ,
   3.93734217e-01, 4.99625951e-01, 4.87422049e-01, 3.33410501e-01,
 2.24559277e-01  ,
 
    2.93222010e-01, 2.10626841e-01, 1.18840061e-01,-1.56323984e-02,
 7.96313211e-02 ,
   2.10452229e-01, 5.24736941e-02,-1.17540881e-01,-2.35155120e-01,
 -2.78562039e-01 ,
   2.89834082e-01, 7.41694942e-02, 2.17030812e-02,-1.82710230e-01,
 -1.43428534e-01 ,
   2.68379986e-01, 7.77034387e-02, 3.95073183e-03,-1.02303037e-02,
 -5.08358553e-02 ,
   3.37776989e-01, 2.69368768e-01, 2.89005022e-02, 1.28803164e-01,
 1.00867644e-01  ,
 
    2.74499506e-01, 4.24141176e-02, 3.50967748e-03, 1.83589980e-02,
 -8.20532739e-02 ,
   1.59795806e-01, 2.35787556e-02, 2.96645984e-02,-7.04492852e-02,
 -2.21450046e-01 ,
   2.78274447e-01,-6.39945716e-02,-5.22848181e-02,-6.14587665e-02,
 -2.48398092e-02 ,
   5.39927661e-01, 2.41004333e-01, 1.28351435e-01, 1.19807109e-01,
 2.40965441e-01 ,
   8.68005633e-01, 6.25591099e-01, 4.96319234e-01, 5.15159786e-01,
 6.98019505e-01  ,
 
   -1.02846697e-01, 3.17715630e-02,-4.11676941e-03,-1.33614138e-01,
 -1.27155244e-01 ,
   6.58992827e-02, 1.96104586e-01, 2.08222151e-01, 1.74600378e-01,
 3.86103876e-02 ,
   1.42078556e-03, 2.00227186e-01, 2.77066469e-01, 2.30632916e-01,
 1.99852377e-01 ,
  -9.75189954e-02, 1.61855340e-01, 1.24267548e-01, 1.38962314e-01,
 1.50599465e-01 ,
  -2.72518694e-01,-1.28156155e-01,-8.88510942e-02,-1.66824162e-01,
 -3.08003187e-01  ,
 
   -8.09501410e-02,-2.10339084e-01,-2.47364774e-01,-2.41030037e-01,
 -3.85573864e-01 ,
   1.59470588e-02, 4.44845930e-02,-2.99369125e-03,-1.44245580e-01,
 -2.45789617e-01 ,
   3.01198691e-01, 2.56339997e-01, 1.57811090e-01, 1.90312877e-01,
 4.17803861e-02 ,
   3.44720691e-01, 3.73342693e-01, 3.70183468e-01, 1.63039282e-01,
 5.53976558e-02 ,
   2.43913621e-01, 3.61894161e-01, 3.31045151e-01, 1.95738912e-01,
 6.44940212e-02  ,
 
   -4.04962122e-01,-4.54502285e-01,-4.92980659e-01,-5.63139439e-01,
 -6.04277551e-01 ,
  -2.59881109e-01,-3.43657076e-01,-2.98907071e-01,-3.02191079e-01,
 -3.94125134e-01 ,
  -1.73501849e-01,-2.49487087e-01,-4.48910475e-01,-4.10351366e-01,
 -2.91069776e-01 ,
  -3.27835381e-02,-6.06268831e-02,-1.82644829e-01,-3.03071350e-01,
 -9.58666354e-02 ,
  -1.05431825e-01,-1.88281909e-01,-2.13904530e-01,-2.42046341e-01,
 -5.61736785e-02   ,
 
 
     2.59685004e-03,-7.75880925e-03,-1.11839019e-01,-1.89180702e-01,
 -4.19686101e-02 ,
   1.86909623e-02, 4.23838235e-02,-1.53133735e-01,-2.05759302e-01,
 -5.24881221e-02 ,
   3.73460114e-01, 2.82544166e-01, 1.58787951e-01, 1.12460285e-01,
 4.83472794e-02 ,
   4.10302967e-01, 4.63151842e-01, 3.67549479e-01, 3.66264790e-01,
 1.81396157e-01 ,
   3.71302098e-01, 3.23650539e-01, 2.12950543e-01, 2.16692954e-01,
 -1.29509106e-01  ,
 
    3.90695393e-01, 2.00015038e-01, 2.60048121e-01, 2.74207681e-01,
 3.89176935e-01 ,
   2.78476696e-03,-4.03563827e-02, 5.53514883e-02,-6.38602208e-03,
 1.82650596e-01 ,
   6.45964872e-04,-3.05417292e-02, 4.43506278e-02, 5.59136085e-02,
 5.36965989e-02 ,
  -1.34334369e-02,-2.07260214e-02,-4.91077192e-02,-8.62949118e-02,
 8.85142537e-04 ,
  -1.50892660e-01,-2.08975330e-01,-7.25734755e-02,-1.70764744e-01,
 -1.79749712e-01  ,
 
    3.11814874e-01, 4.07986283e-01, 4.65274066e-01, 4.35213268e-01,
 6.05377197e-01 ,
   2.43063331e-01, 1.76960304e-01, 2.24864483e-01, 4.06792790e-01,
 5.03827989e-01 ,
   1.60875004e-02, 3.57459299e-02,-8.42194818e-03, 1.55925959e-01,
 1.67740613e-01 ,
  -1.34088904e-01,-2.19440058e-01,-1.11016557e-01,-9.28344503e-02,
 5.40272519e-02 ,
  -1.37278333e-01,-2.63441473e-01,-2.24540025e-01,-9.15726274e-02,
 7.30996057e-02  ,
 
   -4.67667937e-01,-4.98422593e-01,-6.24849617e-01,-6.19016051e-01,
 -7.62624025e-01 ,
   5.42905666e-02, 1.43581778e-01,-4.57962938e-02,-4.19690199e-02,
 -1.18086427e-01 ,
   1.38499662e-01, 3.22687715e-01, 2.09414050e-01, 1.64857894e-01,
 -6.87898993e-02 ,
   6.87786192e-02, 3.13412368e-01, 2.41042435e-01, 2.48747706e-01,
 -3.00314426e-02 ,
  -1.25509381e-01, 9.22643393e-02, 1.68456510e-02,-1.21036485e-01,
 -2.04337984e-01  ,
 
    2.60204058e-02,-1.45368055e-01,-7.03848153e-02,-1.74738094e-01,
 -1.87833965e-01 ,
  -1.66169584e-01,-1.93128183e-01,-2.72642374e-01,-2.25967616e-01,
 -2.81044871e-01 ,
  -3.24965455e-02, 3.28423381e-02,-1.20599577e-02, 2.55362783e-02,
 -6.21198006e-02 ,
   4.00461890e-02, 1.78527310e-01, 2.72144437e-01, 1.23810038e-01,
 4.21817563e-02 ,
   3.59316962e-03, 9.73967984e-02, 1.59304395e-01, 1.02850743e-01,
 -4.97839600e-02  ,
 
   -5.37444234e-01,-3.85573715e-01,-3.52159441e-01,-2.04153270e-01,
 -4.73894894e-01 ,
  -2.11608648e-01, 1.25917569e-02, 6.38668537e-02, 1.33395586e-02,
 -2.44997531e-01 ,
  -1.62911981e-01,-3.57944295e-02, 1.89269017e-02,-1.28126308e-01,
 -3.36221337e-01 ,
  -2.45572627e-01,-1.09885834e-01,-2.94842795e-02,-7.64979720e-02,
 -1.92027554e-01 ,
  -2.85606265e-01,-2.19180539e-01,-3.22192550e-01,-2.37494141e-01,
 -3.58764321e-01   ,
 
 
    -6.26870453e-01,-1.29682153e-01, 1.71413526e-01,-1.32854506e-01,
 -6.49901032e-01 ,
  -5.95507145e-01, 3.59556265e-02, 4.95182097e-01, 8.48879367e-02,
 -4.48612601e-01 ,
  -5.75975060e-01, 1.69408798e-01, 6.47963583e-01, 3.44880134e-01,
 -3.72550100e-01 ,
  -4.77992654e-01, 2.63655663e-01, 5.50826311e-01, 3.67605418e-01,
 -2.73327142e-01 ,
  -2.74661094e-01, 8.87054950e-02, 3.57395560e-01, 3.21723789e-01,
 -2.93413222e-01  ,
 
   -7.57692039e-01,-4.34571952e-01, 2.04385743e-01, 4.82272536e-01,
 2.44093105e-01 ,
  -8.82865131e-01,-4.46076155e-01, 5.20143807e-01, 7.56472826e-01,
 2.40381464e-01 ,
  -8.07555020e-01,-2.30840907e-01, 5.88047206e-01, 8.38531017e-01,
 2.33738065e-01 ,
  -5.95644355e-01,-3.39662135e-02, 5.65480828e-01, 7.76720047e-01,
 3.42909038e-01 ,
  -2.37272099e-01, 5.74340224e-02, 5.67164361e-01, 5.46060383e-01,
 2.77011186e-01  ,
 
   -8.17563713e-01,-5.92169285e-01,-9.90935485e-04, 2.98713028e-01,
 2.85633028e-01 ,
  -8.68878841e-01,-7.88340151e-01,-1.82964280e-01, 3.49040747e-01,
 1.14000127e-01 ,
  -7.48020351e-01,-5.86153686e-01,-9.02856886e-02, 2.51049608e-01,
 1.17343657e-01 ,
  -4.15428787e-01,-3.20937365e-01,-8.38828236e-02, 2.31290191e-01,
 2.62705833e-01 ,
  -1.92471221e-01,-8.30728654e-03, 2.00182050e-01, 2.13429153e-01,
 3.06166619e-01  ,
 
    4.79591675e-02,-1.76626295e-02,-2.29005784e-01,-1.40996754e-01,
 -2.27739334e-01 ,
   2.53206789e-01, 1.01210974e-01,-2.78347760e-01,-3.34551722e-01,
 -2.20894828e-01 ,
   4.80544597e-01, 4.81248125e-02,-3.98577511e-01,-5.95542014e-01,
 -2.96796262e-01 ,
   4.35604662e-01, 1.93148538e-01,-2.72348344e-01,-4.76138324e-01,
 -1.34070352e-01 ,
   4.13512707e-01, 1.55133501e-01,-2.18776688e-01,-3.75741988e-01,
 -8.15841407e-02  ,
 
   -6.79629147e-01,-7.74896860e-01,-3.01299095e-01, 3.40918779e-01,
 3.05206507e-01 ,
  -5.19792140e-01,-7.01500237e-01,-3.92121971e-02, 6.88796580e-01,
 6.79781020e-01 ,
  -5.92682242e-01,-7.28136718e-01, 7.55021945e-02, 6.65325165e-01,
 6.67592168e-01 ,
  -4.70524877e-01,-4.81056869e-01, 9.17019248e-02, 5.96299291e-01,
 5.41469932e-01 ,
  -5.29202461e-01,-3.42510521e-01, 1.31220013e-01, 5.90765059e-01,
 4.52841759e-01  ,
 
   -5.68843246e-01,-4.28511202e-01,-1.66466236e-01,-7.25471303e-02,
 -9.96375680e-02 ,
  -3.10775369e-01,-2.52693117e-01,-7.08197951e-02,-5.60089163e-02,
 -1.92744210e-01 ,
  -8.91556144e-02, 9.38966945e-02, 9.80106462e-03,-1.94985181e-01,
 -1.37988910e-01 ,
   1.79194853e-01, 3.63618284e-01, 1.06301241e-01,-1.10652983e-01,
 -6.99886912e-03 ,
   2.19027638e-01, 3.43756765e-01, 5.04239649e-02,-9.93194208e-02,
 -1.07028715e-01    };


long double conv2_bias[16] = { -0.6740075 , 0.17880103, 0.59395057,-1.1709261 , 1.0086118 , 0.23195887,
 -0.82771146, 0.63823855,-0.29127538,-0.47567716,-0.5798445 ,-0.46501264,
 -0.29005972,-0.16325091,-0.26818305,-0.46350968 };

 /*#########################################################################################################################*/

 long double conv3_weight[48000] =  {    5.07551804e-02,-2.89883837e-02,-7.49460012e-02,-4.29546013e-02, //[120][16][5][5] 
 4.56513613e-02 ,
  -9.25027952e-03,-1.13470770e-01,-5.88345826e-02,-3.52347568e-02,
 8.45475420e-02 ,
   7.29719177e-03,-5.09719662e-02,-8.53237882e-02,-1.97363030e-02,
 2.36299653e-02 ,
  -3.10146101e-02,-8.95282067e-03,-2.77102515e-02,-4.78334203e-02,
 2.84099039e-02 ,
  -7.63778314e-02, 4.63569351e-02, 7.06896037e-02,-3.46723618e-03,
 -5.95006831e-02  ,
 
   -4.87459404e-03, 6.26590177e-02,-5.91339171e-03, 7.22267330e-02,
 1.70161985e-02 ,
   5.71747050e-02, 5.74277043e-02, 7.02610835e-02, 1.05883323e-01,
 6.88164905e-02 ,
   1.53982565e-01, 5.35290241e-02, 3.12041380e-02, 1.06081024e-01,
 1.10760219e-01 ,
   2.01253369e-01, 1.56668469e-01, 2.21318509e-02, 7.90287033e-02,
 1.42755538e-01 ,
   2.08183601e-01, 1.53920636e-01, 1.05507657e-01, 1.12575985e-01,
 8.98979381e-02  ,
 
   -7.76399747e-02, 1.16414949e-02,-2.18618549e-02, 1.76303443e-02,
 -3.84625420e-02 ,
  -3.18120532e-02, 1.96783692e-02, 2.59202141e-02,-5.77376573e-04,
 -3.52307525e-03 ,
   1.32218078e-02, 2.67694704e-02, 9.33574587e-02, 1.07859820e-01,
 -1.06976344e-03 ,
   1.03895552e-01, 4.67170291e-02,-2.85775233e-02, 6.44940278e-03,
 -1.60960387e-02 ,
   2.15866733e-02,-5.92453347e-04, 1.39185349e-02, 3.76652926e-02,
 1.88492630e-02  ,
 
    1.50806680e-02,-8.96923169e-02,-1.12064593e-01,-1.23449415e-01,
 1.54001955e-02 ,
   1.22084990e-01, 3.20524052e-02,-2.36737132e-02, 1.08481757e-03,
 8.35640207e-02 ,
   3.57053392e-02, 1.01347357e-01,-2.24132612e-02,-2.26410478e-02,
 -3.63976024e-02 ,
  -1.06763072e-01,-3.72430421e-02,-9.00515467e-02,-3.58061343e-02,
 -7.74587318e-02 ,
  -1.36867180e-01,-4.50549200e-02, 2.14047860e-02,-3.39144543e-02,
 -4.77146283e-02  ,
 
    7.44096562e-02, 5.04936241e-02, 1.73594020e-02,-1.30328108e-02,
 -1.53533787e-01 ,
   3.00043039e-02, 5.66217154e-02,-6.39299164e-03,-6.50149360e-02,
 -1.16037056e-01 ,
   6.04153574e-02, 7.99671561e-02,-1.32304262e-02,-1.08095706e-01,
 -6.51621819e-02 ,
   1.02431543e-01, 7.05366628e-03,-6.84267208e-02,-2.22438648e-02,
 -3.91714089e-02 ,
   1.09251089e-01, 2.61289664e-02, 2.72090733e-03, 2.98509430e-02,
 3.11455000e-02  ,
 
   -7.57635236e-02,-7.95702189e-02,-1.00705639e-01,-1.05204761e-01,
 -6.69232458e-02 ,
  -4.49447222e-02, 1.16081769e-02, 7.31279375e-03, 3.24818790e-02,
 -2.85408963e-02 ,
   1.09221796e-02, 1.43224671e-01, 1.60447985e-01, 1.32196113e-01,
 7.69574344e-02 ,
  -9.13134136e-04, 1.40108809e-01, 1.52714491e-01, 7.46760666e-02,
 -2.89101209e-02 ,
  -1.23634003e-01,-2.22911332e-02, 3.22025903e-02, 4.20749784e-02,
 -1.18742160e-01  ,
 
    1.00774486e-02, 2.66609201e-03,-2.67796945e-02, 7.25251436e-02,
 -4.18746844e-02 ,
   5.36493100e-02, 1.64566934e-02, 5.41810431e-02, 3.53474356e-02,
 6.40631840e-02 ,
  -7.11781979e-02, 8.46342221e-02, 9.80438888e-02, 7.69244134e-02,
 5.15564438e-03 ,
  -1.60819754e-01,-5.70149422e-02,-3.23338918e-02,-9.49231610e-02,
 -6.11774363e-02 ,
  -4.21875566e-02, 7.60141462e-02, 9.29212347e-02, 4.18749861e-02,
 -4.54211980e-02  ,
 
    1.94076449e-02,-3.84564362e-02,-8.67727548e-02,-6.07131980e-04,
 4.77807187e-02 ,
   1.00408308e-01,-4.00278866e-02,-4.08586375e-02, 2.80500613e-02,
 -1.08255809e-02 ,
   7.46120512e-02,-8.21129084e-02,-6.11099005e-02,-4.59167324e-02,
 4.00790498e-02 ,
   7.01029375e-02, 4.92494740e-02,-4.80373874e-02, 3.25112185e-03,
 9.10228342e-02 ,
   2.03082338e-01, 7.39336163e-02,-2.23199241e-02, 2.67547779e-02,
 9.80988294e-02  ,
 
   -2.40037590e-02,-2.48298664e-02,-6.03950433e-02,-1.20744355e-01,
 -1.44086510e-01 ,
  -2.33026072e-02, 7.03457296e-02, 2.28074123e-03, 4.04050760e-02,
 -3.67664173e-02 ,
   1.99357811e-02, 1.04967237e-01, 6.24057874e-02, 4.25417721e-02,
 -3.77982594e-02 ,
  -1.71003118e-02, 1.24534033e-01, 6.73966408e-02, 1.27505302e-01,
 -3.24115790e-02 ,
  -1.13957711e-01, 6.61941394e-02, 2.76784040e-02, 4.46948223e-02,
 -1.13116398e-01  ,
 
   -4.02186848e-02,-1.72434784e-02,-5.46374880e-02,-1.38346199e-02,
 -5.09371869e-02 ,
   3.04219853e-02, 4.63209487e-02, 3.56008485e-02, 8.76144245e-02,
 -4.47558891e-03 ,
   4.28536274e-02, 1.51704311e-01,-6.30838517e-03,-1.77689327e-03,
 -2.12918296e-02 ,
  -1.56417340e-02, 9.04400274e-02, 2.47362759e-02, 1.09987579e-01,
 -1.97983105e-02 ,
  -1.35515049e-01, 1.24286693e-02,-6.00389577e-03,-3.87053750e-02,
 -9.00861099e-02  ,
 
   -4.54133973e-02,-1.12641990e-01,-1.11856855e-01,-2.97464877e-02,
 -5.40121868e-02 ,
  -7.05385804e-02, 8.62168297e-02, 5.65649346e-02, 6.19000085e-02,
 -4.39227708e-02 ,
  -1.73913836e-02, 1.50337860e-01, 9.68743563e-02, 1.14959970e-01,
 -3.02939676e-02 ,
  -4.51882593e-02, 8.59870166e-02, 1.06766991e-01, 4.66068648e-02,
 -8.57656077e-03 ,
  -1.20434888e-01,-6.25595525e-02,-5.85155897e-02,-7.89995342e-02,
 -1.29238635e-01  ,
 
   -1.64997652e-02,-7.14948401e-02,-9.35024992e-02,-5.04953638e-02,
 -1.12494491e-02 ,
  -1.91316381e-02, 4.23028246e-02,-1.89494509e-02, 6.16139658e-02,
 -1.47849517e-02 ,
   5.37730977e-02, 6.32964224e-02, 3.38408463e-02, 4.14081104e-03,
 -9.74734314e-03 ,
   3.97154652e-02, 1.56174321e-02,-9.02841985e-02, 9.45960917e-03,
 -2.32970919e-02 ,
   4.81775589e-02, 8.95272121e-02,-1.06449928e-02, 2.23973598e-02,
 -5.35011478e-02  ,
 
   -1.05061233e-01,-8.03611577e-02,-1.61898299e-03, 2.36136653e-02,
 -9.05412510e-02 ,
  -6.01838417e-02, 4.28602584e-02, 3.99263948e-02, 8.70957151e-02,
 -6.61400706e-02 ,
   6.88295532e-03, 1.71765208e-01, 1.19672813e-01, 1.82887480e-01,
 -1.04513504e-02 ,
  -4.86955009e-02, 8.93629864e-02, 1.39932677e-01, 1.07049517e-01,
 1.21447397e-03 ,
  -1.87240869e-01,-9.01674926e-02,-5.06260283e-02,-4.16912250e-02,
 -2.69304439e-02  ,
 
   -2.32290272e-02, 1.99133791e-02, 1.32271782e-01, 1.36616454e-01,
 7.61133954e-02 ,
  -1.11160010e-01, 5.76991998e-02, 7.69546628e-02,-7.13475235e-03,
 -1.82611775e-03 ,
  -1.77368432e-01, 3.53971496e-02, 1.01419993e-01, 1.97894461e-02,
 -5.37902750e-02 ,
  -2.12134972e-01,-7.63678998e-02,-1.15673617e-01,-1.19758710e-01,
 -1.16725095e-01 ,
  -1.51313871e-01,-2.79262085e-02, 8.09119828e-03,-1.01132691e-02,
 -8.53659771e-03  ,
 
   -8.97137634e-03,-1.01394027e-01,-4.18184660e-02,-8.63536522e-02,
 2.04732921e-02 ,
  -2.81493124e-02, 5.21555319e-02, 1.10746525e-01, 8.40701684e-02,
 4.62142080e-02 ,
  -1.97805278e-02, 1.08701155e-01, 8.53057951e-02, 1.00942068e-01,
 1.06813135e-02 ,
   1.32362694e-02, 4.40084413e-02, 1.16176587e-02, 6.74380139e-02,
 1.73298549e-02 ,
  -1.21832721e-01, 5.13459332e-02, 8.90974998e-02, 8.06219950e-02,
 -1.16730504e-01  ,
 
    2.33050287e-02, 2.33648065e-02, 3.47506553e-02, 4.54721525e-02,
 4.11862992e-02 ,
  -2.77589983e-03,-1.46725914e-02, 1.24154240e-02,-5.90106174e-02,
 -6.95417374e-02 ,
  -7.12577775e-02,-8.01192597e-02,-5.77408895e-02,-6.43265322e-02,
 -1.61653146e-01 ,
  -1.06067779e-02, 1.02149416e-02, 6.56291749e-03,-4.74113487e-02,
 -9.22146812e-02 ,
  -3.09168678e-02, 3.87758226e-03,-7.78210014e-02,-1.51040656e-02,
 -5.95993623e-02   ,
 
 
    -4.52973247e-02,-1.38515875e-01,-1.36077285e-01,-1.05577633e-01,
 -1.56082883e-02 ,
  -4.46363389e-02,-7.95484334e-02,-1.75621510e-01,-1.10260829e-01,
 -3.15660425e-02 ,
   9.46987979e-03,-2.74813380e-02,-1.54496953e-01,-4.70964499e-02,
 3.11509985e-02 ,
   6.49583116e-02, 8.47725291e-03,-1.21111482e-01,-1.04795478e-01,
 6.31724894e-02 ,
   2.50639394e-02, 1.54647380e-02, 4.28551212e-02, 4.70337830e-02,
 4.03090892e-03  ,
 
    2.63000298e-02, 3.72187234e-02, 2.91187819e-02,-6.39912486e-03,
 5.13320863e-02 ,
   4.95960526e-02,-3.28095048e-03, 4.34839427e-02, 5.38424775e-02,
 1.03894316e-01 ,
   4.01526205e-02, 3.19672525e-02, 2.13316996e-02, 7.31532052e-02,
 -3.33321504e-02 ,
   1.12975545e-01, 5.47695234e-02, 2.62879534e-03, 2.06208937e-02,
 -2.36765761e-03 ,
   1.47035316e-01, 5.75260557e-02, 6.25327751e-02, 1.11677557e-01,
 4.72787209e-02  ,
 
    9.55248922e-02, 4.52060997e-02, 1.05249742e-02,-6.67834654e-02,
 6.22472651e-02 ,
   3.69700044e-02, 1.18816815e-01, 1.74657375e-01, 1.77128837e-01,
 4.91183698e-02 ,
   3.33860926e-02, 1.65157884e-01, 2.19303593e-01, 1.83311880e-01,
 -4.60535698e-02 ,
  -1.61865819e-02,-5.89631349e-02,-8.74470267e-03, 5.00966348e-02,
 -9.09036770e-02 ,
  -6.44223988e-02,-1.30477592e-01,-1.59390688e-01,-4.04494442e-02,
 -3.20720188e-02  ,
 
    3.41032222e-02,-7.07722530e-02,-3.34227942e-02,-4.54538465e-02,
 4.08927212e-04 ,
   6.34672120e-02, 7.04510063e-02,-1.91098750e-02,-5.36555797e-02,
 5.10949381e-02 ,
   2.37360224e-02, 3.13119888e-02,-7.37448931e-02,-2.36800476e-03,
 -3.42448801e-02 ,
   6.20326540e-03, 3.12951691e-02,-3.81419510e-02,-4.00370881e-02,
 -8.58588740e-02 ,
   7.42859691e-02,-3.18524390e-02,-4.11840416e-02,-5.24529861e-03,
 7.91995153e-02  ,
 
    7.08969962e-03, 7.13532884e-03,-4.45107482e-02,-8.59180763e-02,
 -1.31875724e-01 ,
  -6.87087141e-03, 3.61316130e-02,-2.72881030e-03,-2.32866663e-03,
 -1.20232254e-01 ,
  -7.24003986e-02,-3.39200087e-02, 4.14489470e-02,-3.91809717e-02,
 -9.18076411e-02 ,
  -2.35550441e-02,-8.33255127e-02,-6.26599267e-02,-2.40377653e-02,
 -1.03527047e-01 ,
   8.72505736e-03,-6.52936324e-02,-1.55781135e-01,-1.48476779e-01,
 -1.26338035e-01  ,
 
   -4.22611609e-02,-6.20640069e-02,-1.19602177e-02, 2.55399812e-02,
 4.20144908e-02 ,
  -6.25728145e-02, 4.56170291e-02, 8.16805959e-02, 9.20730680e-02,
 -1.07974380e-01 ,
   3.60672586e-02, 9.65423509e-02, 1.46528080e-01, 4.33259495e-02,
 -1.26622571e-02 ,
   2.07683444e-03, 5.51967286e-02, 6.55757189e-02, 7.10989386e-02,
 -2.99846437e-02 ,
  -1.00094415e-01,-1.29736796e-01,-1.43253565e-01,-1.60814047e-01,
 -6.87342659e-02  ,
 
   -7.01680556e-02,-3.55240926e-02, 7.02817086e-03,-7.59246498e-02,
 -2.04438210e-01 ,
  -1.28278947e-02, 4.93990518e-02, 2.01298948e-02,-5.50708435e-02,
 -7.06582004e-03 ,
  -2.13890933e-02,-9.17946026e-02,-2.55307347e-01,-1.50716946e-01,
 3.96982990e-02 ,
  -1.52788594e-01,-5.75057343e-02,-6.73627630e-02,-2.37546805e-02,
 2.63013393e-02 ,
  -1.38134569e-01, 2.11341102e-02, 4.23441716e-02,-2.78847143e-02,
 -1.67266205e-01  ,
 
    3.70252095e-02,-5.65482043e-02,-9.57499072e-02,-5.05726337e-02,
 -4.80826981e-02 ,
   7.26034418e-02, 7.44573865e-03,-8.94587021e-04,-5.96326850e-02,
 -2.67813331e-04 ,
   7.82178044e-02, 6.11115573e-03, 8.02846551e-02, 7.75005668e-02,
 3.09938695e-02 ,
   1.54086307e-01, 1.07480548e-01,-2.45469827e-02, 1.30427331e-01,
 1.02321863e-01 ,
   1.93440124e-01, 8.38621259e-02, 3.27569917e-02, 1.32556930e-01,
 1.49090782e-01  ,
 
    5.36798127e-03, 6.75114170e-02, 7.91353434e-02, 7.96123780e-03,
 -6.36107251e-02 ,
  -6.67988062e-02, 2.96100099e-02, 5.73685840e-02, 2.83518340e-02,
 -1.95914917e-02 ,
  -7.96231776e-02,-1.53661035e-02,-4.04434763e-02, 5.51641025e-02,
 4.59210090e-02 ,
  -4.59720846e-04,-2.74150968e-02,-4.76122350e-02, 5.17442524e-02,
 2.37884149e-02 ,
   5.07325344e-02, 2.86087804e-02,-3.17873545e-02, 1.65818278e-02,
 -3.59381828e-03  ,
 
    3.44602503e-02, 7.45244101e-02, 9.65912789e-02, 9.18122232e-02,
 -1.51201598e-02 ,
   2.50546802e-02, 3.90909519e-03, 3.91563633e-03, 2.31911764e-02,
 2.79974826e-02 ,
  -8.34251791e-02,-6.93066567e-02,-5.84549531e-02, 2.54117604e-02,
 4.85188961e-02 ,
  -6.78569674e-02,-1.12641631e-02,-1.67997985e-03, 1.04690626e-01,
 -8.73414725e-02 ,
  -1.53277829e-01,-7.26023838e-02,-4.90706898e-02,-1.63192041e-02,
 -1.07603364e-01  ,
 
   -6.42574281e-02, 3.38064432e-02, 8.68446827e-02,-8.58212356e-03,
 -1.48114574e-03 ,
  -6.64268211e-02, 1.27450302e-02, 3.85596156e-02, 4.27494645e-02,
 3.62238996e-02 ,
   2.55943704e-02, 4.29587290e-02, 3.72712570e-03, 4.96695237e-03,
 3.06573138e-02 ,
  -9.11994651e-03,-7.33873621e-03, 1.51987141e-02, 1.75442938e-02,
 4.55597043e-02 ,
  -5.34159839e-02,-4.73956093e-02,-7.27377459e-02,-5.89025766e-02,
 7.63291726e-03  ,
 
    8.46053585e-02,-7.72182792e-02,-7.43339285e-02,-4.44628932e-02,
 -8.41475949e-02 ,
  -5.93859665e-02,-4.17043678e-02,-7.18466789e-02,-2.56139487e-02,
 -1.18367590e-01 ,
  -1.62051916e-02,-8.79494920e-02,-7.73755163e-02,-4.31642048e-02,
 -1.04956366e-01 ,
   4.84689139e-02,-3.98151856e-03,-5.50527908e-02, 5.49330935e-02,
 3.34961303e-02 ,
   3.36358063e-02,-2.37320065e-02, 1.67586580e-02, 4.08273749e-02,
 -4.23917770e-02  ,
 
   -5.88489659e-02,-1.40357846e-02, 1.93092914e-03, 1.62068550e-02,
 3.25941783e-03 ,
  -2.34507993e-02, 4.61955182e-02, 3.48196290e-02, 6.94481432e-02,
 2.61579324e-02 ,
   5.03598638e-02, 9.17546228e-02, 1.33242220e-01, 4.90819179e-02,
 3.70713845e-02 ,
  -4.60360236e-02, 1.92453489e-02, 1.31152138e-01, 7.39781633e-02,
 -3.22099291e-02 ,
  -7.84043670e-02,-2.09911559e-02,-3.75386700e-02, 5.35209589e-02,
 -9.14290734e-03  ,
 
    4.17632610e-02, 5.68902865e-02, 5.15039414e-02, 4.78740409e-02,
 1.39339447e-01 ,
  -8.65511075e-02, 5.26860170e-02, 1.26525238e-01, 3.65390964e-02,
 6.99718744e-02 ,
  -4.17721532e-02, 1.32429376e-01, 1.81667000e-01, 4.08722870e-02,
 1.76122040e-02 ,
  -5.94333299e-02, 8.45697522e-02, 1.66969061e-01, 3.16647999e-02,
 2.69128121e-02 ,
   1.59301180e-02, 9.26537365e-02, 1.17131680e-01, 1.20003358e-01,
 1.24155968e-01  ,
 
    1.55898020e-01, 1.08133644e-01, 8.25106874e-02, 1.45636335e-01,
 1.29526168e-01 ,
   7.48108178e-02, 1.40066206e-01, 2.12026611e-01, 8.91427025e-02,
 4.88365330e-02 ,
   3.67819183e-02, 9.53894407e-02, 6.64952770e-02, 9.49831903e-02,
 2.47795843e-02 ,
  -2.85515655e-02,-3.51244621e-02,-5.45688570e-02, 9.06567499e-02,
 1.10793740e-01 ,
   1.68618709e-02, 2.79216301e-02,-1.99221056e-02, 9.64494981e-03,
 -3.14916894e-02  ,
 
   -9.38608497e-03, 7.59526417e-02, 9.06112716e-02, 1.12045281e-01,
 -6.34351596e-02 ,
  -5.81579059e-02, 2.14637369e-02, 8.64349902e-02,-5.72628677e-02,
 -8.78163148e-03 ,
  -7.06747547e-02,-9.92552340e-02,-8.29884112e-02,-5.06652519e-02,
 -5.08917980e-02 ,
  -4.09901179e-02,-1.13177925e-01,-3.87807898e-02, 4.44898047e-02,
 -6.95391893e-02 ,
  -5.88264763e-02, 5.42654209e-02, 8.20613466e-03, 2.00646110e-02,
 -1.14649877e-01   ,
 
 
     6.30614087e-02, 3.66101265e-02, 6.29558265e-02, 2.23237742e-02,
 1.00391200e-02 ,
   4.45107482e-02, 7.40808770e-02,-1.41565297e-02,-3.66629940e-03,
 4.36425628e-03 ,
  -1.30861336e-02, 2.00275667e-02, 6.87035397e-02, 5.99452034e-02,
 6.06185831e-02 ,
   7.25063756e-02, 7.47185200e-02, 6.62293285e-02, 8.85233749e-03,
 7.18674362e-02 ,
   1.53993398e-01, 5.41836992e-02, 2.52052620e-02, 2.07279846e-02,
 9.94193107e-02  ,
 
   -4.73812502e-03,-2.69580930e-02, 2.75569204e-02, 3.53868604e-02,
 4.98668365e-02 ,
   2.02392563e-02,-1.52126411e-02, 3.79347727e-02, 6.11651912e-02,
 3.37892659e-02 ,
  -5.90867214e-02,-6.45847199e-03,-4.52473275e-02, 6.12306595e-03,
 3.46841291e-02 ,
  -1.30904630e-01,-6.81921393e-02,-1.21960893e-01,-2.11691875e-02,
 -7.32844844e-02 ,
  -7.27779940e-02,-1.28554657e-01,-1.45869823e-02,-5.94428740e-02,
 -1.06359206e-01  ,
 
    1.06428467e-01, 2.63529737e-02,-6.12606294e-02,-1.78096965e-02,
 1.20115681e-02 ,
   5.55470735e-02, 4.23945859e-03, 5.72224185e-02, 7.95613676e-02,
 6.31157979e-02 ,
   7.46916309e-02, 4.71965410e-02, 6.29961072e-03,-8.03120621e-03,
 5.86085320e-02 ,
   1.56374499e-02,-4.77117300e-03,-1.10600188e-01,-6.30998015e-02,
 -3.10329944e-02 ,
  -4.31632996e-02,-6.30387738e-02,-1.19588122e-01,-1.46969296e-02,
 -8.44765380e-02  ,
 
   -1.30183801e-01,-2.37171296e-02, 5.38893454e-02, 2.13884152e-02,
 -4.89230752e-02 ,
  -1.35926843e-01,-3.82230096e-02, 2.48792041e-02, 3.73742618e-02,
 -1.24149747e-01 ,
  -1.11985072e-01,-4.93072607e-02, 1.02390219e-02, 1.28179742e-02,
 -6.97771728e-04 ,
   5.53823486e-02, 1.17553629e-01, 1.13532759e-01, 4.97093983e-02,
 4.07221867e-03 ,
   1.31859004e-01, 8.53967071e-02, 7.06633553e-02, 3.30282636e-02,
 1.14621837e-02  ,
 
    5.28001338e-02,-6.24539815e-02,-7.16777146e-02,-1.96049120e-02,
 3.83241847e-02 ,
   4.90034558e-02,-4.69552167e-03,-1.38280336e-02, 6.37574643e-02,
 3.47711369e-02 ,
   1.09822899e-01, 2.44230423e-02, 2.58580223e-02,-4.62391786e-02,
 7.01164547e-03 ,
   2.48463582e-02,-6.33020028e-02, 2.36025099e-02, 2.19067596e-02,
 -2.26870049e-02 ,
  -7.98771977e-02,-9.90125611e-02,-1.21538632e-01,-1.19593360e-01,
 -1.71973541e-01  ,
 
   -2.01643500e-02,-4.83575575e-02,-2.29482073e-02,-1.94634255e-02,
 -1.03840269e-01 ,
   3.04723382e-02,-2.41187140e-02, 5.86702907e-03,-5.19191548e-02,
 -6.15814514e-02 ,
  -9.16381851e-02,-6.62357286e-02,-6.78078532e-02,-9.71199349e-02,
 -1.41892388e-01 ,
  -6.22419342e-02,-4.24794517e-02, 5.41574322e-04,-5.31891510e-02,
 -8.07951614e-02 ,
  -6.43897988e-03,-2.50611361e-03,-1.22046359e-02, 6.33362588e-03,
 -2.62158308e-02  ,
 
    5.81723787e-02, 3.29385810e-02, 5.24654910e-02,-8.78199295e-04,
 3.25523759e-03 ,
  -9.06405002e-02, 6.50558919e-02, 1.21388666e-01, 8.49601924e-02,
 -1.21272095e-02 ,
  -9.24313143e-02,-4.71574366e-02, 8.09842721e-02, 3.86916250e-02,
 -7.37097412e-02 ,
   9.33503360e-02,-9.24022030e-03, 3.53116393e-02, 3.33656445e-02,
 2.39562914e-02 ,
   5.67708984e-02,-5.81014901e-02,-7.84203783e-02, 7.18551222e-03,
 5.42576499e-02  ,
 
   -1.37015088e-02, 2.17850376e-02, 7.57789472e-03, 1.63541250e-02,
 -1.72960717e-05 ,
   8.08791965e-02, 9.25528407e-02, 3.48855928e-02, 7.00528920e-02,
 9.31855515e-02 ,
   4.32568863e-02, 1.00743353e-01, 1.92793123e-02, 8.53414610e-02,
 1.01751059e-01 ,
  -7.91410655e-02, 4.64102589e-02,-4.26738784e-02, 1.44340051e-02,
 8.04152573e-04 ,
   6.16832031e-03, 5.62881865e-02, 9.85067245e-03, 4.14975779e-03,
 -6.53152615e-02  ,
 
   -1.61456510e-01,-6.46856055e-02,-4.27416479e-03,-1.02312844e-02,
 -3.80236097e-02 ,
  -5.46179935e-02,-1.48865245e-02, 6.40895590e-03, 5.91504686e-02,
 1.73895881e-02 ,
  -1.87916849e-02, 8.56003910e-03, 2.82202829e-02, 5.58146313e-02,
 -3.20629142e-02 ,
  -2.50569545e-02,-5.67285307e-02, 2.81758942e-02, 1.81634557e-02,
 1.12330299e-02 ,
   8.27683583e-02,-1.99450683e-02,-3.13762687e-02,-2.59535182e-02,
 6.10887520e-02  ,
 
   -1.55800721e-02, 4.54148427e-02, 1.98645610e-02, 9.21285525e-02,
 7.85410521e-04 ,
  -3.68060693e-02,-5.82332686e-02,-1.11441076e-01,-9.60455090e-02,
 -1.11605495e-01 ,
   8.65972862e-02, 1.26141123e-02,-4.59785238e-02,-3.21661048e-02,
 8.22602771e-03 ,
   3.67028266e-02,-6.31540492e-02, 1.89078189e-02, 1.88553967e-02,
 6.46830276e-02 ,
   8.78957734e-02, 4.90785204e-03,-9.56712570e-03,-1.60274245e-02,
 -1.47125609e-02  ,
 
   -8.11657906e-02,-2.33865646e-03, 4.16867025e-02, 4.93972078e-02,
 -5.05917519e-02 ,
   1.37884384e-02,-2.62549780e-02, 2.66132578e-02,-6.99352399e-02,
 -1.13769220e-02 ,
  -3.96113545e-02,-1.62585024e-02,-8.05225223e-03,-1.92307830e-02,
 -6.12876611e-04 ,
   4.98619527e-02,-8.21469575e-02,-7.66616166e-02,-2.32946388e-02,
 -9.06245876e-03 ,
   1.01149105e-01, 6.88976422e-02, 7.51215674e-04, 2.15713382e-02,
 6.21570684e-02  ,
 
   -3.87862027e-02,-4.51594442e-02, 2.13453081e-02, 5.18728048e-02,
 -5.31202462e-03 ,
  -6.98614269e-02,-1.01715609e-01,-1.12647876e-01,-1.47985509e-02,
 1.09638453e-01 ,
  -3.41854542e-02,-7.63735622e-02,-8.47261846e-02, 7.27395713e-02,
 1.46963581e-01 ,
   7.85649568e-02, 8.56944732e-03, 8.54910314e-02, 5.68212420e-02,
 1.31388173e-01 ,
  -9.90288798e-04,-3.80192650e-03,-1.63033921e-02, 3.03994138e-02,
 1.29240990e-01  ,
 
   -1.66373793e-02,-4.33523245e-02, 1.29789030e-02,-6.11214712e-02,
 -2.82354392e-02 ,
  -1.93615686e-02,-1.93033256e-02,-1.52224302e-02,-9.04140547e-02,
 -1.59741174e-02 ,
  -1.13865016e-02,-5.04733808e-02,-4.05164212e-02,-1.05115943e-01,
 2.60798936e-03 ,
  -7.34127760e-02,-8.47395062e-02,-6.15843013e-02, 3.22417244e-02,
 -7.53331883e-03 ,
   2.54458562e-02,-7.62546957e-02, 2.07912792e-02, 1.37362415e-02,
 -8.39872286e-02  ,
 
   -1.28336579e-01,-1.88668862e-01,-2.17877135e-01,-1.94165513e-01,
 -6.79435655e-02 ,
  -5.39702922e-02, 1.28984572e-02,-8.63003433e-02, 6.26193807e-02,
 1.12312995e-01 ,
   9.15612746e-03, 5.93678989e-02, 1.82669200e-02, 1.25576079e-01,
 1.35005251e-01 ,
   6.25599548e-02, 1.46791905e-01, 1.30935401e-01, 1.60735935e-01,
 2.04100862e-01 ,
  -3.74416336e-02, 2.75449548e-02, 7.44547099e-02, 6.10711314e-02,
 9.10614990e-03  ,
 
   -1.26645133e-01,-7.07216337e-02,-3.47600803e-02,-1.92359332e-02,
 -2.03548521e-01 ,
  -7.16212392e-02,-2.18697637e-02,-4.99374382e-02,-2.24976409e-02,
 -7.54814819e-02 ,
   1.51268095e-02,-1.78091303e-02, 3.89072200e-04, 6.02088589e-03,
 -7.30167404e-02 ,
   3.50284502e-02, 1.29073858e-02, 3.75022814e-02,-8.68726429e-03,
 -1.28384528e-03 ,
  -6.28980948e-03,-5.39004663e-03, 3.36938305e-03,-1.84369497e-02,
 6.93043089e-03  ,
 
   -1.60853997e-01,-2.26031646e-01,-2.30981052e-01,-1.97829351e-01,
 -2.01826915e-01 ,
  -1.19294479e-01,-1.27223507e-01,-1.31864518e-01,-1.57450005e-01,
 -1.02729388e-01 ,
  -9.17096883e-02,-8.36933106e-02,-7.84477592e-03,-8.59955698e-03,
 -5.59307896e-02 ,
  -5.67634776e-02,-1.51002128e-02, 6.26437441e-02, 4.71822433e-02,
 -9.04085115e-02 ,
  -1.17763929e-01,-1.42310103e-02,-6.67466968e-03,-6.37883842e-02,
 -1.93143031e-04   ,
 
 
     1.89178046e-02, 1.60789881e-02, 1.14945464e-01,-9.88206081e-03,
 -8.11241120e-02 ,
  -3.57893892e-02,-3.63940978e-03, 1.76787488e-02,-1.08809657e-02,
 -1.01496823e-01 ,
  -6.30588382e-02,-9.05056950e-03, 7.51735345e-02,-1.44573851e-02,
 -5.02020605e-02 ,
  -9.85612050e-02,-2.70498674e-02, 4.81900312e-02, 5.37149161e-02,
 -1.09488837e-01 ,
  -6.26932085e-02,-1.99048277e-02, 3.86779313e-04,-2.87914705e-02,
 -7.47175515e-02  ,
 
   -1.30763456e-01, 4.59214412e-02, 1.04482640e-02, 2.04517636e-02,
 -8.21098387e-02 ,
  -2.16391850e-02, 4.96501364e-02,-1.33511215e-03, 9.21694282e-03,
 -3.69908623e-02 ,
  -2.12166850e-02, 5.86211123e-02,-7.85861164e-02,-4.74328510e-02,
 -1.26364771e-02 ,
  -8.67203251e-02,-3.04827765e-02,-3.85735892e-02,-8.60969245e-04,
 -3.10209929e-03 ,
  -1.37169987e-01,-3.79418693e-02,-5.96701689e-02,-7.99809173e-02,
 -7.75683299e-02  ,
 
   -1.54800460e-01,-4.90838382e-03, 2.10598782e-02, 2.98891286e-03,
 -1.07257709e-01 ,
  -9.12272930e-02,-8.83024707e-02,-1.05763902e-04,-6.48194086e-03,
 -8.34629610e-02 ,
  -4.98034060e-02,-6.88375831e-02,-6.29643574e-02,-3.32351997e-02,
 -8.04220513e-02 ,
   4.01249714e-02, 2.98016798e-02, 2.51101032e-02, 1.72360055e-02,
 1.31480088e-02 ,
   1.32604791e-02, 1.20012965e-02, 9.81560275e-02, 5.21849692e-02,
 3.21425945e-02  ,
 
    1.94339808e-02,-2.24453527e-02, 5.45657277e-02, 1.71223395e-02,
 1.18823044e-01 ,
   1.71977561e-02,-5.91973104e-02, 2.11946405e-02,-1.48999039e-02,
 -7.26557476e-03 ,
  -5.27313724e-02, 1.79439150e-02, 4.57073338e-02, 1.14306388e-02,
 -6.66831508e-02 ,
   2.55766995e-02,-5.96376508e-02,-1.16361186e-01,-6.87549636e-02,
 3.39711495e-02 ,
   2.82456055e-02,-1.42588153e-01,-1.12215400e-01,-4.55455482e-02,
 -3.10095754e-02  ,
 
    3.45914625e-02,-3.29081528e-02, 3.23981233e-02, 4.12676707e-02,
 -2.39952616e-02 ,
   1.02830557e-02,-3.27592120e-02,-1.04422092e-01,-1.54773360e-02,
 2.22401563e-02 ,
   1.41847627e-02,-2.29161009e-02,-1.10603571e-01, 2.43614800e-02,
 -2.10924316e-02 ,
  -3.08161718e-04, 7.09307045e-02, 8.79655406e-02, 1.64806657e-02,
 -4.63444889e-02 ,
  -6.62766695e-02, 4.21443507e-02, 1.45032495e-01, 4.42426242e-02,
 2.52224342e-03  ,
 
    1.38616618e-02,-4.79620174e-02, 4.37501892e-02,-3.61087583e-02,
 -1.27038714e-02 ,
   5.60039058e-02,-2.08010972e-02,-2.80575734e-02,-5.89848869e-02,
 2.04098709e-02 ,
   2.69760843e-03,-6.21030442e-02,-5.93588017e-02,-7.07560405e-02,
 -6.84740245e-02 ,
   2.99389679e-02,-6.12731697e-03, 6.65018917e-04,-5.20079732e-02,
 -2.56160237e-02 ,
   1.50508851e-01, 1.18887097e-01, 1.37183443e-01, 3.05876322e-02,
 9.44644213e-03  ,
 
    1.20566592e-01,-5.69664203e-02,-8.66752267e-02,-2.85511627e-03,
 1.07986398e-01 ,
  -1.01415059e-02,-1.49028361e-01,-1.42898351e-01,-4.48272340e-02,
 -2.61480976e-02 ,
   2.15392653e-02, 8.74557272e-02, 1.57048911e-01, 1.13368623e-01,
 -4.11453657e-02 ,
   1.12141684e-01, 5.24765402e-02, 7.41066262e-02,-2.35357098e-02,
 5.13971075e-02 ,
   1.60134912e-01, 1.76699255e-02,-1.04348190e-01, 1.51471393e-02,
 5.92457280e-02  ,
 
   -1.84916630e-01, 6.43996522e-02, 1.12157919e-01, 7.63534978e-02,
 -2.46185698e-02 ,
  -1.46032482e-01, 6.38793409e-02, 1.74149930e-01, 1.42042100e-01,
 -3.24856527e-02 ,
  -9.26804170e-02, 4.11174037e-02,-3.77081484e-02,-5.68337627e-02,
 -8.93662423e-02 ,
  -1.38292655e-01, 1.56390499e-02,-1.32599780e-02,-1.42373353e-01,
 -7.97156692e-02 ,
  -1.47653610e-01,-4.64883298e-02, 8.12919997e-03,-6.00305274e-02,
 -8.33662227e-02  ,
 
    5.15317894e-04, 5.17602488e-02,-1.56057877e-02, 5.68437874e-02,
 -3.79875675e-02 ,
   9.81050264e-03, 4.77424078e-02, 2.68851370e-02, 2.56979223e-02,
 5.40470444e-02 ,
   2.59764157e-02, 5.99935129e-02, 1.39212376e-02,-2.88062897e-02,
 6.38907179e-02 ,
   3.55325900e-02, 8.70597288e-02, 3.65586281e-02, 4.63669710e-02,
 -2.40227161e-03 ,
   4.30734195e-02,-4.75018052e-03, 6.29184488e-03,-2.31711213e-02,
 6.52422849e-03  ,
 
   -5.28911278e-02,-6.99173659e-02,-6.52304888e-02,-9.31495503e-02,
 -5.88593483e-02 ,
  -5.58398701e-02,-4.53775972e-02,-6.78995848e-02,-1.16815008e-01,
 -6.36502495e-03 ,
  -4.67468612e-02,-3.35990824e-03,-6.22201115e-02,-7.04149753e-02,
 -5.23714721e-02 ,
  -1.28377788e-02,-4.43474762e-02,-2.80966219e-02,-1.39911324e-01,
 -3.38655934e-02 ,
   1.39346734e-01, 3.90687995e-02, 5.66731840e-02, 5.78165008e-03,
 5.28243035e-02  ,
 
    8.74230340e-02,-3.24729830e-02, 1.43935122e-02,-2.46055517e-03,
 -1.92411710e-02 ,
   4.27322946e-02,-2.64230072e-02, 9.96271707e-03, 6.05704146e-04,
 -4.77980748e-02 ,
   6.34015426e-02, 3.89388204e-02, 1.79082435e-02,-9.07616876e-03,
 7.88860675e-03 ,
   5.33498311e-03, 3.47665064e-02, 2.05557980e-02, 4.70089391e-02,
 1.93927772e-02 ,
   9.33173448e-02, 2.33842875e-04, 9.41177737e-03, 3.05597316e-02,
 -7.52050022e-04  ,
 
   -1.46682158e-01, 6.02382831e-02, 2.97995824e-02,-3.77045013e-02,
 2.70482004e-02 ,
   7.85936485e-04, 6.13489784e-02, 3.54114585e-02, 1.79671738e-02,
 1.21552430e-01 ,
  -2.99734157e-02,-2.55571455e-02, 4.93384190e-02,-1.92395821e-02,
 1.43912053e-02 ,
  -8.83660838e-03, 3.68361548e-02,-3.67223173e-02,-9.59380623e-03,
 -7.59469718e-02 ,
   1.82010990e-03, 1.85323060e-02, 1.30187258e-01, 4.40349132e-02,
 -9.24090222e-02  ,
 
    7.36179724e-02,-4.22496460e-02,-5.20859938e-03,-2.80169342e-02,
 -6.96420670e-02 ,
  -9.42203682e-03, 4.35786135e-03,-5.31895049e-02,-1.29066855e-01,
 -1.15522640e-02 ,
   2.71477066e-02,-6.88884109e-02,-5.31917289e-02,-4.65491042e-02,
 -8.20615068e-02 ,
  -3.44442204e-02,-7.17530325e-02,-7.24877045e-02,-4.22248989e-02,
 -7.71919936e-02 ,
   1.01674438e-01, 3.08167133e-02, 5.13132699e-02, 2.83690961e-03,
 1.66864134e-02  ,
 
   -4.79876213e-02,-8.13878551e-02,-3.98115180e-02,-9.27462056e-02,
 -1.39421836e-01 ,
  -9.24413092e-03,-3.66087742e-02,-1.29727080e-01,-7.35302269e-02,
 -9.28974003e-02 ,
   1.71720441e-02, 4.71482053e-03, 1.09309005e-03,-8.85635540e-02,
 -9.35218036e-02 ,
   2.11729147e-02,-3.09010148e-02,-4.61473092e-02,-5.44597805e-02,
 1.21089630e-03 ,
  -6.88236654e-02, 3.62285040e-02,-3.17783188e-03,-4.05277200e-02,
 -5.08858636e-03  ,
 
   -1.97587475e-01,-2.22445708e-02, 5.24843708e-02,-3.61867808e-02,
 -2.21529052e-01 ,
  -7.10145663e-03,-4.01506610e-02,-2.38284711e-02, 1.38429189e-02,
 -5.56114316e-02 ,
  -1.63287725e-02,-6.81077838e-02,-1.17343217e-01,-6.88822847e-03,
 -6.36927336e-02 ,
  -3.82781550e-02,-4.77413647e-02,-7.21767992e-02,-6.21355586e-02,
 -5.81282098e-03 ,
  -2.73583550e-02, 3.27572003e-02,-1.86707769e-02, 7.19679939e-03,
 -3.66794877e-02  ,
 
   -2.26146691e-02, 1.00312969e-02,-4.14119400e-02,-6.01956509e-02,
 -1.68933086e-02 ,
   5.99306040e-02,-1.90733243e-02,-3.73183452e-02, 6.95209280e-02,
 1.00747533e-01 ,
  -1.90452859e-02,-8.27129278e-03, 1.28746018e-01, 1.06407851e-01,
 1.35621637e-01 ,
  -3.75897475e-02, 1.50414743e-02, 8.44061375e-02,-6.37915824e-03,
 5.33021577e-02 ,
   6.74274489e-02, 2.43110768e-02, 1.68217404e-03, 4.53283638e-03,
 6.48494512e-02   ,
 
 
     4.65349741e-02, 1.13942228e-01, 8.69976357e-02, 8.13609958e-02,
 2.55664792e-02 ,
   1.37072904e-02, 4.97115217e-02,-6.39289245e-02,-5.69562390e-02,
 -2.80023944e-02 ,
   7.55259097e-02,-4.07561548e-02,-1.52866289e-01,-2.39678770e-02,
 4.80467919e-03 ,
  -5.60966395e-02,-4.34531718e-02,-5.75034805e-02, 1.25727607e-02,
 2.13655513e-02 ,
   7.34647661e-02, 6.32560104e-02, 2.76863184e-02,-1.76281426e-02,
 3.36748958e-02  ,
 
    6.80031106e-02,-1.70196928e-02,-7.97002017e-02,-7.61246029e-03,
 4.51668389e-02 ,
   2.43823603e-02, 6.57512620e-02,-7.56977685e-03, 4.44773436e-02,
 7.46562555e-02 ,
   4.33121137e-02, 5.13217412e-02,-2.14261003e-02, 3.16869244e-02,
 7.46314824e-02 ,
   4.99429135e-03, 4.81713004e-02, 1.01248913e-01, 1.93504114e-02,
 8.32282156e-02 ,
  -6.60594478e-02,-3.78648415e-02, 2.08848342e-02,-8.27511474e-02,
 -6.81145117e-02  ,
 
   -3.64132039e-02,-4.35158089e-02,-7.65000656e-02,-1.11460730e-01,
 -1.85155701e-02 ,
   4.95563112e-02, 8.34031031e-03, 1.19210286e-02, 7.84107950e-03,
 1.31153747e-01 ,
   1.42391890e-01,-6.85955063e-02,-7.71011561e-02,-9.14121792e-02,
 7.43870661e-02 ,
   1.61886871e-01,-1.24940341e-02,-4.15706038e-02, 8.47510342e-03,
 8.95511955e-02 ,
   1.26341447e-01, 5.15308604e-02, 1.37975693e-01, 1.36900634e-01,
 -1.31511884e-02  ,
 
    7.09144806e-04, 1.02656677e-01, 1.35147765e-01,-1.61053352e-02,
 3.19873877e-02 ,
  -5.40672205e-02, 3.19705345e-02,-4.35311794e-02, 4.68914360e-02,
 1.02235429e-01 ,
   4.42743562e-02, 1.68450382e-02,-1.43501593e-03, 3.06643359e-02,
 -2.19395827e-03 ,
  -6.70738891e-02, 2.35040132e-02, 3.50152776e-02,-1.38003994e-02,
 -9.62110460e-02 ,
  -3.83083969e-02, 8.37163925e-02, 6.47726879e-02, 1.10420376e-01,
 -2.12908819e-01  ,
 
   -4.36366163e-02,-1.09943170e-02,-1.63960069e-01,-3.85685563e-02,
 -1.46046251e-01 ,
   3.24954316e-02,-1.09562233e-01,-1.26294807e-01,-6.75099390e-03,
 -9.86706018e-02 ,
   9.57533717e-02,-5.90635650e-02,-1.65509582e-02, 1.79041701e-03,
 -1.12758139e-02 ,
   8.55963584e-03, 7.45659992e-02, 4.19886746e-02, 2.34171283e-02,
 1.58077404e-02 ,
  -9.94897857e-02, 1.12069659e-02, 9.70950872e-02,-1.86993536e-02,
 -5.57983294e-02  ,
 
    4.29153480e-02, 2.46644560e-02,-9.64029692e-03,-6.44325861e-04,
 -1.31359249e-01 ,
   3.91569920e-02,-5.72535247e-02,-6.81101829e-02,-6.04852885e-02,
 -7.07883313e-02 ,
  -1.66526902e-02,-1.00113727e-01,-4.96333838e-02,-9.44267139e-02,
 -1.45207256e-01 ,
   1.13678221e-02, 1.36918686e-02, 1.86194777e-02,-1.25518173e-01,
 -8.25590044e-02 ,
   2.01472908e-01, 4.95144911e-03, 7.89206177e-02, 4.04942175e-03,
 -3.64607461e-02  ,
 
   -2.53383163e-02, 7.47092813e-02, 3.62320170e-02,-9.36517119e-03,
 8.56341347e-02 ,
   1.28994629e-01,-2.68390086e-02,-4.89097759e-02, 6.99917972e-02,
 6.19172268e-02 ,
   9.67724472e-02,-9.43503156e-02,-1.03224352e-01,-5.90155609e-02,
 -2.51302379e-03 ,
   2.87324358e-02, 1.55010039e-03,-8.03856850e-02,-3.93407084e-02,
 5.79075217e-02 ,
   3.22693698e-02,-7.16599375e-02,-1.46894947e-01,-5.49175590e-02,
 2.07046241e-01  ,
 
    2.79895738e-02, 1.07894596e-02,-5.20976968e-02,-2.12865584e-02,
 -1.05416989e-02 ,
  -1.47443518e-01, 5.48642427e-02,-1.26482351e-02, 1.10393381e-02,
 -3.08041591e-02 ,
  -2.97779851e-02,-1.56773832e-02,-8.11677054e-02,-8.40448812e-02,
 -2.55360976e-02 ,
  -3.35083753e-02,-6.89542145e-02,-1.56014308e-01,-6.34254292e-02,
 8.66462514e-02 ,
  -8.85006487e-02,-8.97294581e-02,-3.00491564e-02,-1.11760229e-01,
 -4.80461903e-02  ,
 
    1.90198511e-01, 5.01925461e-02, 1.18284188e-02, 9.97032970e-02,
 1.95265889e-01 ,
   1.03831559e-01,-2.10031327e-02,-8.50989968e-02, 1.38173616e-02,
 9.47288945e-02 ,
   1.00178523e-02,-4.65022624e-02,-1.29997879e-01,-1.04499549e-01,
 3.26227434e-02 ,
   7.54001318e-03,-1.64946407e-01,-1.29605576e-01,-7.78707862e-02,
 -5.71425445e-02 ,
   1.83077931e-01,-1.02505134e-03,-1.34537388e-02, 1.68628432e-02,
 1.91462070e-01  ,
 
    1.04799643e-01, 5.94606549e-02, 5.70632145e-02, 8.36096779e-02,
 9.03912708e-02 ,
   9.09744501e-02,-1.17356881e-01,-1.45599142e-01,-1.76148694e-02,
 9.08980593e-02 ,
   4.51772511e-02,-1.14350222e-01,-3.66389155e-02,-4.39630672e-02,
 8.70573819e-02 ,
   3.84898782e-02,-8.47726390e-02, 9.88501497e-03, 1.18530104e-02,
 1.19633995e-01 ,
   2.58445024e-01, 1.60328180e-01, 1.16950184e-01, 8.23566988e-02,
 3.12452406e-01  ,
 
    1.62917182e-01, 5.76806478e-02,-7.44157005e-04, 7.36204311e-02,
 2.11609423e-01 ,
   9.63276252e-02,-4.82350914e-03,-7.05474019e-02,-7.14897038e-03,
 5.24482168e-02 ,
  -4.05537225e-02,-1.24159120e-01,-1.26614764e-01,-3.13935205e-02,
 -4.55421470e-02 ,
   1.01582251e-01,-7.33029097e-02,-5.48670329e-02,-7.63758570e-02,
 1.22173488e-01 ,
   3.13624918e-01, 9.17900354e-02, 1.98604733e-01, 1.44948706e-01,
 2.74191022e-01  ,
 
    8.83028507e-02, 1.01631679e-01, 1.43233895e-01, 6.75350130e-02,
 3.25411446e-02 ,
  -1.00673579e-01,-1.19268492e-01,-9.40571204e-02,-1.79264005e-02,
 7.46146068e-02 ,
  -9.81796905e-02,-1.15072161e-01,-1.10027194e-01, 8.41182936e-03,
 7.34004453e-02 ,
   4.62320186e-02,-2.71676723e-02, 2.76211556e-02, 1.36351585e-02,
 8.20269585e-02 ,
   1.27178758e-01, 3.46528143e-02, 5.31650856e-02, 4.83283587e-02,
 1.16718113e-01  ,
 
    4.27716225e-02, 9.94224176e-02,-2.58017760e-02, 2.54451800e-02,
 5.58298230e-02 ,
   4.93973196e-02, 1.60783380e-02,-4.23026048e-02, 5.48548773e-02,
 5.64732850e-02 ,
  -4.88844365e-02,-8.74913484e-02,-1.14361927e-01, 8.92494898e-03,
 -1.55470856e-02 ,
   6.63634092e-02,-1.18480146e-01,-3.32403705e-02,-1.23341411e-01,
 -1.33870048e-02 ,
   1.88509598e-01,-2.36669350e-02, 2.69677141e-03, 6.75796764e-03,
 8.20172653e-02  ,
 
   -3.38783581e-03,-1.20956674e-02,-1.67921960e-01,-1.55629173e-01,
 -1.48788672e-02 ,
  -4.79789674e-02, 5.76770566e-02,-4.29048836e-02, 3.85677367e-02,
 -8.75885319e-03 ,
   7.48567358e-02, 1.98555086e-02, 8.82812496e-03,-7.47002894e-03,
 5.97464554e-02 ,
   1.87226996e-01, 7.15350062e-02, 4.89322022e-02, 2.58955806e-02,
 6.40386343e-02 ,
   1.57494441e-01,-3.52852121e-02, 1.39888478e-02, 3.59150954e-02,
 9.13726389e-02  ,
 
    1.30209714e-01, 7.96325058e-02, 2.41117943e-02, 2.79742796e-02,
 4.53406945e-02 ,
  -6.07311688e-02, 1.40175996e-02,-7.14162365e-02, 2.20182282e-03,
 1.53498596e-03 ,
  -5.56078702e-02,-3.75208212e-03,-1.29512578e-01,-4.62210178e-03,
 5.51877022e-02 ,
   8.26350972e-03,-6.31626546e-02,-2.45809965e-02,-9.41373035e-03,
 1.45294592e-01 ,
   1.21192858e-01, 1.81065854e-02,-1.31784081e-02, 3.07016112e-02,
 2.25956872e-01  ,
 
   -2.04993770e-01,-2.48936191e-01,-2.10090160e-01,-2.90844262e-01,
 -1.40236437e-01 ,
  -1.95653126e-01,-1.50990829e-01,-1.68568641e-01,-9.49132293e-02,
 -5.52523322e-02 ,
  -1.58642575e-01,-3.62560526e-02,-5.14135770e-02,-2.83672959e-02,
 -1.31927744e-01 ,
  -1.59294933e-01,-1.00450225e-01,-6.94036484e-02,-8.86370763e-02,
 -9.44403186e-02 ,
  -1.32861987e-01,-7.95726329e-02,-2.13311970e-01,-1.60258099e-01,
 -6.04411215e-02   ,
 
 
    -8.45985711e-02,-7.01456293e-02,-3.39898244e-02,-2.65695173e-02,
 -2.82801352e-02 ,
  -1.63151752e-02, 6.23335317e-02, 4.33013774e-02,-3.61430459e-02,
 -1.19322250e-02 ,
   1.61612704e-02, 2.78662518e-02, 6.31694049e-02,-7.88457599e-03,
 -3.22426297e-02 ,
   1.75034348e-02, 1.42662777e-02, 7.90808629e-03,-8.24929699e-02,
 -2.37275232e-02 ,
  -1.88107733e-02,-4.30137478e-02, 8.67697690e-03,-1.05399238e-02,
 -7.51628205e-02  ,
 
    3.01436912e-02,-3.03954855e-02, 2.41708886e-02, 5.60304821e-02,
 7.46923760e-02 ,
   4.57989983e-02, 2.43241563e-02, 4.34598587e-02, 3.87623277e-03,
 3.00845411e-02 ,
  -4.45295200e-02,-7.67521933e-02, 7.27661178e-02, 5.33018708e-02,
 5.41624837e-02 ,
  -5.25322706e-02,-1.12264007e-01,-4.57215011e-02,-4.45263088e-02,
 -3.94495763e-02 ,
   3.74690518e-02, 9.05350782e-03, 3.03074103e-02, 3.79596315e-02,
 9.48431939e-02  ,
 
    7.08539486e-02,-3.10010603e-03,-6.99430630e-02, 2.33749896e-02,
 1.13285678e-02 ,
  -5.12119345e-02, 9.80251655e-03,-8.64300039e-03, 7.23951980e-02,
 -5.94938137e-02 ,
  -3.49542424e-02, 7.45397061e-02, 8.11639279e-02, 9.59996730e-02,
 3.54034128e-04 ,
  -9.74912792e-02,-5.11146635e-02, 4.90072295e-02, 3.41193005e-02,
 -8.55451971e-02 ,
  -8.78034458e-02,-4.95798178e-02,-8.48954618e-02,-1.08114079e-01,
 -1.02543712e-01  ,
 
   -6.26285523e-02,-3.10755633e-02,-1.34205729e-01,-1.03245944e-01,
 7.29112048e-03 ,
  -2.64546871e-02,-2.65861489e-02,-5.85488267e-02,-5.94622083e-02,
 -1.74095277e-02 ,
  -8.87190253e-02,-2.63508204e-02,-5.18459007e-02,-6.43454567e-02,
 -1.38737576e-03 ,
  -5.28360531e-02, 3.65644731e-02, 4.86099944e-02, 1.63063221e-02,
 5.61916046e-02 ,
   5.59340939e-02, 6.74417466e-02, 9.39982831e-02, 5.51331323e-03,
 1.14736177e-01  ,
 
    3.20609622e-02, 5.64244241e-02, 3.38600576e-02,-4.35004942e-02,
 9.36710909e-02 ,
  -9.14635230e-03, 1.32708266e-01, 5.68657815e-02,-6.65991474e-03,
 1.06583148e-01 ,
   7.81737491e-02, 7.14944005e-02, 8.88485536e-02,-1.37337670e-02,
 7.05699176e-02 ,
   3.06908377e-02,-5.68200685e-02,-7.10928664e-02, 1.36187924e-02,
 -9.21720918e-03 ,
   2.67534070e-02,-2.65318044e-02,-1.09399825e-01,-6.03602044e-02,
 2.03316435e-02  ,
 
   -1.10093942e-02,-4.64317156e-03, 7.95226246e-02, 7.23828152e-02,
 3.98673415e-02 ,
   2.05640737e-02, 2.10850928e-02, 6.79727346e-02, 9.29157212e-02,
 7.37709627e-02 ,
   2.29183957e-02, 6.99811950e-02, 1.38809541e-02, 4.60957475e-02,
 5.58035113e-02 ,
  -3.69724147e-02, 1.24986535e-02, 3.15351970e-02, 4.59671989e-02,
 -3.60292755e-03 ,
  -8.07790756e-02,-1.21268630e-01,-2.54556090e-02, 9.41178389e-03,
 -4.60596345e-02  ,
 
   -1.42750610e-02,-1.02456566e-02, 1.77094508e-02, 4.67943139e-02,
 -9.06676501e-02 ,
  -1.37885772e-02, 2.38612052e-02, 7.03516752e-02,-1.38702607e-02,
 -2.94222757e-02 ,
  -9.22647789e-02,-8.57840255e-02,-8.58061984e-02,-1.11000888e-01,
 -3.66628729e-02 ,
  -9.24605206e-02,-2.38779802e-02,-4.73302715e-02, 1.28719062e-02,
 -2.84358989e-02 ,
  -3.92042473e-02,-1.86642893e-02, 9.29727405e-02,-2.78273020e-02,
 -1.03936911e-01  ,
 
    8.22986290e-02, 8.70977901e-03, 1.37290489e-02,-3.89055721e-02,
 9.63395927e-04 ,
   1.89432189e-01,-5.16756810e-02,-3.16493064e-02, 2.58613881e-02,
 1.38455480e-01 ,
   9.69191268e-02, 1.42953321e-02, 3.41106392e-02, 3.88636924e-02,
 8.04676563e-02 ,
   3.02265417e-02, 1.77652463e-02, 8.94601196e-02, 1.17306679e-01,
 4.52940501e-02 ,
   8.46445337e-02, 2.93868259e-02,-2.91236639e-02, 3.92179899e-02,
 9.20052454e-02  ,
 
   -4.06862870e-02,-1.54665709e-02, 5.28639369e-02,-1.39627457e-02,
 -3.08682024e-02 ,
  -6.62720501e-02, 3.06787603e-02, 1.01059541e-01, 6.11943789e-02,
 -3.83387655e-02 ,
  -1.10007256e-01, 7.31737465e-02, 1.14599474e-01, 7.86165670e-02,
 -5.15374765e-02 ,
  -1.02502078e-01, 2.56811474e-02, 3.47163603e-02,-2.42850962e-04,
 2.05387287e-02 ,
  -1.54069394e-01,-4.77177911e-02,-6.85729412e-03, 3.35280411e-02,
 -1.24336235e-01  ,
 
   -3.38081978e-02, 7.79553875e-02, 1.39369830e-01, 6.07841946e-02,
 -5.61766140e-02 ,
  -9.63924676e-02, 9.48921815e-02, 1.00629732e-01, 4.64987941e-02,
 -7.76500404e-02 ,
  -1.98980197e-02, 8.97392035e-02, 6.03377633e-02, 3.92372422e-02,
 -1.35651436e-02 ,
  -8.30294490e-02, 2.53502466e-02, 7.68121285e-03,-1.96108798e-04,
 -3.93416360e-02 ,
  -7.99670517e-02,-5.85264377e-02,-6.28728559e-03,-1.69233661e-02,
 -1.32487178e-01  ,
 
   -1.13933600e-01,-1.30606489e-02, 5.73423989e-02, 4.40488979e-02,
 -3.73371728e-02 ,
  -1.04770601e-01, 5.09397462e-02, 1.34512067e-01, 6.28328249e-02,
 -1.18017524e-01 ,
  -1.10543333e-01, 1.97422728e-02, 2.41776351e-02, 8.41259137e-02,
 -1.03914579e-02 ,
  -7.21461475e-02, 3.40147391e-02, 5.86222187e-02, 1.26469713e-02,
 -8.17531534e-03 ,
  -1.51631415e-01,-1.20957885e-02,-5.42682968e-02,-4.39780615e-02,
 -1.48604751e-01  ,
 
    4.02087197e-02,-6.80172490e-03,-5.00021353e-02,-5.07184453e-02,
 4.81412970e-02 ,
   2.44330913e-02,-8.73081572e-03, 3.63727957e-02,-6.86421106e-03,
 -8.32144022e-02 ,
   3.49165784e-04,-4.79352549e-02,-6.66241124e-02, 1.59819250e-03,
 -2.46701743e-02 ,
  -4.95280065e-02,-5.32258675e-03,-7.52734616e-02, 7.13971304e-03,
 -5.96413799e-02 ,
  -7.15848953e-02,-5.51417358e-02,-4.07977030e-02,-4.30700779e-02,
 -2.64161881e-02  ,
 
   -7.25590438e-02,-2.37743966e-02, 1.93834268e-02, 4.27619889e-02,
 4.75490578e-02 ,
  -8.12592059e-02,-8.33501574e-03, 1.26081303e-01, 3.14506777e-02,
 -6.36328431e-03 ,
  -5.98720945e-02, 6.71483437e-03, 4.51987386e-02, 1.18390530e-01,
 8.59071016e-02 ,
  -1.72308125e-02, 3.68611105e-02, 3.08718570e-02, 6.87447563e-02,
 4.93312627e-02 ,
  -1.02862574e-01, 7.57182688e-02, 5.93484640e-02, 8.46089572e-02,
 2.93289777e-02  ,
 
   -3.86173613e-02,-3.51658054e-02,-2.02249438e-02, 1.19504174e-02,
 1.09922387e-01 ,
  -8.50117765e-03, 1.31842848e-02, 4.70398664e-02, 7.40628093e-02,
 6.64973855e-02 ,
  -4.53430489e-02, 1.89416390e-02, 7.22716898e-02, 1.00108668e-01,
 5.10332957e-02 ,
  -1.31145939e-01,-3.38749252e-02, 9.05749574e-02, 1.23878479e-01,
 2.00714003e-02 ,
  -3.42028700e-02, 1.27810556e-02, 9.46981162e-02, 1.08937711e-01,
 -3.38846147e-02  ,
 
    7.56614432e-02, 9.66465287e-03,-9.39066522e-03, 6.23210482e-02,
 9.36649963e-02 ,
   3.54186147e-02, 4.35943045e-02, 1.24784999e-01,-1.37294307e-02,
 -5.20215975e-03 ,
   8.55984259e-03, 8.30936208e-02, 4.34134305e-02,-6.61734864e-03,
 -2.54153255e-02 ,
   5.51205943e-04,-9.20472667e-05, 8.46678615e-02, 2.59665539e-03,
 -8.52912515e-02 ,
  -6.64064884e-02,-8.15241132e-03,-1.20271156e-02, 7.87297671e-04,
 -5.57971038e-02  ,
 
    1.06710054e-01, 1.27134115e-01, 7.24752322e-02, 1.30404383e-01,
 8.24697763e-02 ,
   6.27665296e-02, 8.67806897e-02, 6.01494908e-02,-1.25803705e-02,
 6.02018237e-02 ,
   1.47368044e-01, 1.03266882e-02, 4.73857531e-03,-7.76142254e-02,
 -7.13153630e-02 ,
   6.09833151e-02, 5.77647984e-02, 2.01348234e-02, 8.10112134e-02,
 -6.17267238e-03 ,
   6.12877496e-03, 8.44069421e-02, 8.26157331e-02, 5.05011268e-02,
 2.88098468e-03   ,
 
 
     1.36167526e-01,-8.00304580e-03,-4.59175259e-02, 1.19468063e-01,
 1.48514077e-01 ,
  -3.78216431e-02,-1.21168777e-01,-5.15345763e-03, 1.42080039e-02,
 4.25660759e-02 ,
  -4.69686389e-02,-7.53198639e-02, 1.70864463e-02,-1.71026289e-02,
 8.97515789e-02 ,
  -7.34270141e-02,-6.34375587e-02,-5.63342124e-02, 3.33029702e-02,
 4.46796678e-02 ,
  -5.51718660e-02, 4.44471799e-02,-2.24481486e-02,-2.17646919e-02,
 -4.06191163e-02  ,
 
   -5.45022227e-02,-1.62573103e-02, 6.69854656e-02, 2.92708427e-02,
 -1.17021287e-02 ,
   1.26447976e-01, 2.55434923e-02, 5.36010303e-02, 1.05848111e-01,
 9.59259123e-02 ,
   1.60909221e-01, 5.97440153e-02,-2.04038639e-02, 4.90456372e-02,
 1.58024505e-01 ,
   1.19893149e-01, 4.69410978e-03,-2.92714406e-02,-1.71573833e-02,
 7.33449534e-02 ,
   1.39836743e-01, 2.13376254e-01, 2.29347367e-02, 1.27780423e-01,
 1.42526329e-01  ,
 
   -5.00692008e-03, 2.43639164e-02, 8.87044705e-03,-2.19177604e-02,
 -1.28313154e-02 ,
   4.15666066e-02,-1.23989638e-02,-6.00182265e-02,-4.36645001e-02,
 -4.02596369e-02 ,
   4.39901799e-02,-7.19386153e-03,-6.44044727e-02,-2.03715824e-02,
 9.39040855e-02 ,
   1.36360869e-01,-3.54022300e-03,-1.41947463e-01,-4.67030592e-02,
 -1.74164702e-03 ,
   1.78267866e-01, 8.00424665e-02, 3.68987955e-02, 3.96573357e-02,
 1.66444764e-01  ,
 
    6.97576478e-02, 3.43154185e-02, 8.03274382e-03,-7.47458637e-02,
 3.71062681e-02 ,
   7.57087469e-02, 1.48887768e-01, 1.30776048e-01, 5.50003573e-02,
 -1.03245247e-02 ,
  -6.00056946e-02, 1.41536057e-01, 1.46708354e-01, 5.01377881e-02,
 -3.83626223e-02 ,
  -1.44469485e-01,-4.44512106e-02,-7.17325434e-02,-1.89992860e-02,
 -5.90911023e-02 ,
  -2.00389966e-01,-1.04881257e-01,-8.28747153e-02,-6.84701353e-02,
 3.99048254e-02  ,
 
   -5.16308646e-04,-6.59808703e-03, 1.21866003e-01,-2.20385306e-02,
 -1.60801131e-02 ,
  -1.68537151e-03,-3.03314514e-02,-1.74707115e-01,-2.00375095e-01,
 -7.20516145e-02 ,
   1.74493957e-02,-1.15621544e-01,-1.42467618e-01,-9.69699100e-02,
 3.61718014e-02 ,
   4.10970300e-02, 3.74935474e-03,-6.12760819e-02,-7.31891999e-03,
 5.69479987e-02 ,
   1.91296905e-01, 9.62688699e-02, 9.82089043e-02, 1.77692056e-01,
 1.91378653e-01  ,
 
   -1.12805426e-01,-3.13356742e-02,-7.61767477e-02,-8.84984955e-02,
 -1.75997410e-02 ,
   1.36538344e-02, 9.19208396e-04, 2.23783241e-03,-4.27185409e-02,
 -3.73693509e-03 ,
   8.70414898e-02, 5.04606031e-02, 1.05224751e-01, 8.76719803e-02,
 1.10584214e-01 ,
   5.31046428e-02, 1.37177408e-01, 1.13469124e-01, 7.50013739e-02,
 3.10202334e-02 ,
   3.98255046e-03, 4.74183820e-02, 7.47492835e-02, 2.96249874e-02,
 -6.36232942e-02  ,
 
    5.86513840e-02,-7.57129490e-02,-8.03416148e-02, 7.09941387e-02,
 -4.79839630e-02 ,
  -1.55904796e-02, 4.81206253e-02, 1.05853155e-01, 8.05540085e-02,
 5.18498756e-02 ,
  -2.18634401e-02, 1.72792152e-01, 2.53614664e-01, 2.20034033e-01,
 5.28143197e-02 ,
  -1.02644227e-01, 8.58691931e-02, 6.52724877e-02, 6.72508180e-02,
 -1.07197553e-01 ,
  -4.97768819e-02, 5.25473244e-02, 5.12805618e-02,-2.13553547e-03,
 -8.61433819e-02  ,
 
   -6.34394865e-03,-3.99207175e-02,-9.19724181e-02,-3.36621739e-02,
 -3.34782228e-02 ,
   1.05642356e-01,-2.85620941e-03, 1.12165781e-02, 9.79789943e-02,
 8.64028633e-02 ,
   3.80644202e-02,-8.89712721e-02,-2.49688439e-02,-3.36130522e-02,
 -3.15561704e-02 ,
   4.71821874e-02,-7.96250105e-02,-1.16015702e-01,-1.06547706e-01,
 5.89726232e-02 ,
   1.33190989e-01, 6.42886832e-02,-3.53476033e-02, 1.07532635e-01,
 1.59242302e-01  ,
 
   -8.83345380e-02,-3.22320908e-02,-5.41775152e-02,-7.30253682e-02,
 -6.85928389e-02 ,
  -8.00853129e-03, 1.06479757e-01, 8.50662589e-02, 6.30568415e-02,
 -1.46199642e-02 ,
   9.60273203e-03, 6.99995086e-02,-2.49880529e-03, 2.11846866e-02,
 3.61351445e-02 ,
  -9.54527315e-03, 4.88039032e-02, 3.21093248e-03, 8.76787975e-02,
 2.82756649e-02 ,
  -1.68980822e-01, 4.07398492e-02, 6.34771064e-02, 6.77397251e-02,
 -3.87180522e-02  ,
 
   -6.99997172e-02, 2.59220395e-02,-1.21128894e-01,-5.75181358e-02,
 2.41326485e-02 ,
  -4.34523448e-03, 2.52607875e-02,-5.25907166e-02,-2.86893565e-02,
 -8.75045545e-03 ,
  -4.68698740e-02, 1.00546129e-01, 2.25400832e-02,-4.01011035e-02,
 -4.42880206e-02 ,
   6.27623522e-04, 1.35806769e-01, 2.82563865e-02, 4.89824116e-02,
 -4.08701599e-02 ,
  -7.18474537e-02,-3.44369449e-02,-2.71237679e-02, 3.43486741e-02,
 -2.42732204e-02  ,
 
   -7.89780840e-02,-1.47975773e-01,-1.09269440e-01,-1.23342082e-01,
 -3.96125168e-02 ,
  -7.78115317e-02, 3.74339968e-02,-1.99802276e-02, 2.37787236e-02,
 3.09842639e-02 ,
   1.94248203e-02, 1.24928087e-01, 1.20731130e-01, 7.14833736e-02,
 2.29169372e-02 ,
  -3.95295508e-02, 1.22925587e-01, 3.07353027e-02, 6.93731084e-02,
 6.80549676e-03 ,
  -1.75125599e-01,-9.45402458e-02,-4.36354540e-02,-9.93283615e-02,
 -1.22873262e-01  ,
 
   -6.80428147e-02,-1.33971218e-02,-4.43372875e-02,-2.96339691e-02,
 7.36752450e-02 ,
   1.27929831e-02,-4.79006302e-03,-5.95993362e-02,-1.37027293e-01,
 2.46435087e-02 ,
   1.24230661e-04,-2.94755009e-04, 1.68893505e-02,-7.98812583e-02,
 -4.37043197e-02 ,
   3.96361798e-02,-4.97131832e-02,-5.07795848e-02,-6.59201592e-02,
 -1.25497654e-02 ,
  -4.54683714e-02, 5.99368066e-02, 8.15040767e-02, 3.18920650e-02,
 -9.43668261e-02  ,
 
   -7.08456263e-02,-9.12314653e-02,-9.03425291e-02,-9.05266702e-02,
 -1.03315711e-01 ,
   1.07322522e-02,-4.00391147e-02,-5.39466552e-03,-7.71839917e-02,
 -7.05040470e-02 ,
  -1.55656580e-02, 6.80680722e-02, 6.04438893e-02, 2.15473920e-02,
 -6.41459832e-03 ,
  -3.12902145e-02, 9.15517882e-02, 5.38855940e-02, 6.45271838e-02,
 5.86419590e-02 ,
  -1.35384426e-01, 2.21066214e-02,-4.95131779e-03, 3.15118581e-02,
 5.27189858e-02  ,
 
   -3.10102627e-02, 4.82141338e-02, 8.13303739e-02, 1.35557428e-01,
 -1.63779221e-02 ,
   8.35432932e-02,-4.34037372e-02,-7.11568724e-03,-1.60280187e-02,
 -3.94119732e-02 ,
  -8.36120844e-02,-1.33478492e-01,-1.07684910e-01,-9.80561301e-02,
 -5.31816408e-02 ,
  -5.03829941e-02,-1.16579570e-01,-2.04635769e-01,-1.56642467e-01,
 -7.11431131e-02 ,
   4.66191433e-02, 6.39674142e-02, 9.41557139e-02, 1.03608757e-01,
 9.99658406e-02  ,
 
   -1.90845206e-02,-1.26457825e-01,-1.20403744e-01,-1.03921995e-01,
 -2.08271332e-02 ,
  -2.24750061e-02,-6.75883368e-02,-6.26756996e-02, 4.57216837e-02,
 7.06208497e-02 ,
  -6.97022025e-03,-2.30785049e-02,-4.40796204e-02, 3.14694606e-02,
 7.73821771e-03 ,
  -2.52430532e-02,-4.09241840e-02,-4.93310615e-02,-1.19610894e-02,
 -3.62480953e-02 ,
  -8.89576301e-02, 9.09204036e-03, 6.42006993e-02,-5.50180068e-03,
 -9.07664672e-02  ,
 
    6.25890344e-02,-5.61758094e-02,-4.71297652e-02,-6.26924112e-02,
 4.11482006e-02 ,
  -5.22497781e-02,-1.00862898e-01,-1.58776835e-01,-1.38866603e-01,
 -2.58288980e-02 ,
  -8.69270563e-02,-7.61516616e-02,-3.87986861e-02,-1.30084291e-01,
 -9.85836536e-02 ,
  -5.18155657e-02,-1.91954002e-02, 4.18159831e-03, 1.50488166e-03,
 -1.36801720e-01 ,
  -3.68489958e-02,-1.65526457e-02, 2.96855085e-02, 2.85680350e-02,
 4.90800943e-04   ,
 
 
    -1.80438776e-02,-8.75758007e-02,-8.08732286e-02,-2.31622998e-02,
 4.96167354e-02 ,
  -9.33587849e-02,-6.01562969e-02,-8.22290033e-03, 7.91022833e-03,
 -9.67400372e-02 ,
  -8.65005180e-02,-2.57229302e-02, 1.71476733e-02, 3.92694697e-02,
 1.86660029e-02 ,
  -2.37211641e-02,-7.25950822e-02,-2.68970132e-02,-1.56972706e-02,
 -5.18694054e-03 ,
  -4.69519459e-02,-6.53886124e-02,-1.45028472e-01,-8.29477012e-02,
 8.37066676e-03  ,
 
    5.59654050e-02, 5.54755107e-02, 4.76548299e-02,-2.34358553e-02,
 -2.42729415e-03 ,
   3.19116786e-02,-2.69003976e-02,-6.12563193e-02,-1.24434708e-02,
 -1.15517750e-02 ,
  -3.65828052e-02, 4.32464806e-03,-6.01422489e-02,-4.04672138e-02,
 5.25743179e-02 ,
   3.58739868e-02,-5.43015683e-03,-6.42931536e-02,-5.49774431e-02,
 1.30723519e-02 ,
  -1.33015364e-02,-8.71888082e-03, 4.52825334e-03, 4.28407975e-02,
 3.25146057e-02  ,
 
    1.74396038e-01,-7.82057643e-03,-7.04789832e-02, 3.78719494e-02,
 6.48612082e-02 ,
   7.64221549e-02,-1.38194608e-02,-4.50343490e-02, 1.29657835e-02,
 9.59523395e-02 ,
   2.68084779e-02, 1.18396301e-02,-9.67187434e-03,-3.71584557e-02,
 -3.17614004e-02 ,
  -2.13740449e-02,-1.32887080e-01,-1.56960204e-01,-9.86011028e-02,
 -4.98378947e-02 ,
  -2.31543314e-02,-9.02661681e-02,-1.23711482e-01,-1.52643934e-01,
 -2.40243953e-02  ,
 
   -7.20412806e-02, 1.20421387e-01, 9.72887576e-02, 9.63766873e-02,
 -5.44708781e-02 ,
  -1.54623404e-01, 6.85756579e-02, 1.50337085e-01, 2.30867062e-02,
 -1.63202390e-01 ,
  -1.96956441e-01,-7.31364414e-02, 6.63957819e-02, 2.87235528e-02,
 -3.69913727e-02 ,
  -1.20740443e-01,-8.98646116e-02,-3.97202093e-03,-5.15365377e-02,
 4.84724902e-02 ,
   6.54568970e-02,-9.74664930e-03,-8.56141374e-03,-5.25776334e-02,
 1.36566579e-01  ,
 
    6.84327856e-02,-1.00352027e-01,-8.36365893e-02,-7.79904649e-02,
 -4.26312070e-03 ,
   1.13590389e-01,-1.26311975e-02,-3.96650322e-02,-5.49040921e-02,
 8.58665556e-02 ,
   6.52243122e-02,-9.49131176e-02,-1.60232842e-01,-1.14304200e-01,
 -1.86553057e-02 ,
   2.65276972e-02,-1.22928061e-01,-1.24983743e-01,-5.94647229e-02,
 5.30376844e-03 ,
   6.94984943e-02, 1.14067728e-02,-6.59196675e-02, 1.28576951e-02,
 -1.05449995e-02  ,
 
    6.64088279e-02, 9.48300660e-02, 5.92509583e-02,-7.30549032e-03,
 -2.52614692e-02 ,
   6.93478063e-02, 8.44352785e-03, 1.35586802e-02,-1.01542704e-01,
 1.67517941e-02 ,
  -1.42934229e-02,-3.57884765e-02,-2.50034183e-02,-5.05965203e-02,
 4.50727344e-03 ,
  -1.34154372e-02, 2.25129239e-02, 1.74089968e-02,-2.90175695e-02,
 -2.42051482e-02 ,
  -7.36906976e-02,-8.74524117e-02,-6.19278401e-02,-5.01271896e-02,
 -8.97815228e-02  ,
 
    4.89132442e-02, 8.45566541e-02, 8.11357573e-02, 1.24133192e-01,
 6.13740906e-02 ,
  -1.02997407e-01,-1.47538939e-02, 1.77279145e-01, 3.54739875e-02,
 -9.13823321e-02 ,
  -2.62912154e-01,-6.05866872e-02, 1.33895770e-01, 4.88303751e-02,
 -2.22335175e-01 ,
  -1.01283550e-01,-6.08465299e-02,-3.02219507e-03,-4.87897405e-03,
 -1.19979762e-01 ,
  -3.30929570e-02,-9.27854776e-02,-6.44164085e-02,-4.23273295e-02,
 -1.45506218e-01  ,
 
    1.39452249e-01, 7.09598735e-02, 1.04667060e-02, 3.45011055e-02,
 -1.22771757e-02 ,
   1.85097352e-01, 8.41327086e-02,-1.01273181e-02, 2.75071468e-02,
 1.16386719e-01 ,
   1.02718472e-01, 1.85234621e-01, 1.12362847e-01, 1.37194663e-01,
 4.86336090e-02 ,
   1.18584773e-02, 6.69002682e-02, 6.98395446e-02, 4.17638905e-02,
 1.14532888e-01 ,
  -7.15104938e-02,-5.77313006e-02,-6.20502904e-02,-4.14585359e-02,
 -2.28401423e-02  ,
 
