[[[[-0.40127707, 0.09379097, 0.16542952, 0.11624573, 0.10793922],
   [-0.09591858, 0.39632362, 0.54298335, 0.28071117, 0.3330019 ],
   [ 0.05948386, 0.6314236 , 0.8600211 , 0.7480737 , 0.6314893 ],
   [ 0.15339567, 0.6564047 , 0.76245123, 0.77632415, 0.6872255 ],
   [-0.05178659, 0.29313472, 0.6449656 , 0.6887653 , 0.477422  ]],

  [[-0.3907937 ,-0.20384315,-0.07564985,-0.21351884,-0.19752927],
   [-0.4616665 ,-0.21674925,-0.20520511,-0.28769347,-0.26248777],
   [-0.7208263 ,-0.28380996,-0.26321018,-0.27939257,-0.39504328],
   [-0.7381042 ,-0.47991085,-0.23174399,-0.18456769,-0.42949194],
   [-0.8028733 ,-0.66216856,-0.4884449 ,-0.3712295 ,-0.3547242 ]],

  [[ 0.11799532, 0.37020978, 0.2807084 , 0.45049426, 0.43885624],
   [-0.10239964, 0.38329265, 0.20319027, 0.17361996, 0.25840667],
   [-0.1283214 , 0.04128845, 0.12485134, 0.15451768, 0.05413002],
   [-0.27558783,-0.03807269, 0.23734245, 0.03920248,-0.1289991 ],
   [-0.39661646,-0.00413082,-0.02569388, 0.03559746,-0.02940709]]],


 [[[-0.64909583,-0.08752646, 0.27174145, 0.07234037,-0.31913885],
   [-0.4768072 ,-0.08333659, 0.18549292, 0.14122516,-0.4302395 ],
   [-0.5090106 , 0.2017984 , 0.3815123 , 0.118792  ,-0.42490438],
   [-0.5240773 , 0.24668731, 0.36371946, 0.16676764,-0.4015598 ],
   [-0.36626685, 0.3145956 , 0.33276784, 0.17873694,-0.3551656 ]],

  [[-0.336062  , 0.20325384, 0.3729382 , 0.1259852 ,-0.30638328],
   [-0.49701315, 0.20255752, 0.39850318, 0.08317133,-0.36530158],
   [-0.4313158 , 0.09691717, 0.42598093, 0.12077747,-0.58804065],
   [-0.29917544, 0.12194473, 0.45292208, 0.1127881 ,-0.41567764],
   [-0.26687667, 0.23832135, 0.52535963, 0.22593716,-0.43453974]],

  [[-0.01300063, 0.5077434 , 0.7482964 , 0.37942845,-0.16497307],
   [-0.1886705 , 0.35819882, 0.6589471 , 0.32035327,-0.40793195],
   [-0.34664077, 0.34146023, 0.634843  , 0.2777556 ,-0.29901564],
   [-0.3394303 , 0.22367729, 0.5952024 , 0.30130678,-0.45996678],
   [-0.22577284, 0.41333804, 0.57485324, 0.28195283,-0.5240813 ]]],


 [[[-0.2083747 ,-0.32029817,-0.38328263,-0.3856086 ,-0.07314923],
   [-0.6739728 ,-0.98598915,-0.986841  ,-0.8861351 ,-0.79620624],
   [-0.68562406,-0.74298096,-0.4751402 ,-0.6451998 ,-0.6707662 ],
   [-0.25875628,-0.22408433, 0.1416089 ,-0.1398173 ,-0.08027808],
   [ 0.2826473 , 0.42606342, 0.6245474 , 0.6785319 , 0.45042098]],

  [[-0.12536731, 0.22006409, 0.3793506 , 0.23713936, 0.13041179],
   [-0.26301843, 0.0512155 , 0.36737636, 0.11286873,-0.29251596],
   [-0.27690673, 0.22151563, 0.6781461 , 0.13929711,-0.32264844],
   [-0.24075395, 0.25317472, 0.41371873, 0.23131827,-0.39982998],
   [-0.54011875,-0.00925854, 0.04189803,-0.01432244,-0.43753392]],

  [[ 0.1118581 , 0.59536326, 0.6612239 , 0.26297998,-0.058994  ],
   [ 0.2515699 , 0.8395314 , 1.000939  , 0.49327913,-0.13849254],
   [ 0.26924598, 0.90345716, 1.1819718 , 0.6514836 ,-0.03292482],
   [-0.01085506, 0.5518575 , 0.8183547 , 0.52471805,-0.1958573 ],
   [-0.25295043, 0.08775552, 0.39344025,-0.01555518,-0.54735625]]],


 [[[ 0.5386812 , 0.18858418,-0.0888962 , 0.20495497, 0.22264408],
   [ 0.5128829 , 0.08846647,-0.20004892,-0.11917453, 0.24863382],
   [ 0.48956656,-0.02296153,-0.3613856 ,-0.19065727, 0.27072006],
   [ 0.7318066 , 0.24150403, 0.00722652, 0.16362832, 0.4287063 ],
   [ 0.8186841 , 0.7328776 , 0.60298556, 0.48868212, 0.7077952 ]],

  [[ 0.16156426,-0.23442146,-0.32434338,-0.06936228, 0.02620233],
   [ 0.04894716,-0.45019284,-0.52471584,-0.2785114 , 0.11465721],
   [ 0.09955366,-0.39437848,-0.58948064,-0.45986962,-0.02531561],
   [ 0.2757448 ,-0.20804745,-0.44654104,-0.2879547 , 0.15378815],
   [ 0.55366987, 0.28858742, 0.23657449, 0.37704736, 0.5202363 ]],

  [[-0.548253  ,-0.63892883,-0.50669605,-0.4598605 ,-0.57122004],
   [-0.24307372,-0.52128965,-0.6338405 ,-0.58453184,-0.29177377],
   [-0.06124282,-0.44097844,-0.6908651 ,-0.56900173,-0.17533614],
   [ 0.12492785,-0.09274598,-0.33162063,-0.12455695, 0.01475584],
   [ 0.5595646 , 0.3292862 , 0.31593072, 0.37133288, 0.25573602]]],


 [[[-0.09784233, 0.0105972 , 0.11592032,-0.0501981 ,-0.29415566],
   [ 0.0054139 , 0.1630634 , 0.11557473, 0.04987619,-0.08946658],
   [ 0.05986984, 0.22816388, 0.18848039, 0.0780717 ,-0.10706754],
   [-0.05157879, 0.18341099, 0.19813865, 0.08434348,-0.2377065 ],
   [-0.01994358, 0.33199912, 0.17692097, 0.10625708,-0.36076957]],

  [[ 0.22846833, 0.4031967 , 0.2531451 , 0.19551821, 0.0568925 ],
   [ 0.42926797, 0.48810574, 0.4471631 , 0.21684435, 0.1239794 ],
   [ 0.25804844, 0.510551  , 0.59949285, 0.24117206, 0.08217198],
   [ 0.23178233, 0.63080716, 0.54768586, 0.2123718 , 0.05013143],
   [ 0.18937494, 0.43452132, 0.5331237 , 0.16224137,-0.14694344]],

  [[ 0.27401355, 0.4076406 , 0.36881936, 0.3040675 ,-0.01466499],
   [ 0.03563616, 0.15077546, 0.05499797,-0.00737107,-0.25737083],
   [-0.2410666 , 0.07802717, 0.03509497,-0.19530737,-0.48749352],
   [-0.29633743,-0.25467378,-0.1798353 ,-0.431678  ,-0.6889948 ],
   [-0.51320446,-0.18457356,-0.2946948 ,-0.577348  ,-0.7581438 ]]],


 [[[-0.28261334,-0.6347722 ,-0.86991763,-0.49006018,-0.13670284],
   [-0.68370134,-0.8928735 ,-0.8616568 ,-0.7627778 ,-0.610855  ],
   [-0.30608693,-0.19500299,-0.01962749,-0.27813178,-0.22807084],
   [ 0.42300177, 0.73033124, 1.0002512 , 0.821996  , 0.49413204],
   [ 0.44478035, 0.77316296, 0.78321296, 0.54108846, 0.12287549]],

  [[-0.21187878,-0.62863195,-0.8982887 ,-0.48877066,-0.06228124],
   [-0.6034898 ,-0.5469275 ,-0.7281122 ,-0.48570627,-0.3198674 ],
   [-0.19193654, 0.0966983 , 0.2436561 , 0.17326002,-0.0906854 ],
   [ 0.5325722 , 1.1501063 , 1.2921076 , 0.9137552 , 0.57238305],
   [ 0.36017078, 0.87161475, 0.9961816 , 0.6953706 , 0.05877233]],

  [[-0.06124112,-0.3427878 ,-0.5272285 ,-0.27303678, 0.09895501],
   [-0.4316672 ,-0.39192122,-0.4783034 ,-0.46653095,-0.25745827],
   [-0.26498663,-0.07125001, 0.24612388,-0.05232013,-0.09784044],
   [ 0.2719631 , 0.60009986, 0.91428185, 0.6852588 , 0.23085147],
   [-0.17501898, 0.17319736, 0.46428913, 0.15151276,-0.38214228]]]]