[[[[ 9.73644257e-02, 9.06213596e-02, 1.05716243e-01, 1.64331317e-01,
     8.32089856e-02],
   [ 2.08414122e-01, 1.12321399e-01, 2.32979640e-01, 3.55375707e-01,
     2.64970869e-01],
   [ 3.08637619e-01, 2.23461628e-01, 2.21669927e-01, 1.57769918e-01,
     2.20566556e-01],
   [ 3.04139107e-01, 1.97729915e-01, 6.73801899e-02, 1.42425910e-01,
     2.26006284e-02],
   [ 2.22986028e-01, 9.72991884e-02, 9.30497423e-02,-4.09662351e-02,
     6.08108602e-02]],

  [[-1.43240526e-01,-1.37129486e-01,-4.04510461e-02, 2.41901986e-02,
    -4.73138057e-02],
   [ 7.54591301e-02, 8.50905329e-02, 9.32985395e-02, 8.18318278e-02,
     2.41590962e-01],
   [ 3.78859527e-02, 9.54856575e-02, 1.76073864e-01, 2.02087656e-01,
     2.03585401e-01],
   [ 1.17207214e-01, 2.96709299e-01, 2.59768188e-01, 1.94371060e-01,
     1.33970901e-01],
   [ 8.37042462e-03, 1.02155164e-01, 1.70728937e-01, 1.10259250e-01,
     7.63782039e-02]],

  [[-4.18567419e-01,-3.67921978e-01,-3.95825237e-01,-3.30452621e-01,
    -3.54909956e-01],
   [-2.02378497e-01,-2.15753347e-01,-2.16127649e-01,-2.55469620e-01,
    -1.77393585e-01],
   [-2.82035530e-01,-6.82742149e-02,-1.48644924e-01,-1.47358820e-01,
    -8.51179287e-02],
   [-2.30747059e-01,-3.61391753e-02,-1.08370632e-01,-8.03593397e-02,
    -6.42052367e-02],
   [-3.37239772e-01,-2.61999041e-01,-2.07550153e-01,-1.45909920e-01,
    -1.54618070e-01]],

  [[ 1.37477994e-01, 1.23594701e-01,-5.43798916e-02,-3.20273452e-02,
    -1.55359507e-01],
   [ 9.33719873e-02,-1.93055961e-02,-2.18646884e-01,-3.12663049e-01,
    -2.37191573e-01],
   [-1.52103305e-01,-1.38755590e-01,-1.78353220e-01,-3.00086588e-01,
    -4.05737489e-01],
   [-1.16710633e-01,-1.34848833e-01,-2.57731438e-01,-3.01766038e-01,
    -3.10941190e-01],
   [-3.43569547e-01,-2.38355279e-01,-3.66348445e-01,-4.54096913e-01,
    -4.10815209e-01]],

  [[ 4.25999016e-01, 3.79243404e-01, 2.78148115e-01, 2.12050006e-01,
     1.97488144e-01],
   [ 3.54566842e-01, 2.38965139e-01, 2.61123955e-01, 2.61049330e-01,
     9.78882387e-02],
   [ 3.92507344e-01, 2.57175982e-01, 2.67000824e-01, 2.02076882e-01,
     2.31156260e-01],
   [ 3.11402857e-01, 3.38850766e-01, 2.75318384e-01, 2.05503538e-01,
     2.10545287e-01],
   [ 1.83810532e-01, 2.50359118e-01, 1.80261537e-01, 1.86086148e-01,
     7.74930492e-02]],

  [[ 1.65368170e-01, 1.20092787e-01,-3.09952982e-02, 4.87445779e-02,
     2.04631798e-02],
   [-5.23965918e-02, 4.43811808e-03,-7.31575266e-02,-2.93992847e-01,
    -3.60214263e-01],
   [-1.15844034e-01,-1.41059965e-01,-1.68082103e-01,-3.49475622e-01,
    -4.59454238e-01],
   [-1.45867467e-01,-1.06438182e-01,-1.88971266e-01,-2.55359769e-01,
    -3.24932456e-01],
   [-3.17798346e-01,-2.73010731e-01,-1.39163867e-01,-3.28821748e-01,
    -3.42753619e-01]]],


 [[[ 3.73745441e-01, 1.31933481e-01, 3.05458575e-01, 2.92704105e-01,
     5.87500632e-01],
   [ 4.37094748e-01, 4.37881649e-01, 4.65617537e-01, 5.04513681e-01,
     5.37463009e-01],
   [ 2.78017104e-01, 3.58803481e-01, 2.79412061e-01, 2.69845963e-01,
     1.26117945e-01],
   [-2.87408352e-01,-3.33233804e-01,-2.85099655e-01,-2.61178315e-01,
    -4.20909971e-01],
   [-5.96000373e-01,-5.69693387e-01,-5.42700887e-01,-5.54352403e-01,
    -5.37212074e-01]],

  [[-4.31429129e-03,-1.65107474e-01,-2.01590639e-02,-1.62399709e-02,
     8.77405852e-02],
   [-1.26931161e-01,-8.38312730e-02,-6.50360715e-03, 9.24172904e-03,
    -3.87084894e-02],
   [-2.37011909e-01,-1.65146247e-01,-7.96509311e-02,-1.22068346e-01,
    -1.75430432e-01],
   [-4.39017057e-01,-2.48530611e-01,-3.58039796e-01,-2.42914960e-01,
    -3.08039010e-01],
   [-2.63458431e-01,-3.74246866e-01,-2.84180284e-01,-2.22432807e-01,
    -1.16347745e-01]],

  [[ 1.17319509e-01, 2.78577924e-01, 2.38091663e-01, 2.57843971e-01,
     1.16785385e-01],
   [ 6.43796548e-02, 4.80561592e-02, 1.34834617e-01, 1.32298768e-01,
     1.85954589e-02],
   [-2.25960389e-01,-5.08086234e-02,-2.20977649e-01,-3.14898677e-02,
    -8.00040290e-02],
   [ 2.33552843e-01, 2.75625020e-01, 2.77370274e-01, 3.50275636e-01,
     2.25948021e-01],
   [ 6.66890085e-01, 7.69719541e-01, 7.04930782e-01, 6.94990158e-01,
     6.76208675e-01]],

  [[ 3.40746582e-01, 3.25955540e-01, 3.91467810e-01, 2.40522951e-01,
     2.36568585e-01],
   [ 3.77494872e-01, 5.21020710e-01, 6.11419141e-01, 6.17277741e-01,
     3.72398943e-01],
   [ 3.60813402e-02, 7.73191750e-02, 7.85242990e-02, 6.92852912e-03,
     1.23260878e-01],
   [ 8.67477432e-02,-4.58230153e-02, 6.93093985e-02, 1.88695397e-02,
     2.15803549e-01],
   [ 2.88548563e-02,-2.73691472e-02,-3.05673224e-03, 9.45436489e-03,
     8.60411897e-02]],

  [[ 1.54766008e-01, 2.41149608e-02,-7.71589950e-03, 9.87903215e-04,
     1.89231798e-01],
   [ 3.57085392e-02, 9.66317132e-02, 5.05826995e-02, 6.28512353e-02,
     1.28236726e-01],
   [-1.38091072e-01,-4.94343564e-02,-1.28318416e-02,-3.98033522e-02,
    -7.51122832e-02],
   [-4.12519962e-01,-3.67493987e-01,-3.90375733e-01,-3.62270385e-01,
    -4.89635378e-01],
   [-3.41668397e-01,-2.32983947e-01,-2.67987341e-01,-3.71031523e-01,
    -3.41353029e-01]],

  [[-1.40329167e-01, 2.02403846e-03, 1.62466928e-01, 1.27889737e-01,
    -1.87220290e-01],
   [-2.76436776e-01, 4.67233472e-02, 1.88597277e-01, 6.65352866e-03,
    -3.43433142e-01],
   [-7.28532016e-01,-5.92545867e-01,-6.62286580e-01,-6.22585177e-01,
    -7.89796352e-01],
   [-5.90626299e-01,-5.47124743e-01,-5.50622582e-01,-5.99145055e-01,
    -4.17274088e-01],
   [-2.97992378e-01,-4.41376507e-01,-3.94880265e-01,-3.95946831e-01,
    -1.96582898e-01]]],


 [[[-1.97870165e-01,-2.53439933e-01,-2.47531921e-01,-2.84576952e-01,
    -2.28891239e-01],
   [-2.95787811e-01,-1.58453763e-01,-2.28859514e-01,-3.13942164e-01,
    -3.34217250e-01],
   [-1.41547188e-01, 1.05527760e-02, 9.85489041e-02, 2.50382684e-02,
     4.57341745e-02],
   [ 9.53771845e-02, 2.71702945e-01, 3.69591594e-01, 1.78414389e-01,
     1.63051113e-01],
   [ 2.11576596e-02, 1.42104954e-01, 2.18308061e-01, 2.22777113e-01,
     8.46276879e-02]],

  [[-2.42578432e-01,-1.90163091e-01,-2.03809515e-01,-9.49029997e-02,
    -1.92753106e-01],
   [-4.10076857e-01,-4.47244406e-01,-3.57584000e-01,-2.60505944e-01,
    -2.37724483e-01],
   [-2.96494812e-01,-3.96252811e-01,-4.02905852e-01,-2.61374533e-01,
    -2.13221818e-01],
   [-2.46253923e-01,-2.43686870e-01,-2.70007014e-01,-2.61184603e-01,
    -3.02441388e-01],
   [-1.84443206e-01,-1.92281470e-01,-2.35792160e-01,-2.23933801e-01,
    -1.90630317e-01]],

  [[ 3.02722186e-01, 3.00889224e-01, 4.22841191e-01, 4.01389092e-01,
     4.21658725e-01],
   [ 1.85615957e-01, 2.00503498e-01, 2.97529519e-01, 3.85781497e-01,
     4.27791238e-01],
   [ 1.24522641e-01, 1.35640755e-01, 6.30827323e-02, 9.37361717e-02,
     1.31773412e-01],
   [ 1.01577789e-01,-1.78875327e-01,-2.73326039e-01,-1.64822698e-01,
    -2.34591961e-02],
   [ 3.64373177e-01,-1.34504214e-02,-1.40023723e-01,-7.43284151e-02,
     1.81505397e-01]],

  [[-2.31456414e-01,-4.06182557e-01,-3.93283665e-01,-1.69037804e-01,
    -1.77165866e-01],
   [ 1.22423068e-01, 1.30181268e-01,-3.73881944e-02, 6.16135299e-02,
     5.69285378e-02],
   [ 5.00811636e-02, 2.08078437e-02, 5.38394265e-02, 1.28657877e-01,
     1.98691431e-02],
   [ 3.37903239e-02, 1.63724810e-01, 1.47887081e-01, 2.22673222e-01,
     1.09888740e-01],
   [ 8.10573846e-02, 1.28577888e-01, 3.15233052e-01, 2.95329034e-01,
     2.04106838e-01]],

  [[-6.26769185e-01,-5.16826451e-01,-3.93472642e-01,-3.14603388e-01,
    -3.12396735e-01],
   [-5.97315192e-01,-4.26106393e-01,-3.89679849e-01,-3.14444691e-01,
    -2.46966198e-01],
   [-1.91054404e-01,-6.46930039e-02,-8.16606358e-02, 7.12780356e-02,
    -5.92261851e-02],
   [ 1.38913363e-01, 2.93099940e-01, 3.28738332e-01, 2.79180348e-01,
     2.15481818e-01],
   [ 3.43903780e-01, 4.21786249e-01, 4.01191592e-01, 4.26347882e-01,
     3.80763263e-01]],

  [[-2.03497306e-01,-2.05365747e-01,-1.32354736e-01,-1.58915460e-01,
    -5.60949184e-02],
   [ 5.69084957e-02, 9.27140415e-02, 1.82977654e-02, 7.28761107e-02,
     2.74235737e-02],
   [-7.03300759e-02,-1.38609514e-01,-3.26067507e-02,-8.25283974e-02,
     8.02454948e-02],
   [-1.27568603e-01,-2.84909457e-01,-3.01400155e-01,-1.79954991e-01,
    -6.92790672e-02],
   [-9.21421051e-02,-3.31900299e-01,-2.71795154e-01,-2.31333584e-01,
     3.92578449e-03]]],


 [[[-5.33596754e-01,-4.83407199e-01,-3.95787209e-01,-3.20334435e-01,
    -4.62308936e-02],
   [-3.03597867e-01,-3.85509819e-01,-3.80245477e-01,-2.09386334e-01,
     1.18294023e-02],
   [-1.40418977e-01,-1.95058897e-01,-2.02929765e-01, 1.07825279e-01,
     2.47011796e-01],
   [ 3.77919935e-02, 1.48799449e-01, 2.67126918e-01, 3.25841486e-01,
     4.24251348e-01],
   [ 2.52772659e-01, 4.12308484e-01, 6.34006083e-01, 6.70575500e-01,
     7.33598530e-01]],

  [[ 1.17408909e-01, 1.82537869e-01, 1.46981105e-01, 1.71303511e-01,
     2.05816880e-01],
   [-6.15793616e-02, 4.02784869e-02,-5.55947050e-02, 2.90758312e-02,
     1.09553998e-02],
   [-4.85841073e-02, 1.08881909e-02,-9.41434577e-02, 4.49460521e-02,
     3.20196375e-02],
   [-3.17971073e-02, 4.03534994e-02, 2.13941932e-01, 1.57145694e-01,
     5.32605536e-02],
   [ 1.80842429e-02, 6.35678470e-02, 1.78163514e-01, 1.38733134e-01,
    -1.23088630e-02]],

  [[-1.59968644e-01,-1.22090168e-01,-9.28884521e-02, 2.68006977e-02,
    -1.29283085e-01],
   [-2.11376309e-01,-1.19794749e-01, 1.04628047e-02,-1.15288068e-02,
    -8.13761503e-02],
   [-2.89236844e-01,-1.53699607e-01,-1.22933023e-01,-1.33089602e-01,
    -2.53192186e-01],
   [-3.48802865e-01,-2.05584228e-01,-1.92579091e-01,-9.84353051e-02,
    -4.11703587e-01],
   [-5.52192092e-01,-5.10692835e-01,-3.74102980e-01,-4.51936126e-01,
    -6.27182662e-01]],

  [[-6.35406196e-01,-5.81630051e-01,-4.87072766e-01,-6.42388344e-01,
    -6.55022323e-01],
   [-4.96616215e-01,-2.46426255e-01,-1.61714554e-01,-2.66703427e-01,
    -4.20826882e-01],
   [-3.96710932e-01,-8.67374390e-02,-6.15028329e-02,-1.60465613e-02,
    -1.18097089e-01],
   [-1.89508468e-01,-7.99234062e-02, 5.75125739e-02, 1.17254265e-01,
     1.06994778e-01],
   [-3.47725265e-02, 2.86079068e-02, 1.78586677e-01, 3.03242236e-01,
     3.00507843e-01]],

  [[-1.19292870e-01,-2.03618124e-01,-2.23156184e-01,-2.60503650e-01,
    -1.07581265e-01],
   [-1.22690015e-01,-1.39367655e-01,-1.04509756e-01,-1.37529960e-02,
     2.47362703e-02],
   [-5.47920279e-02, 4.65172231e-02, 1.67050928e-01, 2.11586177e-01,
     1.63398117e-01],
   [-2.00200483e-01, 2.41641343e-01, 3.78927231e-01, 2.86065727e-01,
     2.01292500e-01],
   [-1.98853806e-01, 2.56009102e-01, 3.41354400e-01, 4.32380825e-01,
     1.91952050e-01]],

  [[ 1.39770433e-01, 2.67577559e-01, 1.65323287e-01, 7.52920806e-02,
    -4.73385826e-02],
   [ 1.18292890e-01, 3.09291244e-01, 2.02829212e-01, 2.87144870e-01,
     2.18845427e-01],
   [ 9.20506045e-02, 3.14897597e-01, 3.99863869e-01, 4.28992510e-01,
     2.42298290e-01],
   [-5.99986389e-02, 3.31843793e-01, 5.55871964e-01, 6.22225940e-01,
     2.49143079e-01],
   [-1.44635603e-01, 1.70334712e-01, 3.05592448e-01, 2.65256137e-01,
    -1.03622572e-02]]],


 [[[ 1.39707789e-01, 1.06519498e-01,-3.12190969e-02,-1.26981363e-02,
    -1.06714733e-01],
   [ 2.21612886e-01, 3.84669930e-01, 3.48521411e-01, 2.99483389e-01,
     1.91040859e-01],
   [ 4.88687754e-01, 6.49868429e-01, 5.43290555e-01, 4.11971331e-01,
     2.83133864e-01],
   [ 5.25899351e-01, 5.52409768e-01, 5.13868630e-01, 3.96071345e-01,
     4.12326574e-01],
   [ 2.77900815e-01, 3.68380100e-01, 2.51560837e-01, 1.34180278e-01,
     1.26409546e-01]],

  [[-6.51969835e-02,-1.27515450e-01,-2.14619353e-01,-1.43239006e-01,
    -7.39473803e-03],
   [ 7.68988132e-02,-1.65011734e-01,-1.09124221e-01,-2.97545753e-02,
     1.21511608e-01],
   [ 6.71249721e-03,-6.07165731e-02,-9.46069583e-02, 9.48009118e-02,
     2.00967029e-01],
   [ 1.86413392e-01,-5.32819554e-02,-7.93312639e-02, 4.76570576e-02,
     1.42602757e-01],
   [ 1.90219253e-01, 1.86938271e-01, 5.20892479e-02, 3.98417264e-02,
     2.18733028e-01]],

  [[ 1.05686970e-01,-1.26308268e-02,-4.31566760e-02, 1.63978823e-02,
     1.71163321e-01],
   [-5.22553436e-02,-1.19305588e-01,-7.56442621e-02,-1.06841736e-01,
     9.09754261e-02],
   [-1.59045644e-02,-1.92153215e-01,-1.85944825e-01,-5.15525751e-02,
     2.98209302e-02],
   [-1.01906106e-01,-2.34213904e-01,-1.56737715e-01,-9.73148346e-02,
     8.79734233e-02],
   [ 2.05145329e-01, 1.27823964e-01, 1.16082177e-01, 1.56863391e-01,
     3.36299211e-01]],

  [[ 1.46396875e-01, 4.43159230e-02,-6.14015572e-02, 1.94438919e-01,
     1.82326078e-01],
   [ 2.06970721e-01, 1.53821528e-01, 7.93738961e-02, 8.23097825e-02,
    -4.90488857e-02],
   [ 3.58024985e-01, 3.34078223e-01, 2.85743386e-01, 1.73304051e-01,
     7.61346817e-02],
   [ 3.64625990e-01, 4.00465637e-01, 2.45543227e-01, 1.18483730e-01,
    -1.25664264e-01],
   [ 2.76537687e-01, 3.19335639e-01, 2.60381192e-01, 1.85203716e-01,
     3.55738588e-02]],

  [[-1.17239505e-01,-1.41800806e-01,-2.25199491e-01,-1.84949860e-01,
    -1.72661498e-01],
   [-1.90366432e-02,-3.41324776e-01,-2.96447009e-01,-3.73739183e-01,
    -2.50787497e-01],
   [-1.09237388e-01,-4.08318281e-01,-5.63572168e-01,-4.75937575e-01,
    -3.37939352e-01],
   [ 1.90908797e-02,-3.84436637e-01,-3.55394900e-01,-4.15789723e-01,
    -3.70685250e-01],
   [-1.01148129e-01,-1.50297046e-01,-3.71528447e-01,-4.80944723e-01,
    -3.56224537e-01]],

  [[-3.43540609e-02,-1.98864579e-01,-1.74457371e-01,-8.99186283e-02,
     4.35841046e-02],
   [-2.17298016e-01,-3.87972325e-01,-4.87849057e-01,-4.09444928e-01,
    -1.20982721e-01],
   [-6.92080110e-02,-1.66363925e-01,-2.10909978e-01,-1.59823656e-01,
    -8.09160620e-02],
   [ 3.00781101e-01, 1.13472372e-01,-9.98081192e-02,-1.67749211e-01,
    -5.44717796e-02],
   [ 2.15055987e-01, 2.69098114e-02, 6.66482234e-03,-1.33770064e-01,
     5.78748062e-03]]],


 [[[-2.26899788e-01,-1.33595049e-01, 1.18968694e-03,-5.78693906e-03,
     1.03856593e-01],
   [-4.42895517e-02, 4.00882103e-02, 2.07549676e-01, 3.07371765e-01,
     2.10618347e-01],
   [ 1.63471878e-01, 2.42232084e-01, 3.29872638e-01, 3.34600389e-01,
     4.11263853e-01],
   [ 1.21917218e-01, 2.01993987e-01, 1.84538826e-01, 2.68407971e-01,
     3.35399598e-01],
   [-8.93721208e-02,-8.75256211e-02,-8.59726220e-02,-5.64058870e-02,
     1.36255904e-03]],

  [[ 9.77750402e-03,-4.67808843e-02,-3.29620317e-02,-2.20204387e-02,
    -5.63653223e-02],
   [ 9.44542512e-03,-2.04310473e-02,-1.67517498e-01,-1.98556259e-01,
    -7.60969445e-02],
   [ 2.74863392e-01, 9.98555049e-02, 4.28133644e-04,-9.58069265e-02,
    -1.54232726e-01],
   [ 2.10970372e-01, 2.14401186e-01, 7.07128122e-02,-1.28409073e-01,
    -1.49180517e-01],
   [ 3.13314378e-01, 2.98023850e-01, 1.48003593e-01,-1.23265132e-01,
    -6.56694323e-02]],

  [[ 4.70162213e-01, 2.51638323e-01, 3.46730724e-02,-4.05413210e-02,
    -8.98268670e-02],
   [ 3.42691034e-01, 3.81980985e-02,-1.87557667e-01,-1.91050276e-01,
    -1.45530239e-01],
   [ 2.50759810e-01,-5.13067171e-02,-2.21941426e-01,-4.50394750e-01,
    -4.24663693e-01],
   [ 3.84728074e-01, 4.04447056e-02,-3.07791561e-01,-3.89194906e-01,
    -4.31480885e-01],
   [ 6.35341823e-01, 3.38056087e-01, 4.70107086e-02,-1.25865012e-01,
    -1.45861328e-01]],

  [[-1.47401795e-01,-1.40483186e-01,-1.57123625e-01,-8.66745859e-02,
    -3.46351713e-02],
   [-1.10323563e-01, 5.34431860e-02, 1.42590608e-02, 7.30811730e-02,
     8.74348953e-02],
   [-1.48121163e-01, 8.59494954e-02, 2.34790906e-01, 1.93705946e-01,
     4.86368127e-02],
   [-1.69074729e-01, 9.95692611e-02, 2.13346004e-01, 2.91930586e-01,
     2.17298642e-01],
   [-4.52853382e-01,-2.53282070e-01,-8.97486433e-02, 1.31222680e-01,
     1.27711177e-01]],

  [[-1.53045893e-01,-1.53830200e-01,-8.34887400e-02,-1.41431779e-01,
    -1.64452776e-01],
   [-1.82492957e-01,-2.15499312e-01,-2.92098135e-01,-2.07930267e-01,
    -2.43236139e-01],
   [-5.55132963e-02,-1.73190027e-01,-2.60251552e-01,-3.30503315e-01,
    -3.69772524e-01],
   [-8.51456821e-02,-9.71661732e-02,-2.66115367e-01,-3.81525725e-01,
    -5.43097496e-01],
   [-2.41235614e-01,-2.03279942e-01,-3.49230528e-01,-5.45330048e-01,
    -6.84707224e-01]],

  [[ 2.68637072e-02,-1.67352021e-01,-6.79213628e-02,-1.67332232e-01,
    -3.17240730e-02],
   [-5.63936261e-03,-2.06992216e-03, 9.80555639e-03,-1.69452652e-01,
    -1.09639138e-01],
   [ 5.88085651e-02, 1.37349129e-01, 3.08652464e-02,-8.09386447e-02,
    -1.82062194e-01],
   [ 5.90358302e-02, 2.17249036e-01, 1.75233353e-02,-7.06488267e-02,
    -1.63433984e-01],
   [ 1.02777071e-01, 1.61849806e-04,-3.42923007e-03,-7.60507071e-03,
    -8.06386545e-02]]],


 [[[-1.34847179e-01,-1.33532286e-01,-1.61078125e-01,-2.25751624e-01,
    -4.74507034e-01],
   [-8.66178051e-03,-1.00387745e-01,-2.09009573e-01,-1.99896380e-01,
    -4.07241970e-01],
   [-5.55684266e-04, 3.82009335e-02, 7.93735236e-02, 8.97918735e-03,
    -1.11225456e-01],
   [ 1.25365525e-01, 1.69140652e-01, 8.15907195e-02, 1.48086116e-01,
    -1.10270314e-01],
   [ 1.81728423e-01, 1.58414114e-02, 1.99088767e-01, 1.07403770e-01,
    -1.38624972e-02]],

  [[-2.41431594e-01,-3.68493557e-01,-1.72501683e-01,-2.22286493e-01,
    -2.15464219e-01],
   [-2.63195187e-01,-3.11753422e-01,-2.87433177e-01,-1.82044849e-01,
    -1.53550521e-01],
   [-6.25448450e-02,-1.91750556e-01,-1.80122167e-01,-1.61954686e-01,
    -1.13547772e-01],
   [-8.69360343e-02,-1.66328162e-01,-6.18154518e-02,-1.11447446e-01,
    -1.72126040e-01],
   [-1.30936325e-01,-4.10303265e-01,-3.25971246e-01,-4.53926533e-01,
    -4.22373950e-01]],

  [[-2.97650903e-01,-3.31627190e-01,-2.43729144e-01,-9.95553061e-02,
     1.48947332e-02],
   [-9.02562812e-02,-1.87657163e-01,-3.79053056e-02, 7.15175597e-03,
     1.19162351e-01],
   [-1.22966647e-01,-4.60482091e-02,-1.14849068e-01, 8.74314308e-02,
     1.19029112e-01],
   [ 1.08736753e-01,-3.43569890e-02,-1.02335811e-01, 9.20093618e-03,
     1.31599173e-01],
   [ 9.14705619e-02,-2.07156003e-01,-1.10359438e-01,-1.02389328e-01,
    -8.56511965e-02]],

  [[ 1.20224006e-01, 1.44813880e-01, 1.90303206e-01, 1.62412643e-01,
    -1.11238018e-01],
   [ 1.01194479e-01, 2.19561994e-01, 2.30983004e-01,-1.68846939e-02,
    -1.15437023e-01],
   [-3.53686735e-02, 2.45771036e-02,-5.89079708e-02,-2.73308575e-01,
    -2.83107400e-01],
   [-2.58070260e-01,-1.18695833e-01,-1.62109628e-01,-2.71615922e-01,
    -3.36091608e-01],
   [-6.35356367e-01,-4.21252131e-01,-3.37897331e-01,-5.57966232e-01,
    -6.79052234e-01]],

  [[ 7.03464746e-02, 1.89871460e-01, 2.38718480e-01, 3.40755045e-01,
     3.41918886e-01],
   [-8.39154050e-02, 1.33810520e-01, 2.08021015e-01, 3.09222490e-01,
     2.29814544e-01],
   [ 4.30810079e-02, 2.13451579e-01, 3.20843548e-01, 2.16875717e-01,
    -8.39157626e-02],
   [-2.83603054e-02, 1.25989467e-01, 7.55957812e-02,-1.96653381e-02,
    -2.68190891e-01],
   [-4.62074935e-01,-3.71780366e-01,-4.12711799e-01,-5.72655201e-01,
    -6.81623697e-01]],

  [[ 6.72388256e-01, 6.62609875e-01, 4.81240153e-01, 3.83033991e-01,
     4.19596463e-01],
   [ 6.04007125e-01, 5.32231688e-01, 4.35117185e-01, 4.38535333e-01,
     3.59775126e-01],
   [ 5.88001072e-01, 4.60495204e-01, 4.20355439e-01, 2.76017457e-01,
     2.64805317e-01],
   [ 2.66324401e-01, 2.78451145e-01, 1.13714613e-01, 3.78968045e-02,
    -8.03662837e-02],
   [-4.55246419e-01,-3.76188815e-01,-3.94255072e-01,-4.80196327e-01,
    -6.33089721e-01]]],


 [[[-5.72247356e-02,-1.77270696e-01,-1.60347432e-01,-6.21234812e-02,
     2.26129949e-01],
   [ 1.07663900e-01, 3.19780037e-02, 9.70307589e-02, 9.83347744e-02,
     3.80573869e-01],
   [ 2.26725936e-01, 1.51478440e-01, 1.35400504e-01, 2.76607513e-01,
     3.20310771e-01],
   [-1.89684749e-01,-1.30399466e-01,-6.77005574e-02,-5.15147038e-02,
     5.11428192e-02],
   [-3.35060924e-01,-3.33881557e-01,-3.96760404e-01,-3.45232397e-01,
    -7.22818300e-02]],

  [[ 1.06844686e-01, 2.47670524e-02, 1.64295211e-01, 2.26711556e-01,
     4.56318319e-01],
   [-1.03373632e-01, 1.88970026e-02, 1.01808913e-01, 5.85078299e-02,
     1.49678588e-01],
   [-3.05476695e-01,-1.77482754e-01,-7.90473148e-02,-6.44131228e-02,
    -1.49298543e-02],
   [-5.12253165e-01,-4.00808632e-01,-3.44585001e-01,-2.61169672e-01,
    -1.67135030e-01],
   [-3.18981528e-01,-1.70673758e-01,-2.07672924e-01,-2.23136127e-01,
     4.12698202e-02]],

  [[ 6.36060357e-01, 6.95555091e-01, 7.67341912e-01, 6.15064621e-01,
     6.43029153e-01],
   [ 3.55881095e-01, 5.15331507e-01, 5.32805383e-01, 3.68755460e-01,
     4.30110902e-01],
   [-1.07207455e-01, 1.50170982e-01, 1.09324507e-01, 5.13551459e-02,
     1.00478172e-01],
   [-1.34275243e-01,-1.09882772e-01,-2.89891567e-02,-1.57214642e-01,
    -6.53152689e-02],
   [-3.90137546e-02, 4.64307368e-02, 1.43259531e-02, 1.92794446e-02,
     1.67632952e-01]],

  [[-1.01455793e-01,-9.88390446e-02,-1.91579670e-01,-1.53405353e-01,
    -1.27283603e-01],
   [ 6.95064515e-02, 2.11506009e-01, 2.73111492e-01, 2.18177259e-01,
     1.63603827e-01],
   [ 1.75115928e-01, 1.10342674e-01, 1.10791668e-01, 1.62612826e-01,
     1.79647163e-01],
   [ 3.03392112e-01, 2.48117104e-01, 1.26948729e-01, 2.88151056e-01,
     2.77163714e-01],
   [ 6.32594764e-01, 4.17607099e-01, 5.23283184e-01, 4.86099005e-01,
     5.23843229e-01]],

  [[ 2.90505707e-01, 1.77402183e-01, 1.64466098e-01, 2.43928775e-01,
     5.39671779e-01],
   [ 2.49322653e-01, 4.03141916e-01, 2.86474437e-01, 3.76355916e-01,
     4.16038841e-01],
   [ 2.28272095e-01, 2.15863332e-01, 3.34944814e-01, 1.73987955e-01,
     2.74718046e-01],
   [-1.97974905e-01,-1.88254550e-01,-5.52343726e-02,-3.19072455e-02,
    -6.97821975e-02],
   [-1.15034230e-01,-2.63701528e-01,-1.81689426e-01,-6.16602711e-02,
    -6.91087916e-02]],

  [[-5.59423506e-01,-2.96375632e-01,-8.05313215e-02,-2.59511858e-01,
    -3.44231993e-01],
   [-6.60873175e-01,-2.74332702e-01,-1.50280952e-01,-1.38632357e-01,
    -4.93602097e-01],
   [-9.41003025e-01,-7.06633151e-01,-5.87778211e-01,-6.22951686e-01,
    -6.79814219e-01],
   [-6.56367064e-01,-7.19301999e-01,-7.13444591e-01,-5.52591562e-01,
    -5.57857394e-01],
   [-4.29171354e-01,-4.44728792e-01,-4.30521697e-01,-3.36340785e-01,
    -1.52730644e-01]]],


 [[[-2.30389595e-01,-3.09428751e-01,-2.37938836e-01,-1.90558687e-01,
     5.52161131e-03],
   [-2.47762859e-01,-3.23485613e-01,-2.98606366e-01,-2.37158626e-01,
    -1.93554074e-01],
   [-2.29304269e-01,-1.04025170e-01,-2.13958010e-01,-1.99336708e-01,
    -2.10738704e-01],
   [-7.72158429e-02,-5.07621430e-02,-3.85799222e-02,-2.12456316e-01,
    -1.97852507e-01],
   [-2.26025388e-01,-1.34805247e-01,-1.39729261e-01,-1.75899446e-01,
    -2.67362803e-01]],

  [[ 2.68597752e-02,-1.67509466e-02,-3.65171209e-02,-1.06519304e-01,
    -4.13486324e-02],
   [ 1.07070491e-01,-4.75011617e-02,-1.33895025e-01,-5.17316870e-02,
    -1.15677573e-01],
   [ 4.51820791e-02,-2.47520953e-02, 8.12820867e-02, 1.07357306e-02,
    -7.90894777e-02],
   [ 5.29935956e-02, 6.77544102e-02, 4.10659425e-02, 7.96880666e-03,
    -3.33802924e-02],
   [ 1.94396265e-02, 3.30732018e-02, 2.46453309e-03,-6.32424951e-02,
    -2.07361281e-01]],

  [[ 4.21525389e-01, 3.79051387e-01, 3.62361878e-01, 3.44253272e-01,
     4.42197859e-01],
   [ 3.52386802e-01, 3.32057387e-01, 3.47059965e-01, 2.68879771e-01,
     3.53722274e-01],
   [ 1.93047971e-01, 9.07891542e-02, 1.40134469e-01, 1.65842012e-01,
     2.28480965e-01],
   [ 3.38457562e-02, 5.54459281e-02, 8.98423865e-02, 6.06577136e-02,
    -4.78176138e-04],
   [ 1.43427197e-02,-6.54395148e-02, 1.23957833e-02,-8.80488530e-02,
     3.26327421e-02]],

  [[-3.57588291e-01,-3.67682427e-01,-2.90652871e-01,-3.07546437e-01,
    -4.42244679e-01],
   [-2.71700710e-01,-1.65586904e-01,-2.02490702e-01,-2.14687362e-01,
    -2.59995073e-01],
   [-3.49983782e-01,-2.20767274e-01,-1.20486937e-01,-2.63265073e-01,
    -2.13852987e-01],
   [-3.07252616e-01,-1.28433824e-01,-1.23082519e-01,-9.54785645e-02,
    -1.67447120e-01],
   [-3.45216870e-01,-1.64443031e-01,-1.81540042e-01,-7.48344064e-02,
    -1.06396072e-01]],

  [[ 1.89403526e-03,-5.98716214e-02,-1.37198359e-01,-1.32748127e-01,
    -4.62146699e-02],
   [ 4.76002395e-02,-3.24480794e-02, 2.92601902e-02,-2.65701953e-02,
    -2.01415867e-02],
   [ 1.14307076e-01,-3.12274264e-04, 8.11551213e-02, 5.20053096e-02,
     5.38812131e-02],
   [-6.84278384e-02, 7.48807862e-02, 1.39825925e-01, 1.31631330e-01,
    -7.80800581e-02],
   [-1.27198353e-01, 8.36405531e-02, 7.59417489e-02, 1.89235494e-01,
     8.80743340e-02]],

  [[-1.71287507e-01,-1.35389924e-01,-1.01145931e-01,-5.81251010e-02,
    -2.56128997e-01],
   [-1.96587324e-01,-1.34441555e-01,-1.74533948e-02,-5.61098270e-02,
    -1.92684889e-01],
   [-2.21033230e-01,-4.85599861e-02,-8.31725076e-02,-7.21252784e-02,
    -3.09386373e-01],
   [-9.02451053e-02, 1.18847471e-02, 6.12608828e-02,-6.30374402e-02,
    -7.26036653e-02],
   [-1.25354394e-01,-5.73965609e-02,-5.46367392e-02,-1.57822579e-01,
    -8.78830478e-02]]],


 [[[ 5.07907420e-02, 8.67009386e-02, 1.11644082e-01, 9.47024897e-02,
     3.35272439e-02],
   [ 6.66603521e-02, 1.84612200e-01, 1.76680312e-01, 8.62834677e-02,
     1.80122428e-04],
   [ 1.73782203e-02, 1.13676324e-01, 2.77801216e-01, 7.27083832e-02,
     8.03183950e-03],
   [-1.67352095e-01,-6.47824109e-02, 1.11074507e-01, 5.95756294e-03,
    -2.11957440e-01],
   [-4.20200080e-01,-2.09568962e-01,-1.67714238e-01,-1.16133206e-01,
    -4.13324296e-01]],

  [[ 7.13798590e-03,-5.27948178e-02, 3.62172499e-02,-2.65957750e-02,
     9.92074236e-02],
   [-1.50418162e-01,-2.22364768e-01,-1.55114427e-01, 3.18771135e-03,
     1.10248491e-01],
   [-1.93322942e-01,-2.77198195e-01,-1.00606143e-01, 7.28919059e-02,
     1.97746113e-01],
   [-1.56031311e-01,-9.44633484e-02, 1.34311840e-02, 2.70882368e-01,
     2.69213825e-01],
   [ 5.36120236e-02,-9.33795888e-03, 1.85622022e-01, 3.44295144e-01,
     3.51045787e-01]],

  [[ 6.90665245e-02,-1.66792214e-01,-4.02472876e-02,-1.10817872e-01,
     8.62210765e-02],
   [-1.16888873e-01,-3.19104135e-01,-3.20011497e-01,-1.68176770e-01,
     5.73916994e-02],
   [-3.05100977e-01,-5.45632482e-01,-4.19776022e-01,-2.01759934e-01,
     1.28829971e-01],
   [-7.77971447e-02,-3.51792455e-01,-2.16894761e-01, 3.11638284e-02,
     2.61287659e-01],
   [ 3.57396752e-01, 1.56119078e-01, 1.57874614e-01, 4.77723122e-01,
     8.04697931e-01]],

  [[-3.89168739e-01,-2.85493493e-01,-1.84867963e-01,-2.40475267e-01,
    -3.34129333e-01],
   [-2.76330173e-01,-1.84732497e-01,-3.96991558e-02,-2.86163203e-02,
    -2.78336227e-01],
   [-2.21443251e-01, 1.19428762e-04,-4.78483960e-02,-5.84698729e-02,
    -2.48568580e-01],
   [-5.94779626e-02, 1.59670383e-01,-9.10467654e-03,-1.02233991e-01,
    -3.23153526e-01],
   [-5.99028945e-01,-2.73210377e-01,-3.57928902e-01,-5.08075714e-01,
    -8.02933812e-01]],

  [[-2.00060327e-02,-3.89580280e-02, 3.01263463e-02,-9.54694077e-02,
    -1.13839135e-01],
   [-2.43013520e-02,-2.26255879e-02,-1.43087376e-02,-6.13286011e-02,
    -2.05370724e-01],
   [-1.07513145e-01,-8.21630880e-02, 3.25743295e-02, 7.68181011e-02,
    -1.75928593e-01],
   [-2.10494950e-01,-1.36992723e-01, 2.50091739e-02, 9.85203683e-03,
    -7.31624439e-02],
   [-3.40072453e-01,-1.84210852e-01,-1.94621518e-01, 9.68536548e-03,
    -2.46163800e-01]],

  [[ 8.77791420e-02, 5.81740476e-02, 4.89240624e-02, 2.02818319e-01,
     1.24316558e-01],
   [ 6.87639713e-02,-6.77541923e-03,-1.92735754e-02, 6.98276833e-02,
     1.05443895e-01],
   [-7.08069950e-02, 3.96923069e-03,-6.25742450e-02, 1.79015857e-04,
     1.00443773e-01],
   [ 1.31860569e-01, 1.54780760e-01, 3.27723533e-01, 4.11747217e-01,
     4.75038320e-01],
   [ 2.56664515e-01, 3.20768833e-01, 4.48876619e-01, 4.02301461e-01,
     5.05835950e-01]]],


 [[[-2.32166693e-01,-1.71801552e-01,-1.31438091e-01,-1.81540921e-01,
    -1.84416994e-01],
   [-1.81726307e-01,-1.06001139e-01,-5.79197481e-02, 3.45061347e-02,
    -2.35818308e-02],
   [-3.11698858e-02, 8.39201435e-02, 8.52743834e-02, 2.27955859e-02,
    -2.40953248e-02],
   [-9.06169266e-02, 5.58538176e-02, 1.02892987e-01, 5.98979928e-02,
     7.37580238e-03],
   [-2.03306898e-02, 3.37709114e-02,-4.04067077e-02, 1.34841735e-02,
    -1.12746149e-01]],

  [[-6.73452467e-02,-1.50811806e-01,-4.96587791e-02,-1.87298924e-01,
    -9.92522016e-02],
   [-6.09345101e-02, 1.47824483e-02,-3.38282399e-02,-2.82719675e-02,
    -9.98631865e-02],
   [ 3.10251266e-02, 1.64295286e-01, 1.20218374e-01, 1.79127127e-01,
     9.07879472e-02],
   [ 2.05611750e-01, 2.45670930e-01, 2.81629831e-01, 1.66849181e-01,
     6.64376915e-02],
   [ 2.99578428e-01, 2.88382053e-01, 4.11179751e-01, 1.87036410e-01,
     5.22836372e-02]],

  [[ 1.56776577e-01, 9.71043035e-02,-4.45938110e-02,-2.35894369e-03,
     1.18083082e-01],
   [ 7.57805854e-02, 1.08290482e-02, 9.56413150e-02,-2.09734719e-02,
     9.90064740e-02],
   [ 7.60053173e-02,-9.14511532e-02, 6.69409633e-02, 8.73325020e-03,
     1.17857613e-01],
   [ 5.97787201e-02, 6.05756184e-03, 8.28982517e-02, 9.16919112e-02,
     1.09410822e-01],
   [ 1.48121774e-01, 1.42264396e-01, 2.08460197e-01, 1.20744064e-01,
     1.69062138e-01]],

  [[-3.24225754e-01,-2.03272507e-01,-1.41572371e-01,-1.12162888e-01,
    -1.78520843e-01],
   [-3.41296047e-01,-1.43828541e-01,-2.05024004e-01,-8.63022059e-02,
    -2.04376310e-01],
   [-3.63133460e-01,-3.43492538e-01,-3.04566532e-01,-4.10156190e-01,
    -3.92980397e-01],
   [-4.52705771e-01,-2.67343551e-01,-3.40960950e-01,-3.67124081e-01,
    -3.76464069e-01],
   [-5.08229315e-01,-4.75540161e-01,-3.97807717e-01,-3.68335903e-01,
    -5.38100779e-01]],

  [[-1.37347847e-01,-2.40263209e-01,-1.76227033e-01,-1.06784374e-01,
    -1.56393364e-01],
   [-2.01029629e-01,-1.22532427e-01,-1.04647942e-01,-1.11823320e-01,
    -6.65652081e-02],
   [-1.71982765e-01,-2.62097567e-02,-1.32091358e-01,-9.92838144e-02,
    -1.24564402e-01],
   [-1.11067906e-01,-1.73304342e-02, 2.77106985e-02,-7.96195716e-02,
    -6.63773865e-02],
   [-2.27792606e-01,-2.94740088e-02,-2.23027673e-02,-4.98821288e-02,
    -1.88589171e-01]],

  [[ 2.52462268e-01, 2.39490464e-01, 2.23566830e-01, 1.45305306e-01,
     2.23689988e-01],
   [-4.03535776e-02, 8.10212046e-02, 7.72054568e-02, 4.84066941e-02,
     7.64538581e-03],
   [-9.29215401e-02,-4.10510711e-02,-7.97388032e-02,-2.17678010e-01,
    -1.42299354e-01],
   [ 1.26981661e-01, 1.26602605e-01, 1.05162635e-01, 1.15873357e-02,
    -1.43107131e-01],
   [ 2.33569980e-01, 2.99614757e-01, 9.10297707e-02, 1.16750978e-01,
    -9.70903859e-02]]],


 [[[ 1.15607657e-01, 3.15969825e-01, 5.44261277e-01, 6.19921088e-01,
     6.54277980e-01],
   [ 8.77979863e-03, 1.34566352e-01, 3.58792841e-01, 3.99963051e-01,
     5.90343535e-01],
   [-1.50201127e-01, 8.32929388e-02, 3.06414753e-01, 4.88289982e-01,
     4.76195961e-01],
   [-1.33148625e-01, 1.52445063e-01, 2.42282167e-01, 4.29694355e-01,
     3.75001073e-01],
   [-2.75925606e-01,-1.27958685e-01, 5.25707863e-02, 1.61898926e-01,
     1.88291579e-01]],

  [[-2.32891273e-02, 4.74560708e-02, 1.84611306e-01, 1.00386128e-01,
     1.95058346e-01],
   [-1.88969016e-01,-1.17669888e-01,-1.26024887e-01,-1.24661811e-02,
     4.18234989e-02],
   [-1.63149744e-01,-1.38576642e-01, 3.71358581e-02,-6.87520355e-02,
     3.91719583e-03],
   [-1.87503919e-01,-9.78650246e-03, 7.98485950e-02,-1.33885816e-02,
     1.70412421e-01],
   [-1.85272604e-01, 2.79858317e-02,-2.63041537e-02,-4.90893843e-03,
     1.16802588e-01]],

  [[ 8.33939314e-02, 1.29146012e-03,-1.10030703e-01,-1.04120784e-01,
     2.18026824e-02],
   [-3.16004157e-02, 1.01573188e-02,-1.29528001e-01,-7.31178075e-02,
    -5.90803940e-03],
   [ 1.12494677e-01,-1.05505601e-01,-7.18544349e-02,-2.44802043e-01,
    -5.15193604e-02],
   [ 1.87596321e-01,-3.82271782e-02,-1.02181122e-01,-1.64872944e-01,
    -1.37580678e-01],
   [ 4.04136479e-01, 1.41971707e-01, 1.20755091e-01, 8.92836377e-02,
     1.02475844e-01]],

  [[-4.95321274e-01,-3.66650254e-01,-3.13249081e-01,-1.98090583e-01,
    -2.22207129e-01],
   [-3.92528504e-01,-1.05589032e-01,-9.05349925e-02, 7.70897418e-02,
    -7.69844186e-03],
   [-3.83440435e-01,-2.14837134e-01,-2.63996422e-03, 1.40457049e-01,
    -9.25987493e-03],
   [-3.62680107e-01,-2.24297613e-01,-1.58846518e-03, 4.14976291e-02,
     2.00383253e-02],
   [-5.92471123e-01,-3.40001136e-01,-3.39799494e-01,-2.22873300e-01,
    -2.96465039e-01]],

  [[-2.55478561e-01, 8.49049687e-02, 1.76344842e-01, 3.39678019e-01,
     3.43425214e-01],
   [-2.63071924e-01, 2.70518977e-02, 1.09015390e-01, 2.61183590e-01,
     1.81676507e-01],
   [-2.85653025e-01,-2.25764196e-02, 1.44492492e-01, 2.87761807e-01,
     2.74365157e-01],
   [-2.26522401e-01,-1.02012366e-01, 1.67607874e-01, 4.05683994e-01,
     3.31438512e-01],
   [-4.24764574e-01,-1.27923965e-01, 1.23297498e-01, 2.70038873e-01,
     2.98469096e-01]],

  [[-2.49852151e-01,-2.26076782e-01,-1.60711914e-01, 4.39091660e-02,
    -7.62146572e-03],
   [-1.30183935e-01,-1.46823660e-01,-2.76836175e-02, 3.51996459e-02,
     8.88643637e-02],
   [-1.47524998e-01,-1.82681322e-01, 5.56514552e-03, 4.99200337e-02,
    -1.88168529e-02],
   [-6.40892312e-02,-8.15527886e-02, 5.67982756e-02, 8.48858282e-02,
     1.95375293e-01],
   [-1.51796609e-01,-1.98348865e-01,-1.51597172e-01,-1.23215519e-01,
    -1.67800903e-01]]],


 [[[-2.47456342e-01, 1.45017891e-03,-9.94693954e-03,-9.82580855e-02,
    -1.25060529e-02],
   [ 1.26898475e-02, 6.92816824e-02, 7.31991008e-02, 2.20664874e-01,
     6.08507767e-02],
   [ 2.24034339e-01, 2.33664691e-01, 2.72855163e-01, 2.46386796e-01,
     1.68043971e-01],
   [ 1.31738916e-01, 2.57348835e-01, 2.91692168e-01, 2.59650320e-01,
     2.07293153e-01],
   [ 2.52407156e-02, 1.57914445e-01, 2.18684137e-01, 1.73708320e-01,
     4.05536257e-02]],

  [[ 1.22626700e-01,-1.83326425e-03,-5.56650534e-02,-1.25829726e-01,
    -2.41376851e-02],
   [ 2.26652607e-01,-2.52068695e-03, 3.42897363e-02,-4.20649722e-02,
    -1.23967476e-01],
   [ 4.34865266e-01, 3.26340407e-01, 1.66116774e-01,-1.10698808e-02,
    -1.45853702e-02],
   [ 4.87774342e-01, 4.75347728e-01, 2.89329380e-01, 1.61879554e-01,
     1.07075490e-01],
   [ 5.69503069e-01, 6.31772220e-01, 4.66181785e-01, 3.71433556e-01,
     2.35176161e-01]],

  [[ 2.99638212e-01, 5.80059327e-02, 3.36907730e-02,-5.01298569e-02,
     1.23427706e-02],
   [ 2.76750505e-01, 1.27303213e-01, 5.67160640e-03, 2.70914310e-03,
     2.01681908e-02],
   [ 3.20608526e-01, 1.25564516e-01,-8.03457275e-02,-1.32229209e-01,
     2.02746149e-02],
   [ 3.17417979e-01, 1.03524454e-01, 3.87117937e-02,-6.01490550e-02,
    -1.79186258e-02],
   [ 6.02207184e-01, 3.41941953e-01, 1.08583644e-01, 1.02472186e-01,
     2.94441283e-01]],

  [[-1.52243644e-01,-1.18719302e-02,-1.44542111e-02, 1.14917889e-01,
     8.83179754e-02],
   [-1.50878906e-01,-2.85906764e-03, 1.24593548e-01, 1.77578852e-01,
     1.57800913e-01],
   [-3.25325042e-01,-3.15207392e-02, 3.08291018e-02, 4.04570810e-02,
    -2.28205621e-02],
   [-2.83769846e-01,-7.04176771e-03, 3.23675796e-02, 1.59154877e-01,
    -8.55169967e-02],
   [-5.68966746e-01,-2.27204844e-01,-1.23930380e-01,-8.84320736e-02,
    -1.40291080e-01]],

  [[-9.98054892e-02,-1.46827966e-01,-1.06954880e-01,-1.32602021e-01,
    -2.27225274e-01],
   [-1.33275196e-01,-2.02311292e-01,-1.71574920e-01,-1.43386573e-01,
    -2.55841255e-01],
   [-2.82640249e-01,-2.18842790e-01,-2.05748737e-01,-9.86403972e-02,
    -2.59308696e-01],
   [-3.50104481e-01,-2.04867050e-01,-1.42838284e-01,-2.18318745e-01,
    -3.51022840e-01],
   [-4.96671915e-01,-1.81378782e-01,-1.57941237e-01,-3.77900988e-01,
    -5.00502825e-01]],

  [[-8.97905156e-02,-4.26641144e-02,-4.71705757e-02,-8.85169208e-02,
     7.77833397e-04],
   [-1.47603676e-01,-5.37068434e-02,-1.57701552e-01,-8.56262669e-02,
    -1.38861537e-01],
   [-1.92749128e-01,-1.34129733e-01,-6.91121817e-02,-9.78290290e-02,
    -1.86387479e-01],
   [ 8.51906650e-03, 1.00656249e-01, 1.24002956e-02,-1.80722997e-02,
     4.24978174e-02],
   [ 1.99407727e-01, 1.75285652e-01, 1.57769293e-01, 1.65036470e-01,
     1.11684524e-01]]],


 [[[-3.29108685e-01,-2.17421025e-01,-2.72013903e-01,-2.97227979e-01,
    -5.96021153e-02],
   [-7.73029774e-02, 4.31799050e-03,-7.40949735e-02,-1.32532775e-01,
    -2.05064327e-01],
   [ 1.32442400e-01, 1.86591685e-01, 2.17862889e-01, 8.23628753e-02,
     4.36754748e-02],
   [ 2.53509879e-01, 3.88158321e-01, 4.18168992e-01, 3.63670379e-01,
     1.57418206e-01],
   [ 3.93734217e-01, 4.99625951e-01, 4.87422049e-01, 3.33410501e-01,
     2.24559277e-01]],

  [[ 2.93222010e-01, 2.10626841e-01, 1.18840061e-01,-1.56323984e-02,
     7.96313211e-02],
   [ 2.10452229e-01, 5.24736941e-02,-1.17540881e-01,-2.35155120e-01,
    -2.78562039e-01],
   [ 2.89834082e-01, 7.41694942e-02, 2.17030812e-02,-1.82710230e-01,
    -1.43428534e-01],
   [ 2.68379986e-01, 7.77034387e-02, 3.95073183e-03,-1.02303037e-02,
    -5.08358553e-02],
   [ 3.37776989e-01, 2.69368768e-01, 2.89005022e-02, 1.28803164e-01,
     1.00867644e-01]],

  [[ 2.74499506e-01, 4.24141176e-02, 3.50967748e-03, 1.83589980e-02,
    -8.20532739e-02],
   [ 1.59795806e-01, 2.35787556e-02, 2.96645984e-02,-7.04492852e-02,
    -2.21450046e-01],
   [ 2.78274447e-01,-6.39945716e-02,-5.22848181e-02,-6.14587665e-02,
    -2.48398092e-02],
   [ 5.39927661e-01, 2.41004333e-01, 1.28351435e-01, 1.19807109e-01,
     2.40965441e-01],
   [ 8.68005633e-01, 6.25591099e-01, 4.96319234e-01, 5.15159786e-01,
     6.98019505e-01]],

  [[-1.02846697e-01, 3.17715630e-02,-4.11676941e-03,-1.33614138e-01,
    -1.27155244e-01],
   [ 6.58992827e-02, 1.96104586e-01, 2.08222151e-01, 1.74600378e-01,
     3.86103876e-02],
   [ 1.42078556e-03, 2.00227186e-01, 2.77066469e-01, 2.30632916e-01,
     1.99852377e-01],
   [-9.75189954e-02, 1.61855340e-01, 1.24267548e-01, 1.38962314e-01,
     1.50599465e-01],
   [-2.72518694e-01,-1.28156155e-01,-8.88510942e-02,-1.66824162e-01,
    -3.08003187e-01]],

  [[-8.09501410e-02,-2.10339084e-01,-2.47364774e-01,-2.41030037e-01,
    -3.85573864e-01],
   [ 1.59470588e-02, 4.44845930e-02,-2.99369125e-03,-1.44245580e-01,
    -2.45789617e-01],
   [ 3.01198691e-01, 2.56339997e-01, 1.57811090e-01, 1.90312877e-01,
     4.17803861e-02],
   [ 3.44720691e-01, 3.73342693e-01, 3.70183468e-01, 1.63039282e-01,
     5.53976558e-02],
   [ 2.43913621e-01, 3.61894161e-01, 3.31045151e-01, 1.95738912e-01,
     6.44940212e-02]],

  [[-4.04962122e-01,-4.54502285e-01,-4.92980659e-01,-5.63139439e-01,
    -6.04277551e-01],
   [-2.59881109e-01,-3.43657076e-01,-2.98907071e-01,-3.02191079e-01,
    -3.94125134e-01],
   [-1.73501849e-01,-2.49487087e-01,-4.48910475e-01,-4.10351366e-01,
    -2.91069776e-01],
   [-3.27835381e-02,-6.06268831e-02,-1.82644829e-01,-3.03071350e-01,
    -9.58666354e-02],
   [-1.05431825e-01,-1.88281909e-01,-2.13904530e-01,-2.42046341e-01,
    -5.61736785e-02]]],


 [[[ 2.59685004e-03,-7.75880925e-03,-1.11839019e-01,-1.89180702e-01,
    -4.19686101e-02],
   [ 1.86909623e-02, 4.23838235e-02,-1.53133735e-01,-2.05759302e-01,
    -5.24881221e-02],
   [ 3.73460114e-01, 2.82544166e-01, 1.58787951e-01, 1.12460285e-01,
     4.83472794e-02],
   [ 4.10302967e-01, 4.63151842e-01, 3.67549479e-01, 3.66264790e-01,
     1.81396157e-01],
   [ 3.71302098e-01, 3.23650539e-01, 2.12950543e-01, 2.16692954e-01,
    -1.29509106e-01]],

  [[ 3.90695393e-01, 2.00015038e-01, 2.60048121e-01, 2.74207681e-01,
     3.89176935e-01],
   [ 2.78476696e-03,-4.03563827e-02, 5.53514883e-02,-6.38602208e-03,
     1.82650596e-01],
   [ 6.45964872e-04,-3.05417292e-02, 4.43506278e-02, 5.59136085e-02,
     5.36965989e-02],
   [-1.34334369e-02,-2.07260214e-02,-4.91077192e-02,-8.62949118e-02,
     8.85142537e-04],
   [-1.50892660e-01,-2.08975330e-01,-7.25734755e-02,-1.70764744e-01,
    -1.79749712e-01]],

  [[ 3.11814874e-01, 4.07986283e-01, 4.65274066e-01, 4.35213268e-01,
     6.05377197e-01],
   [ 2.43063331e-01, 1.76960304e-01, 2.24864483e-01, 4.06792790e-01,
     5.03827989e-01],
   [ 1.60875004e-02, 3.57459299e-02,-8.42194818e-03, 1.55925959e-01,
     1.67740613e-01],
   [-1.34088904e-01,-2.19440058e-01,-1.11016557e-01,-9.28344503e-02,
     5.40272519e-02],
   [-1.37278333e-01,-2.63441473e-01,-2.24540025e-01,-9.15726274e-02,
     7.30996057e-02]],

  [[-4.67667937e-01,-4.98422593e-01,-6.24849617e-01,-6.19016051e-01,
    -7.62624025e-01],
   [ 5.42905666e-02, 1.43581778e-01,-4.57962938e-02,-4.19690199e-02,
    -1.18086427e-01],
   [ 1.38499662e-01, 3.22687715e-01, 2.09414050e-01, 1.64857894e-01,
    -6.87898993e-02],
   [ 6.87786192e-02, 3.13412368e-01, 2.41042435e-01, 2.48747706e-01,
    -3.00314426e-02],
   [-1.25509381e-01, 9.22643393e-02, 1.68456510e-02,-1.21036485e-01,
    -2.04337984e-01]],

  [[ 2.60204058e-02,-1.45368055e-01,-7.03848153e-02,-1.74738094e-01,
    -1.87833965e-01],
   [-1.66169584e-01,-1.93128183e-01,-2.72642374e-01,-2.25967616e-01,
    -2.81044871e-01],
   [-3.24965455e-02, 3.28423381e-02,-1.20599577e-02, 2.55362783e-02,
    -6.21198006e-02],
   [ 4.00461890e-02, 1.78527310e-01, 2.72144437e-01, 1.23810038e-01,
     4.21817563e-02],
   [ 3.59316962e-03, 9.73967984e-02, 1.59304395e-01, 1.02850743e-01,
    -4.97839600e-02]],

  [[-5.37444234e-01,-3.85573715e-01,-3.52159441e-01,-2.04153270e-01,
    -4.73894894e-01],
   [-2.11608648e-01, 1.25917569e-02, 6.38668537e-02, 1.33395586e-02,
    -2.44997531e-01],
   [-1.62911981e-01,-3.57944295e-02, 1.89269017e-02,-1.28126308e-01,
    -3.36221337e-01],
   [-2.45572627e-01,-1.09885834e-01,-2.94842795e-02,-7.64979720e-02,
    -1.92027554e-01],
   [-2.85606265e-01,-2.19180539e-01,-3.22192550e-01,-2.37494141e-01,
    -3.58764321e-01]]],


 [[[-6.26870453e-01,-1.29682153e-01, 1.71413526e-01,-1.32854506e-01,
    -6.49901032e-01],
   [-5.95507145e-01, 3.59556265e-02, 4.95182097e-01, 8.48879367e-02,
    -4.48612601e-01],
   [-5.75975060e-01, 1.69408798e-01, 6.47963583e-01, 3.44880134e-01,
    -3.72550100e-01],
   [-4.77992654e-01, 2.63655663e-01, 5.50826311e-01, 3.67605418e-01,
    -2.73327142e-01],
   [-2.74661094e-01, 8.87054950e-02, 3.57395560e-01, 3.21723789e-01,
    -2.93413222e-01]],

  [[-7.57692039e-01,-4.34571952e-01, 2.04385743e-01, 4.82272536e-01,
     2.44093105e-01],
   [-8.82865131e-01,-4.46076155e-01, 5.20143807e-01, 7.56472826e-01,
     2.40381464e-01],
   [-8.07555020e-01,-2.30840907e-01, 5.88047206e-01, 8.38531017e-01,
     2.33738065e-01],
   [-5.95644355e-01,-3.39662135e-02, 5.65480828e-01, 7.76720047e-01,
     3.42909038e-01],
   [-2.37272099e-01, 5.74340224e-02, 5.67164361e-01, 5.46060383e-01,
     2.77011186e-01]],

  [[-8.17563713e-01,-5.92169285e-01,-9.90935485e-04, 2.98713028e-01,
     2.85633028e-01],
   [-8.68878841e-01,-7.88340151e-01,-1.82964280e-01, 3.49040747e-01,
     1.14000127e-01],
   [-7.48020351e-01,-5.86153686e-01,-9.02856886e-02, 2.51049608e-01,
     1.17343657e-01],
   [-4.15428787e-01,-3.20937365e-01,-8.38828236e-02, 2.31290191e-01,
     2.62705833e-01],
   [-1.92471221e-01,-8.30728654e-03, 2.00182050e-01, 2.13429153e-01,
     3.06166619e-01]],

  [[ 4.79591675e-02,-1.76626295e-02,-2.29005784e-01,-1.40996754e-01,
    -2.27739334e-01],
   [ 2.53206789e-01, 1.01210974e-01,-2.78347760e-01,-3.34551722e-01,
    -2.20894828e-01],
   [ 4.80544597e-01, 4.81248125e-02,-3.98577511e-01,-5.95542014e-01,
    -2.96796262e-01],
   [ 4.35604662e-01, 1.93148538e-01,-2.72348344e-01,-4.76138324e-01,
    -1.34070352e-01],
   [ 4.13512707e-01, 1.55133501e-01,-2.18776688e-01,-3.75741988e-01,
    -8.15841407e-02]],

  [[-6.79629147e-01,-7.74896860e-01,-3.01299095e-01, 3.40918779e-01,
     3.05206507e-01],
   [-5.19792140e-01,-7.01500237e-01,-3.92121971e-02, 6.88796580e-01,
     6.79781020e-01],
   [-5.92682242e-01,-7.28136718e-01, 7.55021945e-02, 6.65325165e-01,
     6.67592168e-01],
   [-4.70524877e-01,-4.81056869e-01, 9.17019248e-02, 5.96299291e-01,
     5.41469932e-01],
   [-5.29202461e-01,-3.42510521e-01, 1.31220013e-01, 5.90765059e-01,
     4.52841759e-01]],

  [[-5.68843246e-01,-4.28511202e-01,-1.66466236e-01,-7.25471303e-02,
    -9.96375680e-02],
   [-3.10775369e-01,-2.52693117e-01,-7.08197951e-02,-5.60089163e-02,
    -1.92744210e-01],
   [-8.91556144e-02, 9.38966945e-02, 9.80106462e-03,-1.94985181e-01,
    -1.37988910e-01],
   [ 1.79194853e-01, 3.63618284e-01, 1.06301241e-01,-1.10652983e-01,
    -6.99886912e-03],
   [ 2.19027638e-01, 3.43756765e-01, 5.04239649e-02,-9.93194208e-02,
    -1.07028715e-01]]]]