[[ 6.67920113e-02, 2.27135955e-03,-7.60446489e-02, 1.14099935e-01,
  -1.39392942e-01,-5.68467975e-02, 6.24782257e-02,-5.51001392e-02,
  -1.05923623e-01,-1.61326155e-01,-4.01826911e-02,-1.82969704e-01,
  -5.03020659e-02, 6.90164939e-02,-1.23082381e-03,-1.12822302e-01,
   2.64161658e-02, 4.95443568e-02,-1.03085823e-01,-1.56920087e-02,
  -1.27532616e-01, 1.01325549e-01,-5.31127788e-02,-1.52209044e-01,
  -1.64110094e-01, 3.01524601e-03, 5.28553203e-02,-1.61923133e-02,
   2.77581751e-01, 5.35513014e-02,-3.62593867e-02, 6.35386035e-02,
  -8.23351592e-02,-3.89720909e-02, 7.00636730e-02,-1.89699605e-02,
   2.39160601e-02, 1.47160480e-03, 7.59932920e-02,-5.73040619e-02,
  -1.12272333e-02, 2.72878017e-02, 1.69349443e-02, 6.27134815e-02,
  -8.45170096e-02,-3.89639027e-02, 1.47276118e-01,-2.15296328e-01,
   7.40427673e-02,-8.00298676e-02, 1.87825896e-02, 5.75941242e-03,
   9.29685608e-02,-7.75505900e-02, 5.05676568e-02, 5.60759008e-02,
  -1.40956687e-02, 1.79885194e-01,-8.08549300e-02, 6.34997291e-03,
  -8.89486074e-02, 2.03054324e-01,-6.58005700e-02,-4.89819944e-02,
  -2.85248458e-02,-1.46836802e-01,-5.31495363e-02, 3.53039950e-02,
  -6.46493509e-02, 4.49733362e-02,-8.49706866e-03, 6.49581328e-02,
  -5.95063679e-02, 6.54461682e-02, 2.43131090e-02, 8.90875757e-02,
  -5.43415062e-02,-1.04017824e-01, 1.30842790e-01,-1.65811643e-01,
  -2.74899099e-02, 5.20083643e-02, 1.71455916e-03, 8.96121636e-02,
  -1.03717007e-01, 1.31988049e-01,-3.47866230e-02,-1.58559661e-02,
  -3.83386686e-02,-1.10783964e-01,-5.54221310e-02, 5.68934754e-02,
   3.32281343e-03,-1.72451675e-01,-1.02557682e-01,-5.47928475e-02,
  -9.87083018e-02,-9.87161547e-02, 6.53229132e-02, 1.10771924e-01,
  -1.90874897e-02,-1.51866943e-01, 1.26403153e-01, 7.07142875e-02,
  -1.33532748e-01,-1.05265893e-01, 5.95070887e-03, 3.64459492e-02,
  -4.39433306e-02, 9.28532407e-02,-9.87901315e-02,-2.74282228e-02,
   3.84900570e-02, 1.37488157e-01,-1.82731021e-02,-1.20491460e-01,
   1.66809574e-01,-1.59662873e-01, 3.47085483e-02, 1.48636594e-01],
 [-5.82377017e-02, 7.12317452e-02, 1.45766661e-01,-5.89306653e-02,
  -5.89351095e-02,-3.67208235e-02, 9.49512124e-02, 3.21208723e-02,
  -1.30734548e-01, 5.15889712e-02, 6.45016655e-02,-9.45204794e-02,
  -9.62217078e-02,-1.03300750e-01, 3.38947363e-02, 2.55279373e-02,
   1.25808269e-01, 3.14646424e-03,-5.75259775e-02, 1.49174869e-01,
   3.78649235e-02, 2.99171712e-02, 1.39784031e-02,-2.75277416e-03,
  -5.76521568e-02, 1.11800708e-01,-5.79121970e-02,-3.77920307e-02,
   9.42849442e-02,-9.34945792e-02,-8.03299695e-02, 3.73977423e-02,
   1.53951183e-01,-8.41002911e-02,-1.21916598e-02, 1.73330645e-03,
   1.18425749e-01,-1.01562977e-01,-6.09679148e-02, 1.03886150e-01,
  -8.01859200e-02, 6.86727092e-02, 9.11098495e-02,-9.27194282e-02,
  -3.21221054e-02, 2.76871212e-02,-3.13029587e-02, 8.18182901e-02,
  -6.84172735e-02,-6.86520860e-02, 1.01542510e-01, 1.18552160e-03,
  -5.30865090e-03, 1.43074125e-01,-9.08956081e-02,-3.20128165e-02,
   1.29433647e-01, 7.27292895e-02,-1.91961732e-02,-1.55600533e-02,
   5.30496314e-02,-7.14700073e-02,-2.90006828e-02, 2.88264491e-02,
  -1.66336745e-02,-4.24306504e-02,-9.91311972e-04,-2.16868427e-02,
   6.32534400e-02, 5.74466884e-02,-1.15192339e-01,-4.99648564e-02,
   4.07595374e-02,-7.41929095e-03,-1.28546646e-02, 8.20575431e-02,
   8.14558472e-03,-9.32953209e-02, 1.88275114e-01,-1.22707888e-01,
  -4.89380164e-03,-2.06111427e-02,-2.19071731e-02, 2.06922479e-02,
  -3.36961932e-02, 1.55351296e-01, 3.16316523e-02, 6.89425617e-02,
  -1.35290191e-01,-1.01424091e-01, 4.27204035e-02,-6.68083280e-02,
   6.20544851e-02,-6.02402142e-04,-1.71989694e-01,-1.47051020e-02,
  -1.01386383e-01, 6.35897815e-02,-3.54814716e-02, 2.86730230e-02,
  -1.69799868e-02,-3.15365419e-02, 1.24019608e-01, 5.84406853e-02,
   8.39011744e-02,-3.11790146e-02, 1.99297499e-02, 2.08159499e-02,
   3.84718068e-02, 1.93011276e-02, 4.49842289e-02, 7.22425655e-02,
   4.90321629e-02,-4.15371880e-02,-8.05810764e-02,-9.00274366e-02,
   5.29147089e-02,-9.25490782e-02,-4.98779118e-02,-4.84450161e-02],
 [-3.49058583e-02,-5.78364581e-02, 5.90807311e-02,-3.58352959e-02,
  -5.97477593e-02,-8.13636854e-02, 6.10906631e-02,-3.86040588e-03,
  -1.58720776e-01,-1.11331142e-01, 1.36492223e-01,-1.00698441e-01,
   7.62042031e-02,-5.51660433e-02,-2.57476536e-03,-5.18080890e-02,
   1.75002706e-03, 9.88052040e-02, 9.31282640e-02, 4.76869158e-02,
   6.70935735e-02, 9.35189500e-02,-1.41087055e-01,-7.10226744e-02,
  -4.44925912e-02, 5.02870381e-02,-7.48481229e-02, 8.06361437e-03,
   6.79586306e-02,-1.16125464e-01, 2.33497005e-02, 9.38266069e-02,
  -2.40308493e-02,-1.21894501e-01,-9.95930582e-02,-3.66564617e-02,
   2.34666634e-02,-4.55893427e-02,-4.80548590e-02, 1.49459288e-01,
  -1.38272926e-01, 1.41267017e-01,-5.65855466e-02, 6.01008423e-02,
  -7.59612322e-02,-5.38575165e-02, 3.61167900e-02, 8.95995274e-02,
  -3.76764536e-02, 8.87341201e-02,-8.99627134e-02,-5.77654578e-02,
  -1.38793252e-02, 1.80952966e-01, 1.54263511e-01, 8.57600793e-02,
   5.43531366e-02, 3.09241433e-02,-9.28105190e-02,-1.74518034e-01,
   2.14573201e-02,-1.22518145e-01,-1.05691589e-01,-5.90776913e-02,
   2.10691944e-01,-4.01014499e-02,-7.89171383e-02,-1.08564094e-01,
   5.64495251e-02,-1.11730598e-01,-1.98153425e-02,-3.68460864e-02,
   1.45655172e-02, 2.14117572e-01, 4.19603474e-02, 1.42347470e-01,
  -5.58472984e-02, 9.02955979e-02, 1.61601707e-01,-6.24037050e-02,
   7.84787238e-02,-1.48347452e-01,-9.65273306e-02,-5.14515042e-02,
   8.55700821e-02, 8.37848112e-02, 2.51612831e-02, 9.51315835e-02,
  -1.42185748e-01, 4.23951959e-03, 6.35519847e-02, 5.28150378e-03,
   3.39309461e-02,-2.55209431e-02,-1.97691292e-01,-4.67284173e-02,
  -1.08998962e-01, 1.62520148e-02, 1.76859245e-01, 7.27316597e-03,
  -2.20386237e-02, 8.55559018e-03, 7.65268803e-02, 9.83856060e-03,
   6.85587302e-02,-2.26294575e-03, 1.43709645e-01,-2.90358756e-02,
   2.63694171e-02, 8.51462111e-02,-1.08090334e-01,-8.63697305e-02,
   5.89023270e-02,-1.60376094e-02,-1.84949860e-01,-8.01822916e-02,
  -1.05538368e-01,-4.20938432e-02,-7.45442286e-02, 6.39442652e-02],
 [ 3.65520753e-02,-1.32531911e-01, 1.23170882e-01, 8.93659815e-02,
  -1.23963133e-01, 2.80046165e-02, 7.89478719e-02, 3.21695022e-02,
  -1.14892637e-02,-8.98560211e-02,-4.65161502e-02,-4.96876314e-02,
  -1.16766676e-01, 1.04886472e-01,-2.00684443e-02,-2.11218707e-02,
  -8.09428543e-02,-6.90526217e-02,-8.63102376e-02, 7.00990260e-02,
   6.09323345e-02, 1.05000973e-01,-9.13551226e-02,-1.96230132e-02,
   3.01358163e-01,-1.63753852e-01,-2.30612438e-02, 5.73782213e-02,
   1.20946079e-01,-4.06923983e-03,-2.37748623e-01,-1.46681825e-02,
  -1.10469647e-01,-1.56640530e-01, 1.09634288e-01, 3.62848006e-02,
  -9.66386423e-02, 2.15797126e-02, 3.74772400e-02, 6.55959398e-02,
   3.63853388e-02,-9.89990979e-02, 1.39015913e-01, 3.50137651e-02,
   7.58945420e-02,-1.81179736e-02,-5.75676598e-02,-1.26241237e-01,
   2.00351197e-02,-1.61856562e-01,-7.36236349e-02,-1.33551685e-02,
   3.96783091e-02, 4.04252410e-02,-2.86203083e-02,-2.04592675e-01,
  -4.60435003e-02,-3.15446453e-03,-1.01948418e-01,-6.99152201e-02,
  -1.45813357e-02, 3.56812566e-03, 2.16009282e-02, 1.25419840e-01,
   1.14151705e-02,-1.46702006e-01, 3.38477716e-02, 3.07850130e-02,
   4.64559384e-02,-1.30728438e-01,-7.67209232e-02,-3.02486718e-02,
   1.68640986e-01,-5.84982000e-02,-1.51719838e-01, 1.87754467e-01,
  -9.64311063e-02,-6.21232204e-02, 1.27839297e-01,-1.29838334e-02,
  -1.20835667e-02, 1.23657621e-01,-3.94172734e-03, 8.25283080e-02,
  -1.82893369e-02,-8.72939900e-02, 5.02411239e-02, 1.10045813e-01,
   1.28153384e-01, 2.78956071e-02, 3.19327489e-02, 1.23888344e-01,
  -1.38797723e-02,-6.03898875e-02,-7.57435635e-02, 1.18996026e-02,
  -1.67550147e-02,-9.72424522e-02, 1.36605203e-01, 6.12800680e-02,
  -1.05193138e-01, 7.30386935e-03, 1.63608149e-01,-4.90121776e-04,
  -4.13638018e-02, 9.90024731e-02, 1.46968395e-03, 1.17372423e-02,
  -2.36263778e-02, 2.35203616e-02,-1.85952485e-02,-5.11678047e-02,
   8.17225687e-03, 1.08706784e-02,-2.66912878e-02, 3.52707952e-02,
   1.22937806e-01,-1.33830920e-01, 9.23484638e-02,-6.74683154e-02],
 [ 3.87833901e-02,-4.57825512e-02,-1.03296123e-01, 1.75934374e-01,
   1.06130555e-01,-1.46458119e-01, 6.08531423e-02, 5.79344966e-02,
  -1.02963500e-01,-1.48671716e-01,-2.43914127e-03,-1.04543291e-01,
  -8.77280831e-02,-4.48604450e-02,-3.85367274e-02,-9.96256769e-02,
  -1.02396123e-03,-3.63553539e-02,-1.18502758e-01,-7.82312360e-03,
   8.10654163e-02, 1.10953204e-01, 3.49645130e-02, 3.54579948e-02,
  -8.02375674e-02,-1.12393975e-01,-4.49237525e-02,-9.28332210e-02,
   7.40104634e-03, 1.10776745e-01, 4.42442531e-03,-4.23926488e-02,
   3.97516042e-02,-1.51778460e-01, 1.38329759e-01, 2.12261733e-02,
   3.82647887e-02,-1.02425896e-01, 1.54245406e-01,-8.50321054e-02,
  -2.18547396e-02, 6.19680882e-02,-7.64673874e-02,-1.11569129e-01,
   5.53875640e-02, 3.35747525e-02, 7.12165907e-02,-1.98918834e-01,
  -8.11561719e-02,-1.00834608e-01, 6.08503409e-02, 7.24235624e-02,
   1.17868513e-01,-3.55711149e-04, 4.64032702e-02,-6.97122095e-03,
  -4.39543165e-02, 2.06997953e-02, 2.61226241e-02,-6.24460988e-02,
  -6.10975698e-02,-1.32095227e-02, 9.25019830e-02,-5.49979620e-02,
  -1.71400502e-01, 5.25516784e-03,-1.51517138e-01,-7.47507289e-02,
   2.28141043e-02, 6.09147958e-02, 1.21434800e-01, 4.48505804e-02,
   5.15201613e-02, 1.03845112e-01, 2.16629747e-02,-5.16733862e-02,
  -4.41861562e-02,-9.81734246e-02, 9.03063640e-02,-1.29365876e-01,
  -6.68168217e-02, 1.66878492e-01,-1.02967545e-02, 8.55470635e-03,
  -2.34885998e-02, 4.61134911e-02, 3.68618071e-02,-1.17353387e-01,
  -1.22796074e-01, 5.63556775e-02,-1.10202372e-01, 5.18473871e-02,
   1.14557825e-01,-1.80783510e-01,-8.86910334e-02, 1.16455428e-01,
   6.71604946e-02,-1.77715853e-01, 8.07147250e-02, 4.83045168e-02,
  -6.93859579e-03,-1.40552744e-01,-1.84478480e-02,-5.15396893e-02,
   6.92980886e-02, 4.57268506e-02,-2.10227240e-02, 5.15439697e-02,
  -1.13239519e-01, 9.46989357e-02,-4.18260992e-02,-2.61166841e-02,
  -6.61619604e-02, 3.49457934e-02, 1.33814096e-01,-2.74222740e-03,
   5.20862155e-02, 3.75313871e-02,-4.17968817e-02,-7.59904236e-02],
 [ 9.78585333e-02, 1.80996694e-02, 1.48414865e-01, 4.33652848e-02,
  -1.82397123e-02,-3.35170291e-02, 1.37879997e-01,-4.11739573e-02,
  -2.27483436e-01,-1.01852886e-01, 8.09506476e-02,-1.29500225e-01,
  -1.33337630e-02,-4.05465849e-02, 1.37403280e-01,-7.49560222e-02,
   1.07815661e-01,-5.48851267e-02,-7.69782364e-02, 9.62744057e-02,
  -7.29130283e-02,-1.37532100e-01,-1.63899228e-01, 6.40538931e-02,
   1.02624238e-01,-1.43248871e-01, 4.53612804e-02, 4.41214740e-02,
  -4.07575779e-02,-7.53549486e-02, 4.39045369e-04, 1.38344616e-01,
   1.92118362e-01,-1.34209812e-01, 6.92690611e-02, 2.79614683e-02,
   1.03465654e-01,-1.19012251e-01,-1.15718886e-01, 6.76572099e-02,
   3.20038907e-02, 6.07716255e-02, 1.18105374e-01,-5.31842234e-03,
   5.20223714e-02, 6.19061887e-02,-7.31495842e-02,-1.57451123e-01,
   1.61871672e-01,-7.95042738e-02,-3.65089476e-02,-7.67920017e-02,
   8.50281119e-02, 2.36245859e-02, 4.16930951e-02,-7.00801332e-03,
  -4.16284949e-02, 1.19233452e-01,-8.66757408e-02, 2.06954200e-02,
   2.03704904e-03,-7.70776300e-03, 1.09126950e-02, 7.61203095e-02,
  -1.96382731e-01,-2.63126314e-01, 4.67326529e-02, 9.68100280e-02,
   9.40527916e-02, 1.35117359e-02,-2.11724058e-01, 1.36693820e-01,
   1.21267736e-01, 8.97813141e-02,-8.12584534e-02, 9.78935957e-02,
  -1.20398566e-01,-1.61648884e-01, 1.57235563e-01,-1.72125965e-01,
   4.52247895e-02, 9.58064422e-02, 1.52737767e-01, 1.16766408e-01,
  -7.13125616e-02, 2.56204277e-01, 1.78799219e-02, 2.04676226e-01,
   1.35042748e-04, 2.49183904e-02,-9.27802771e-02,-6.15891553e-02,
   9.85307172e-02, 5.24866059e-02,-9.18285474e-02,-7.42037222e-02,
  -5.54795861e-02, 7.04726502e-02, 6.91693202e-02, 6.03086017e-02,
  -8.58341157e-02,-1.88921671e-02, 4.25192751e-02, 1.71521544e-01,
  -1.72027014e-02, 1.68624967e-02, 2.22172290e-01,-9.00046751e-02,
   1.19764775e-01,-2.63800919e-02, 1.45256910e-02,-1.19422875e-01,
   4.32868535e-03,-7.83218145e-02,-1.87316030e-01,-2.69332975e-01,
   1.94435567e-01,-1.75477579e-01, 3.80654633e-02, 5.69343306e-02],
 [-2.08589897e-01, 3.19155380e-02,-2.05477141e-03, 2.03367069e-01,
  -3.05469800e-02,-8.02881196e-02,-2.70916700e-01,-8.72525647e-02,
  -4.71043475e-02, 1.20948523e-01, 2.89891064e-01,-1.86884314e-01,
   2.14618310e-01,-2.57298172e-01,-1.52960896e-01,-4.17889319e-02,
  -3.82467583e-02, 1.42065525e-01,-2.14479342e-02, 1.02584213e-01,
  -9.60488692e-02,-9.50010717e-02, 5.62685691e-02,-2.62828711e-02,
  -2.36727640e-01,-8.76631960e-02, 3.47500034e-02, 1.22388989e-01,
  -2.25026429e-01,-2.29157194e-01, 1.54328093e-01,-5.70262745e-02,
  -3.03928537e-05,-2.29010254e-01,-6.00174479e-02,-6.39164001e-02,
  -9.42289829e-02,-1.44237041e-01, 1.19639307e-01, 2.17431054e-01,
  -1.05835512e-01, 9.61141586e-02, 2.74016499e-03, 1.17577035e-02,
   1.30559921e-01, 8.54352787e-02, 1.09109774e-01,-1.32933453e-01,
  -1.03603385e-01,-2.18445301e-01,-1.31108388e-01,-3.73001955e-02,
   2.28535086e-02, 1.97374612e-01,-1.05555683e-01, 1.01525232e-01,
   1.37262776e-01, 9.27171931e-02, 2.35874485e-02, 1.11529507e-01,
  -2.61228229e-03, 6.13223799e-02,-1.05931610e-01,-1.32346183e-01,
  -8.28816146e-02,-7.55072907e-02,-7.10043162e-02,-1.75347149e-01,
   5.17765656e-02, 2.33365864e-01, 9.15220939e-03, 2.15662286e-01,
  -9.74114984e-02,-7.92524219e-02,-1.41920447e-01, 1.09872602e-01,
  -5.69101684e-02, 7.09620910e-03, 4.54409495e-02,-7.69162318e-03,
   1.33949995e-01,-6.71907235e-03,-8.78201500e-02, 1.10311553e-01,
   1.29990742e-01, 8.19254890e-02,-3.21199857e-02,-3.84797864e-02,
   4.67388034e-02, 5.23346066e-02,-2.77134497e-02, 1.56102270e-01,
   6.72858879e-02, 2.29481831e-02,-2.77575143e-02, 2.51477271e-01,
  -4.31597419e-02, 2.75205344e-01,-8.51638615e-02,-1.62203491e-01,
   6.69370499e-03,-1.04840612e-02, 3.80968601e-02, 1.01405397e-01,
   1.97706565e-01, 1.36039928e-01, 1.53247872e-02, 5.92624955e-02,
   1.34867832e-01,-5.70503809e-02,-8.30587894e-02,-3.39929014e-03,
   3.19073796e-02, 8.69888291e-02,-1.71933115e-01,-2.01981574e-01,
   6.25717416e-02,-1.26754548e-02,-2.24838611e-02,-2.46924162e-02],
 [ 1.47299349e-01, 2.59141833e-01, 4.48977873e-02,-7.19647901e-03,
  -2.16092587e-01, 8.60458240e-02,-9.29032713e-02, 9.33409855e-02,
   6.79902360e-02, 8.84950012e-02, 1.25216646e-02, 9.67068598e-02,
  -9.36066806e-02, 5.00827748e-03, 1.14950843e-01, 2.25457415e-01,
  -1.49075940e-01, 5.38560040e-02,-1.21581316e-01, 1.48362100e-01,
  -1.13742165e-01, 5.45223467e-02, 2.44520441e-01, 2.56257597e-02,
   1.37492433e-01,-1.48079708e-01, 4.24854644e-02, 1.24555767e-01,
   8.54803175e-02,-1.30697206e-01,-1.98713109e-01,-2.07306892e-01,
  -1.75076336e-01,-1.35174006e-01, 7.61555582e-02,-9.76657569e-02,
  -1.31653935e-01, 7.16736317e-02,-6.23717494e-02, 3.11630182e-02,
  -3.77630964e-02,-6.97368011e-02,-3.48325409e-02, 7.13961106e-03,
  -1.22237694e-03, 5.21445610e-02,-1.06700175e-01,-3.60351987e-02,
  -9.78969485e-02,-1.31218791e-01, 6.45250529e-02,-1.73460275e-01,
   2.48428151e-01,-4.41730358e-02,-1.49242759e-01,-1.40319288e-01,
  -6.00165389e-02, 1.23705111e-01,-1.36801961e-03, 3.31453718e-02,
   1.26999775e-02,-1.72024265e-01, 1.68403968e-01, 5.72377257e-02,
   4.60029021e-02, 2.74031963e-02, 1.29594907e-01,-1.97268575e-01,
   1.63822174e-01, 5.20572700e-02, 1.18245274e-01,-2.05326527e-01,
   7.91033655e-02,-1.14792518e-01,-7.06677213e-02, 1.34731203e-01,
  -2.78746754e-01, 3.42591703e-02, 1.86804712e-01, 4.59915865e-03,
   1.37285128e-01, 1.32218182e-01, 2.82957703e-02,-3.58938351e-02,
  -5.77607118e-02,-9.42437351e-02, 6.53138906e-02,-1.54049331e-02,
   1.30125433e-01,-1.61461979e-01, 5.47165088e-02, 6.76060542e-02,
  -1.84998974e-01,-1.93573756e-03,-5.62682822e-02, 2.43681714e-01,
   1.15219608e-01,-8.18514675e-02, 7.77821094e-02,-4.71210890e-02,
  -1.66189879e-01, 6.28774837e-02, 1.16756387e-01,-2.96383590e-01,
   1.04003794e-01, 2.12523088e-01, 8.07286799e-02, 8.35698396e-02,
   3.05825211e-02,-2.47139204e-02,-2.00747028e-01, 2.11758599e-01,
   1.42400369e-01, 1.17232809e-02, 1.61092773e-01, 6.20910227e-02,
   5.28006814e-02, 1.51693076e-01, 8.86037424e-02,-3.72418836e-02],
 [ 1.17750518e-01, 1.00736395e-01,-1.67183310e-01, 1.26196161e-01,
  -2.43448749e-01, 4.45422456e-02, 1.18052669e-01,-1.06704673e-02,
  -8.38769376e-02, 1.07752681e-01,-2.13945676e-02,-2.01714505e-02,
  -1.50735483e-01, 4.62205075e-02, 1.52999431e-01, 1.28297746e-01,
   2.38303393e-02, 1.10679977e-01,-1.63543388e-01, 2.02366441e-01,
  -1.34861981e-02, 9.86443162e-02,-7.28843436e-02,-1.22813664e-01,
  -5.18726073e-02, 1.27128884e-01,-6.90943748e-03, 2.28682589e-02,
   2.18644425e-01,-5.29588833e-02,-1.23542450e-01,-3.88643444e-02,
  -3.37372422e-02,-1.69665869e-02, 1.26341268e-01, 5.60172722e-02,
   1.33616298e-01,-8.56399769e-04,-1.52790353e-01,-1.03960790e-01,
  -1.13198131e-01,-1.03865646e-01,-1.86306953e-01,-8.01298171e-02,
  -9.99334976e-02, 1.22512266e-01,-1.17610417e-01, 1.53113278e-02,
  -5.40896468e-02,-3.87304984e-02, 1.37221172e-01, 6.97381794e-02,
   2.35724270e-01, 1.04425689e-02,-5.51884584e-02,-2.91734301e-02,
   4.31980565e-02, 2.16927797e-01, 2.52559837e-02, 1.09401494e-01,
  -5.48213162e-02,-9.48485211e-02,-1.44990738e-02,-8.82085972e-03,
   3.88939045e-02, 1.24309674e-01, 7.99377188e-02,-1.27300307e-01,
   1.53115585e-01,-1.28412172e-02, 2.13308837e-02,-1.47090377e-02,
  -1.12642273e-01,-2.84288358e-02, 1.91438854e-01, 8.66811648e-02,
  -2.02061281e-01, 1.25631317e-01, 6.87686354e-02,-1.20996296e-01,
   6.82034865e-02,-3.29283550e-02, 8.80814567e-02,-6.48988783e-02,
  -1.24143045e-02, 6.32608160e-02,-7.40842596e-02,-1.13824330e-01,
  -1.68274805e-01,-9.68304798e-02,-1.03082426e-01,-1.18224651e-01,
   5.51388180e-03, 6.50254413e-02,-1.70283586e-01, 8.93870443e-02,
  -1.93050891e-01,-2.66307108e-02, 1.16604641e-01, 6.36738464e-02,
  -1.04742190e-02, 3.23938020e-02, 1.31580636e-01,-2.77844936e-01,
   2.14802623e-02, 3.58234756e-02,-1.39632579e-02, 9.93201137e-02,
   8.92153457e-02,-4.92773615e-02,-1.72192395e-01, 1.25369757e-01,
   1.35072306e-01, 2.33401880e-02, 1.19183265e-01,-6.67890301e-03,
   1.79869324e-01,-1.95322543e-01,-1.84088752e-01, 1.66679665e-01],
 [-2.72620004e-02,-9.72010847e-03, 1.15382252e-02, 6.29930347e-02,
  -1.44493029e-01,-1.99692287e-02, 2.44822130e-02, 3.27108763e-02,
  -1.07084483e-01, 3.39729339e-02, 6.68708012e-02, 1.01619914e-01,
  -6.16366491e-02,-2.00958494e-02,-1.14277564e-03,-6.28031120e-02,
   1.86151154e-02,-2.81132143e-02, 2.67962087e-02,-8.58685561e-03,
   7.69982189e-02, 1.14204884e-01,-4.70430590e-02,-1.49280075e-02,
   1.30825400e-01,-8.92943442e-02, 6.62065893e-02, 1.20566310e-02,
  -7.24015385e-02,-7.59288073e-02,-6.63613975e-02, 2.91693234e-03,
   5.95783331e-02, 2.27480158e-02,-5.42259542e-03, 1.05707325e-01,
  -5.26485452e-03,-4.81993780e-02,-5.12899011e-02, 8.71984437e-02,
   5.59773780e-02, 6.06620386e-02,-1.04874363e-02, 2.33591814e-02,
   2.59010904e-02, 8.21627155e-02, 1.01116985e-01, 5.68472082e-03,
   1.03079140e-01,-1.95104757e-03,-4.26919572e-02,-1.00804761e-01,
  -2.55588684e-02,-9.91204195e-03,-1.87461115e-02,-3.29162553e-02,
   4.97538596e-02, 1.86118223e-02,-4.34902497e-02,-8.60209838e-02,
  -3.62117216e-02,-1.41126364e-01, 7.78837204e-02, 1.17387146e-01,
   5.69342412e-02,-8.37884098e-02,-6.39620423e-02, 8.58978555e-02,
  -1.53414365e-02,-5.99731654e-02,-3.65378708e-02, 9.04545411e-02,
  -2.79844180e-02,-1.06890434e-02, 4.57594953e-02, 8.20487216e-02,
  -1.17749758e-02, 1.01829164e-01, 1.71464041e-01,-1.20594930e-02,
  -5.47253806e-03,-3.01695010e-03, 5.39187714e-02,-1.92881450e-02,
   2.35500094e-02, 5.00840433e-02, 1.14917848e-02, 1.05968669e-01,
  -2.68756654e-02,-5.96262924e-02,-6.23443685e-02,-8.11817199e-02,
  -5.05312756e-02, 3.05438191e-02,-2.08197515e-02,-6.97657764e-02,
  -3.67963351e-02, 8.87749419e-02, 6.18962869e-02, 3.48263653e-03,
  -1.03588201e-01,-4.02281322e-02, 1.03140466e-01,-8.80418066e-03,
  -5.60236387e-02, 1.09229632e-01, 1.24255633e-02, 7.14980140e-02,
   2.05859169e-02, 7.50160310e-03,-7.79114962e-02, 6.31588325e-02,
   1.44155011e-01, 2.58201398e-02,-4.12188172e-02,-1.58556402e-01,
   6.25530183e-02,-6.46953806e-02, 4.80948649e-02, 7.70038366e-02],
 [-1.05365768e-01,-7.84031749e-02,-2.27718684e-03, 3.63142602e-02,
  -2.06540059e-02, 6.04086556e-02,-1.12116979e-02, 2.11237416e-01,
  -4.57927436e-02,-2.30037868e-02, 4.42629866e-02,-1.90293938e-02,
   7.31194392e-02,-1.00838602e-01, 1.55366823e-01,-8.58215168e-02,
  -9.15398151e-02, 1.03497013e-01,-1.54143736e-01, 1.25174955e-01,
  -1.59768581e-01, 4.56071571e-02,-5.02000041e-02,-1.50215954e-01,
   1.38467222e-01, 3.30905579e-02,-2.67303716e-02, 1.87188268e-01,
   3.29266712e-02,-2.64567379e-02, 9.07816589e-02, 9.22307372e-02,
   1.26467729e-02,-8.88051838e-02,-1.07503605e-04, 9.13174078e-02,
  -2.09415369e-02,-4.75419033e-03,-3.34670581e-02, 8.97013247e-02,
   4.81298156e-02, 6.94588572e-02, 1.46768689e-01,-4.97419946e-02,
  -1.10855997e-02,-1.09270373e-02,-4.80513088e-02,-2.14095283e-02,
  -2.62424648e-02,-1.91384219e-02,-1.09504849e-01, 4.52585369e-02,
  -2.84380298e-02,-1.09514734e-02, 7.27378018e-03,-1.04587182e-01,
   2.71496214e-02,-3.99171934e-02,-4.66416404e-02,-2.23289505e-02,
  -1.35459408e-01,-3.99228372e-02, 3.15763988e-02, 4.54799607e-02,
  -8.09939876e-02,-1.21701017e-01,-2.46640872e-02, 4.44551893e-02,
  -4.97651771e-02, 3.52380984e-02, 1.95169058e-02,-3.47306617e-02,
  -4.24950533e-02, 3.71300243e-02, 2.22985595e-02, 1.26339853e-01,
   2.53573637e-02, 3.96697931e-02, 8.22763443e-02, 5.14019106e-04,
   5.50724491e-02, 1.11679323e-01, 1.20996922e-01,-8.67291093e-02,
   3.23438854e-03, 4.86055948e-02,-7.01508224e-02, 3.67962979e-02,
   4.48304452e-02, 2.26003747e-03,-6.88969046e-02, 7.78614171e-03,
  -2.45444104e-02, 7.18991682e-02,-2.10889857e-02,-8.02349597e-02,
  -1.01736322e-01, 8.72238353e-02, 9.80887488e-02,-4.22609933e-02,
  -2.18382701e-01, 7.17837662e-02, 1.45643532e-01, 1.67746991e-01,
  -1.16071463e-01, 6.81147873e-02,-9.47071537e-02,-6.82299882e-02,
  -1.41719813e-02, 1.30946264e-01,-7.30050867e-03, 4.75198403e-02,
   3.55767831e-02, 4.12097462e-02,-4.73221280e-02,-6.69700205e-02,
   1.19088478e-01,-9.50211585e-02, 1.13976619e-03, 1.39004499e-01],
 [-3.51153314e-02,-3.07859093e-01,-2.61066444e-02, 3.74318585e-02,
  -2.28400290e-01, 8.58095735e-02,-1.36161923e-01,-5.76371439e-02,
   1.53370500e-01,-4.45147753e-02, 2.87451863e-01,-7.12894574e-02,
   2.27912635e-01,-1.71471044e-01,-1.21216334e-01, 4.69845347e-02,
  -1.92821220e-01, 9.89203230e-02,-5.39018996e-02,-1.04617707e-01,
  -2.13863701e-01, 7.46708810e-02, 1.76068068e-01,-1.32209525e-01,
  -8.44093710e-02, 5.03216172e-03, 1.69789400e-02, 1.40170768e-01,
   7.20565468e-02,-8.66737962e-02, 1.08838882e-04,-3.55676338e-02,
  -7.40273446e-02,-1.92766458e-01, 7.64875114e-02,-8.51117373e-02,
  -4.85850386e-02, 1.46494061e-01, 6.81763217e-02, 2.16893360e-01,
  -1.51569068e-01, 9.10054445e-02, 1.92842241e-02, 3.06134701e-01,
   1.84169319e-02, 5.79191595e-02,-8.50849599e-02,-1.25004947e-02,
  -1.50001356e-02,-1.15526974e-01,-1.86948508e-01,-5.77169918e-02,
   9.77472439e-02, 3.72872837e-02,-2.60953009e-01,-2.03905359e-01,
  -1.64067909e-01,-1.17284186e-01, 2.85890829e-02, 1.45625994e-01,
  -1.19719021e-01, 4.80456501e-02, 1.21307217e-01,-2.21001301e-02,
  -1.60410821e-01, 6.30933233e-03, 1.67907059e-01, 2.32258458e-02,
   7.65155181e-02, 2.69424766e-02,-3.47617306e-02,-1.41020911e-02,
   1.14387579e-01, 9.42862108e-02, 7.45762140e-02, 7.74004608e-02,
  -8.74359757e-02,-3.02176755e-02, 2.38994166e-01, 1.98627189e-01,
   7.33858198e-02, 5.76855876e-02,-3.58216316e-02, 8.74552131e-02,
   6.36333674e-02,-1.82965726e-01, 5.01958141e-03, 9.42476317e-02,
  -9.05871857e-03, 2.64304549e-01, 2.34683622e-02, 2.28868634e-01,
  -1.04810260e-01,-8.96262750e-02, 2.31503606e-01, 1.04557060e-01,
  -2.81595578e-03, 4.53240722e-02, 1.01908445e-01, 4.14168760e-02,
  -1.12165093e-01,-1.03334211e-01, 9.64673311e-02,-4.32067476e-02,
   1.92202583e-01, 1.98092043e-01, 1.01018799e-02,-2.63016615e-02,
   1.03214011e-01, 1.09529749e-01, 3.72179225e-02,-2.99781617e-02,
  -5.29320762e-02, 1.03255294e-01, 6.86299801e-02,-5.70381209e-02,
  -8.62132758e-02, 7.23613203e-02,-1.52951628e-01,-1.10590078e-01],
 [ 1.61184430e-01,-1.57408908e-01,-6.14430234e-02, 1.53058469e-01,
  -1.72089309e-01, 4.16436456e-02,-4.57677171e-02, 1.56141287e-02,
  -1.09700389e-01,-9.05617476e-02, 6.78624883e-02,-3.94047089e-02,
  -1.20833375e-01,-5.03227189e-02,-8.88364539e-02, 2.61569768e-01,
  -6.04307605e-03,-2.34074816e-02,-7.46615380e-02, 1.29001409e-01,
  -1.68364309e-02, 9.17980298e-02, 6.57786876e-02, 1.10853650e-01,
   2.40564138e-01,-1.02449171e-01, 1.98101982e-01, 4.86883484e-02,
   1.49476334e-01, 7.00766370e-02,-2.29716584e-01, 4.39711809e-02,
   1.38362572e-01,-1.27851307e-01, 1.23972706e-01,-1.09838121e-01,
  -6.48363084e-02,-3.80564779e-02,-7.27512240e-02, 3.17488685e-02,
   2.44241673e-02,-8.53759795e-02, 6.25317320e-02, 1.34285782e-02,
   7.67796114e-02,-2.88634631e-03,-1.26987398e-01,-1.59713581e-01,
  -1.39725227e-02,-6.79443851e-02, 5.90857305e-02, 1.29324012e-02,
   1.46352753e-01,-6.71572387e-02,-2.24959366e-02,-2.63576776e-01,
  -1.41073674e-01,-1.35679997e-03, 7.32360233e-04, 4.78033051e-02,
   1.05164140e-01,-1.95728973e-01,-2.55543254e-02,-1.05004206e-01,
  -4.90610860e-03, 2.62942575e-02,-1.70901325e-02,-2.15004981e-02,
   7.36143366e-02,-1.37769729e-02, 5.34806885e-02,-4.26263995e-02,
   1.71164215e-01, 1.35778710e-02,-1.46096468e-01, 1.33031458e-01,
  -1.63805187e-01,-5.69284745e-02, 1.37488067e-01,-8.77244491e-03,
  -9.13634673e-02, 1.59887925e-01,-7.84500167e-02, 4.76709791e-02,
   1.28088206e-01, 5.21644577e-02, 1.85184568e-01,-5.51880859e-02,
   6.34692907e-02, 5.60023300e-02, 1.83370321e-06, 1.66875124e-02,
  -5.46431430e-02,-4.42132838e-02, 4.92226041e-04, 1.98060870e-02,
   1.83343783e-01,-2.37774342e-01, 1.38864771e-01, 2.52853185e-01,
  -5.89668117e-02,-3.32597271e-02, 1.45227775e-01,-9.48861092e-02,
   1.58777401e-01, 4.12633978e-02, 1.13935292e-01,-1.93137050e-01,
   3.06528360e-02,-9.52431783e-02,-1.26569077e-01,-3.83875631e-02,
  -3.64219509e-02,-5.80075290e-03, 3.68435914e-03, 8.28514546e-02,
   7.89623931e-02,-4.53195870e-02,-7.26216733e-02, 8.46186653e-02],
 [ 1.55868998e-03, 1.42569318e-01, 5.44441491e-03, 2.77991220e-02,
  -5.19027524e-02,-1.35668695e-01,-1.23908743e-01,-8.35546628e-02,
  -1.74512550e-01, 1.46920308e-01, 1.74243689e-01,-1.57195494e-01,
   1.61762133e-01,-1.31849617e-01,-1.90490440e-01, 2.65293717e-02,
   2.21981525e-01, 1.38843343e-01,-1.41514838e-01, 2.22915381e-01,
  -4.52463105e-02,-3.69351283e-02, 1.53708473e-01,-3.98158133e-02,
  -2.30281696e-01, 3.67469341e-02, 1.01107396e-01,-8.96967724e-02,
   7.19675049e-02,-1.38333142e-01,-1.09296560e-01,-4.40375619e-02,
   1.48722112e-01,-2.98168600e-01,-2.30347775e-02,-1.31637499e-01,
   1.50568247e-01,-8.84763971e-02, 1.49638355e-01, 1.19816281e-01,
  -1.47418290e-01, 1.33671358e-01,-7.07063675e-02,-3.94229479e-02,
   7.50762597e-02,-2.38349624e-02,-1.14789359e-01, 5.79796396e-02,
  -9.70646963e-02,-1.34235799e-01, 9.64383706e-02, 2.40572661e-01,
   1.93586260e-01, 1.18406564e-01,-7.72716403e-02, 3.76867652e-02,
   1.18776210e-01, 1.43583044e-01,-3.60413976e-02, 7.35813603e-02,
   1.19109645e-01,-8.62232596e-02,-2.76768375e-02,-2.18262047e-01,
   1.96438888e-03, 5.50745912e-02,-3.79471853e-02,-2.65899211e-01,
   1.17438100e-01, 5.53232320e-02, 1.41236812e-01, 1.81946680e-01,
   3.39728817e-02, 4.59217951e-02,-1.85805961e-01, 1.47091433e-01,
  -5.36410585e-02, 2.11362168e-02, 1.56225517e-01,-3.99235375e-02,
   1.14277616e-01, 1.75215319e-01, 7.77577832e-02,-3.25251296e-02,
   1.85836300e-01, 2.82095253e-01,-4.53873761e-02,-8.77028927e-02,
  -1.60555989e-01,-4.55683470e-02,-6.60156459e-02,-5.95079549e-02,
   9.27333236e-02,-3.66661027e-02,-3.00617099e-01, 1.62397087e-01,
   8.90359357e-02, 9.31556299e-02,-1.54167265e-01,-9.10016373e-02,
   1.68385729e-03, 2.55184378e-02, 2.64786500e-02,-6.64183572e-02,
   2.93577224e-01, 1.31691054e-01, 1.51821896e-01, 8.63876119e-02,
  -1.29650980e-02, 6.80777803e-02,-1.29144683e-01,-1.39409795e-01,
   4.34507467e-02, 1.15275763e-01,-1.24083862e-01,-1.39469609e-01,
  -3.61529738e-02, 7.19544142e-02,-1.10345140e-01, 3.72050703e-02],
 [-2.24079922e-01,-3.03197298e-02, 1.25838116e-01, 1.64599225e-01,
   9.50673148e-02,-7.74891628e-03,-7.93602467e-02, 1.26577675e-01,
  -3.28584090e-02,-7.12926015e-02, 1.82852924e-01, 3.93046141e-02,
  -2.08804272e-02,-3.52093577e-02, 2.33939663e-02,-9.24725980e-02,
  -1.33078754e-01, 6.21574745e-03,-1.47937670e-01,-2.18213946e-02,
  -5.19330278e-02,-1.93363149e-02,-1.23092517e-01, 3.53685729e-02,
   1.20875634e-01, 1.81039982e-02,-1.38333172e-01, 1.35978803e-01,
  -1.14101224e-01,-1.87223032e-01, 1.72081217e-01, 7.33871758e-02,
  -7.26770377e-03,-1.86489709e-02,-2.57041287e-02,-4.35330570e-02,
  -4.95749898e-02,-1.42721236e-01, 1.35019813e-02, 1.11902118e-01,
   5.10741472e-02,-1.01704868e-02, 9.28054526e-02,-1.57671183e-01,
   1.47133321e-01, 6.71066642e-02, 9.41251889e-02,-7.19546974e-02,
   1.81147121e-02, 1.08362831e-01, 3.60710882e-02,-1.33509040e-01,
  -1.21819697e-01, 2.34875157e-02, 7.34762028e-02,-2.06687953e-03,
   9.88136604e-02, 7.68331513e-02, 1.05360551e-02,-7.84799084e-02,
   1.49863930e-02,-2.18611471e-02,-8.57006535e-02, 1.90271407e-01,
  -1.87159583e-01,-6.48494959e-02,-1.33549972e-02, 3.14178914e-02,
   1.12456970e-01, 6.87495694e-02,-1.09373927e-01, 4.75459956e-02,
   4.54742610e-02,-2.63872668e-02, 9.90491733e-02, 1.25843331e-01,
   1.16997503e-01, 1.26271471e-01,-1.61476824e-02,-4.77450825e-02,
  -2.19889567e-03,-1.03917800e-01, 2.76869927e-02,-9.25239772e-02,
  -1.26740083e-01, 1.01305768e-02, 7.77749624e-03, 2.25836739e-01,
  -1.74952857e-02, 5.20652868e-02,-1.21080011e-01, 1.27119914e-01,
   3.88677940e-02, 5.95660508e-02,-4.00559865e-02,-9.29230154e-02,
  -5.08307256e-02, 1.17955633e-01, 7.36980513e-02,-1.59207821e-01,
  -6.36607483e-02, 4.53004390e-02,-8.97584483e-03, 1.55849904e-01,
  -2.64219195e-01, 9.23059285e-02,-6.13917150e-02, 1.32694349e-01,
   2.78606825e-02, 9.61014107e-02,-7.42834583e-02, 4.24647816e-02,
  -5.68004139e-02,-4.10959274e-02, 1.67739298e-02,-1.25952780e-01,
   9.82020348e-02,-1.71283424e-01, 1.23670921e-01, 1.12657607e-01],
 [-2.93667950e-02, 1.04060680e-01, 1.81065395e-01,-7.14337395e-04,
  -5.48845455e-02,-4.00571525e-02, 3.97813623e-04,-2.02509062e-03,
  -2.69939661e-01,-1.94809549e-02, 5.54155000e-02,-4.78372537e-02,
  -8.65021162e-03,-1.44008890e-01, 6.59696236e-02, 2.33470974e-03,
  -4.98496890e-02, 1.35600269e-01, 1.31786019e-02, 4.75316681e-02,
   4.66834679e-02,-5.47364308e-03,-1.76449828e-02,-3.46555039e-02,
  -2.33060978e-02, 6.72776178e-02, 9.17828605e-02, 3.52661386e-02,
   4.16706167e-02,-1.24737985e-01, 2.75514089e-02, 1.25078112e-01,
   1.42297223e-01,-1.73290923e-01, 7.68468976e-02, 7.96531588e-02,
  -7.21320957e-02,-6.17745705e-02, 1.22637600e-01, 2.17229929e-02,
  -5.77782653e-03, 4.67290990e-02, 3.66678624e-03,-5.70956692e-02,
  -7.81877115e-02, 1.23834703e-03, 6.57966137e-02, 2.32623201e-02,
   1.04815818e-01,-1.39841363e-01,-5.29100858e-02,-9.48995072e-03,
   1.55581474e-01, 4.87028286e-02,-3.03726345e-02,-8.29590335e-02,
   1.66322514e-01, 9.85754654e-02,-8.46163929e-02,-9.38105732e-02,
   1.14716113e-01,-1.15444161e-01,-1.47344336e-01, 3.88458334e-02,
   7.47189447e-02,-1.36306465e-01,-4.48807664e-02,-6.64962903e-02,
   5.60779450e-03, 5.43226860e-02, 2.08398420e-02, 6.41981065e-02,
  -1.14684299e-01, 9.07339230e-02,-1.18193783e-01, 1.09505072e-01,
   1.66199710e-02,-8.62024054e-02, 8.91854763e-02,-7.14683756e-02,
   1.68608367e-01, 1.02487849e-02, 6.44078776e-02,-8.36796872e-03,
   7.56615326e-02, 2.10045457e-01, 7.93028697e-02, 2.77357325e-02,
  -1.20748207e-01, 4.09711488e-02,-8.05905014e-02,-1.00499034e-01,
   3.97849455e-02, 9.96661037e-02,-9.80337784e-02,-4.76019308e-02,
  -5.81771359e-02, 9.52709466e-02,-1.60924923e-02,-6.11464307e-02,
  -9.21590179e-02,-6.81456476e-02,-1.10199321e-02, 9.31067467e-02,
   1.90453306e-02, 6.80565089e-02,-5.03546149e-02, 2.43013129e-02,
   3.82417552e-02,-7.92810619e-02, 4.73051928e-02,-9.80346650e-02,
   2.03522265e-01,-2.00300179e-02,-1.73139811e-01,-1.81730330e-01,
  -6.47941455e-02, 1.37648592e-02,-9.54748392e-02, 5.18313237e-02],
 [ 3.52147557e-02,-4.00369801e-02,-1.25312749e-02, 1.70712441e-01,
  -3.75476070e-02,-8.78811702e-02, 1.64927274e-01, 7.92521015e-02,
  -7.37660080e-02,-1.57098472e-02, 9.28735211e-02,-8.59453678e-02,
  -1.67195797e-02, 1.08670453e-02,-1.37408832e-02,-6.26806468e-02,
   9.11059976e-02, 8.82800072e-02,-1.11995839e-01, 1.75038770e-01,
   4.65956889e-02,-1.26406178e-01,-2.23245457e-01,-3.10708843e-02,
  -4.42625843e-02,-1.53685436e-01,-3.24659944e-02,-3.64575721e-02,
  -1.11978486e-01,-5.45012914e-02, 5.16509824e-02, 1.80206355e-02,
   1.45938233e-01,-1.11866690e-01, 3.14656608e-02,-5.32407835e-02,
   4.36783247e-02,-1.95286542e-01,-1.00531369e-01, 5.61631173e-02,
  -5.29171806e-03, 1.38246280e-03, 1.51952535e-01, 4.93028527e-03,
   3.28855924e-02,-9.78420489e-03, 8.36621746e-02,-1.93552673e-01,
   4.72376347e-02, 3.30307172e-03,-1.16014041e-01,-2.84919217e-02,
   9.56372544e-02, 1.36574386e-02, 4.40755449e-02,-3.40281427e-02,
  -3.73309366e-02, 1.40520036e-01,-2.99676675e-02,-5.58890142e-02,
  -7.76701868e-02, 3.53083983e-02,-9.43692960e-03, 1.42846899e-02,
  -2.48091727e-01,-1.62809506e-01, 8.82563833e-03, 1.11809149e-01,
   6.20137155e-02, 5.04569896e-02,-1.40157729e-01, 1.37879744e-01,
   5.96086867e-02,-2.10692249e-02,-1.06405072e-01, 1.12851843e-01,
  -2.47844402e-02,-1.21751688e-01, 1.67246103e-01,-8.91606659e-02,
   3.78783955e-03, 1.22440353e-01, 1.61036029e-01, 9.18011740e-02,
   6.64389729e-02, 1.45705119e-01, 7.02503100e-02, 2.18661249e-01,
  -8.41703713e-02, 9.92568880e-02,-9.59711522e-02, 9.60860588e-03,
   2.62508299e-02, 3.30332331e-02, 5.86795527e-03, 2.73262430e-02,
   2.88165268e-02, 3.44824651e-03, 8.66400972e-02, 1.50418624e-01,
  -1.10877112e-01,-1.68441478e-02,-2.45658495e-02, 1.15480706e-01,
  -5.97843304e-02, 8.22518393e-02, 1.95219845e-01, 1.25898896e-02,
  -7.80615350e-03, 4.65622321e-02,-2.98020951e-02, 1.54966386e-02,
   1.45149961e-01,-3.14242803e-02,-3.05502079e-02,-1.35431394e-01,
   9.63370427e-02,-1.19104736e-01, 2.36625914e-02, 1.91377729e-01],
 [ 7.06710899e-03,-1.34810001e-01, 1.74815744e-01, 3.88357183e-03,
   2.79210713e-02, 2.22502165e-02, 5.50397299e-02, 4.10391353e-02,
  -1.16593324e-01,-5.43514825e-02, 6.35907352e-02, 1.07426122e-01,
   8.43395516e-02, 9.05342214e-03, 1.07395023e-01, 5.18737249e-02,
  -1.13491133e-01, 7.10255653e-02,-2.15529278e-02,-2.69121560e-03,
   7.54596218e-02,-5.49344309e-02,-8.69421214e-02,-5.24742678e-02,
   2.37046555e-02,-1.17864780e-01,-3.85225154e-02,-1.57134794e-02,
  -2.17140503e-02,-2.27548145e-02,-1.49425879e-01, 4.08221483e-02,
   2.06844555e-03,-1.11441448e-01,-5.06409258e-02, 1.04263835e-01,
  -1.14467721e-02,-1.01245075e-01,-6.37908503e-02, 1.06359616e-01,
  -6.87075481e-02, 2.77682729e-02, 8.62714350e-02, 7.43663684e-02,
   6.73232079e-02, 8.44766274e-02,-3.13430093e-02, 5.56615330e-02,
   4.09220979e-02,-7.39257783e-02,-7.44913369e-02,-1.87195260e-02,
  -8.92976765e-03, 2.98374370e-02,-1.16846986e-01,-5.81041686e-02,
  -2.08342299e-02,-1.87852476e-02,-5.32081462e-02, 3.38816456e-02,
  -5.00003360e-02,-9.25701633e-02, 9.54098180e-02, 2.09856927e-02,
  -3.07603199e-02,-1.93553492e-01, 8.37298259e-02,-4.49122861e-02,
   6.01040293e-03,-8.38083848e-02,-6.68060109e-02,-7.25232288e-02,
  -6.15055412e-02, 1.04110606e-01, 1.68914925e-02, 2.33233511e-01,
  -1.40305817e-01,-1.34709641e-01, 1.29849792e-01,-9.40667242e-02,
   8.47229064e-02, 1.92706753e-02, 1.20739741e-02, 6.90435320e-02,
  -3.11578177e-02, 5.23690954e-02,-4.76632789e-02,-5.34478500e-02,
   4.57011908e-02,-5.17725013e-02, 1.07787810e-01, 3.41019221e-02,
   9.19699203e-03, 7.84396455e-02, 9.12241638e-02,-6.78841211e-03,
  -7.56180566e-03, 1.30709991e-01, 6.00624308e-02,-5.80361299e-02,
  -7.19863698e-02, 4.23830785e-02, 4.35495526e-02,-2.49916986e-02,
   3.22183035e-02, 1.18232295e-01, 6.33391291e-02,-9.42978356e-03,
   1.13328300e-01,-5.07639721e-02,-9.38901529e-02,-6.38642311e-02,
   4.88614738e-02,-5.77575974e-02, 7.42923394e-02,-1.22089468e-01,
   5.03847599e-02,-1.57481194e-01, 4.38776389e-02, 1.01042688e-01],
 [ 9.13609564e-02,-1.25398701e-02,-1.85635816e-02, 8.09043348e-02,
  -3.21975835e-02, 6.09898679e-02, 6.32635355e-02, 1.33377418e-01,
  -9.12409127e-02,-7.52441213e-02, 4.04454768e-02,-2.48665903e-02,
   4.67941128e-02,-5.87801002e-02, 1.16935037e-01,-3.11475955e-02,
  -5.40990494e-02, 5.34264669e-02,-1.05482288e-01, 1.00017399e-01,
  -1.13004759e-01, 1.15100443e-01,-1.83493122e-02, 1.96989439e-02,
   5.30902892e-02, 1.11139072e-02,-1.12756677e-01,-1.79935023e-02,
   1.30206719e-01,-1.11608900e-01,-7.90578872e-02,-9.12740827e-04,
  -5.05901314e-02,-1.01658262e-01,-4.69215913e-03,-3.31442580e-02,
   1.85577534e-02,-3.19329351e-02,-2.99859587e-02, 1.97974890e-02,
  -5.33788428e-02, 9.70750581e-03, 8.93078372e-02,-7.77298883e-02,
  -6.16659485e-02, 9.32542756e-02, 1.37193218e-01, 5.57182059e-02,
  -4.61328104e-02, 8.20890442e-02, 8.34033713e-02,-3.49301435e-02,
  -8.65275413e-02, 6.30992949e-02, 6.26789629e-02, 2.25800220e-02,
  -4.61801101e-04, 1.67848412e-02,-1.08465761e-01,-6.26552701e-02,
   6.98872879e-02, 6.32551461e-02,-7.16385022e-02, 7.56298751e-02,
   3.15813869e-02,-3.25115956e-02,-3.90510843e-03,-3.04256342e-02,
  -6.40021935e-02,-6.48589507e-02, 2.72051129e-03, 8.74995515e-02,
  -1.17780849e-01, 4.86878939e-02,-7.20978975e-02, 1.52061775e-01,
  -4.27288096e-03, 1.97401606e-02, 1.47894457e-01, 1.17031232e-01,
   4.80346195e-02,-8.32850412e-02, 6.44732714e-02,-4.16155532e-02,
   6.15338534e-02, 8.75603184e-02,-1.03648990e-01,-4.86136600e-02,
  -9.19086561e-02, 5.79273291e-02,-8.94814283e-02,-3.12430365e-03,
  -8.58110338e-02, 1.09086700e-01,-1.06539857e-02, 5.84441908e-02,
  -1.72582716e-02,-1.57384723e-02,-9.13230423e-03, 6.84377104e-02,
  -9.11521316e-02,-5.45900315e-02, 2.55415719e-02, 4.39989567e-02,
   1.45568717e-02, 5.89183755e-02,-8.74786377e-02, 1.05466411e-01,
  -8.13112855e-02, 1.86151639e-02, 2.29132921e-02, 9.68588516e-02,
   1.02131374e-01, 1.14437558e-01,-6.35178983e-02, 7.28389574e-03,
  -6.78955689e-02, 2.18752101e-02, 1.31938318e-02, 1.13088541e-01],
 [-5.34582920e-02, 1.12418078e-01, 9.03164148e-02,-4.69703749e-02,
   4.24558781e-02, 6.02922738e-02,-4.88637015e-02, 8.63701403e-02,
  -1.46896645e-01,-5.21268211e-02, 3.65339369e-02, 8.80650580e-02,
   8.23446810e-02,-6.24815635e-02, 1.87970698e-01,-7.30285496e-02,
   1.39967939e-02, 4.91454359e-03,-2.07507238e-01, 1.15603462e-01,
  -2.14140117e-02,-2.36637797e-02, 1.00798994e-01,-1.05555216e-02,
   1.14197895e-01, 1.28051981e-01,-8.73641893e-02, 1.79754749e-01,
   4.25257273e-02,-1.41109854e-01, 2.48424690e-02, 4.23399508e-02,
   1.21460550e-01,-7.36287236e-02,-2.18872214e-03, 1.23811305e-01,
  -3.51308510e-02,-1.24288008e-01,-1.22507170e-01, 5.26413992e-02,
   1.47208711e-02, 5.16254716e-02, 2.15756297e-01,-8.70634429e-03,
  -1.19954459e-01, 4.14627641e-02,-4.49344330e-03, 7.59868771e-02,
  -1.02415867e-01,-2.95461845e-02,-5.63529283e-02, 8.37030560e-02,
   8.50259094e-04, 1.69931110e-02,-5.49001731e-02,-4.60816696e-02,
   1.12378426e-01, 8.52228105e-02, 5.58528975e-02, 9.42550786e-03,
   8.86166468e-02,-1.17500566e-01, 3.34341824e-02, 2.38743462e-02,
  -2.39464454e-02,-9.50641558e-02,-3.75229716e-02, 6.74892664e-02,
   6.00838028e-02,-2.65223868e-02,-1.66087463e-01, 4.77368310e-02,
   4.52060811e-02, 7.22647384e-02,-4.60324027e-02, 6.88907877e-02,
   1.01551346e-01, 1.03938907e-01, 1.58029646e-01, 2.62418259e-02,
   6.44446537e-02, 5.33925109e-02, 1.12065293e-01, 6.86196685e-02,
  -4.65041064e-02, 1.08976662e-01,-9.67544224e-03, 1.51316389e-01,
  -9.90361571e-02, 6.40563816e-02, 4.19261642e-02,-7.76226074e-02,
  -5.31470627e-02, 1.97383583e-01, 9.78626311e-03,-4.29104045e-02,
  -1.22405678e-01, 1.05804116e-01, 1.74724299e-03, 6.07604943e-02,
  -1.11576475e-01, 5.57099469e-02, 1.69021666e-01, 1.67400107e-01,
  -1.51201218e-01, 2.47210786e-02, 1.42872706e-01,-8.68862569e-02,
  -3.47772427e-02, 1.77055560e-02, 1.29867166e-01, 1.71541646e-01,
   8.53983387e-02,-8.76507111e-05,-1.73382550e-01,-1.67876199e-01,
   7.57104084e-02,-1.24873027e-01, 5.39072342e-02,-4.59042303e-02],
 [ 2.18806833e-01, 2.42705703e-01, 4.58841166e-03,-1.24005444e-01,
   9.99324545e-02,-3.80576141e-02, 1.32748693e-01, 2.44768094e-02,
  -3.96582112e-02,-1.71040833e-01,-1.58346556e-02, 1.28034726e-01,
   2.83031482e-02, 2.25497216e-01, 1.64409280e-01, 1.87096149e-02,
   1.40866153e-02,-9.20215324e-02,-1.89424008e-01, 3.08472738e-02,
   1.84614480e-01, 1.90081373e-01,-4.51847874e-02, 1.46628097e-01,
   2.01794982e-01,-4.47185561e-02, 3.41672748e-02,-5.12717664e-02,
   1.72669441e-01, 3.72211188e-02,-2.53327310e-01, 5.94511852e-02,
  -1.75742552e-01, 3.62333702e-03, 1.39442505e-02, 3.18140835e-01,
  -2.20118351e-02, 1.46846762e-02, 1.17866397e-01,-1.91302672e-02,
   6.36800602e-02,-1.54071301e-01, 1.79289822e-02,-7.34233409e-02,
  -7.28928074e-02,-1.47276789e-01, 8.75464752e-02, 4.44556139e-02,
  -4.05110158e-02,-1.17495246e-01, 2.02770859e-01,-1.33851273e-02,
   1.41867951e-01, 2.09546074e-01, 2.49280378e-01, 9.48380381e-02,
   2.26172477e-01, 1.18308447e-01,-9.82474461e-02,-2.71678686e-01,
   1.24763384e-01,-7.14116171e-02,-1.71043217e-01, 3.68628427e-02,
   1.53804317e-01,-8.22682902e-02,-5.25808297e-02,-1.65166095e-01,
  -8.74741375e-02,-1.34875506e-01, 3.83072868e-02,-7.91807920e-02,
   4.58022393e-02,-8.47098157e-02,-1.39445275e-01, 1.43001348e-01,
  -1.38901576e-01, 5.45969196e-02, 4.19425815e-02,-2.19797865e-01,
   1.18019052e-01,-2.94274762e-02, 7.46243913e-03, 4.57510985e-02,
  -2.45311052e-01, 9.54277962e-02,-3.46602127e-02,-1.51913419e-01,
   2.13274676e-02,-3.58228683e-01,-1.05924651e-01, 9.60941464e-02,
  -1.63887158e-01, 5.32286838e-02,-2.85150796e-01,-3.77922282e-02,
   5.31275459e-02,-1.44587681e-01, 6.67148158e-02,-5.96137010e-02,
   2.21638568e-02,-7.32713565e-02,-5.46436384e-02, 6.58330247e-02,
  -1.77685902e-01,-8.42723250e-02,-5.42650670e-02, 3.79515514e-02,
  -1.57523856e-01,-6.94852918e-02,-9.65126380e-02, 1.08620703e-01,
  -6.08162656e-02,-9.44308415e-02, 1.30507246e-01,-4.78844764e-03,
  -2.92138420e-02,-1.10048145e-01, 1.97339460e-01, 1.09530784e-01],
 [-1.00453332e-01, 2.80462261e-02, 1.00466564e-01, 1.36143506e-01,
  -1.51551396e-01, 1.06551357e-01, 1.31231919e-01, 2.39864796e-01,
  -1.47604961e-02, 9.68464836e-02,-3.94576136e-03, 1.50279775e-01,
  -1.15298584e-01,-2.59330887e-02, 2.03375921e-01,-1.30270407e-01,
  -1.15203746e-01,-2.68792100e-02,-5.35762869e-03,-2.76847780e-02,
  -9.36618820e-02, 1.04581237e-01,-1.91815123e-01,-1.40265524e-01,
   7.04506561e-02,-7.25308284e-02,-1.35212624e-02, 1.29006982e-01,
   1.10660322e-01,-1.11696109e-01, 4.45873253e-02, 5.60382307e-02,
  -3.50154028e-03, 1.08453289e-01,-7.90102854e-02,-3.66449393e-02,
  -4.09387350e-02,-7.52409697e-02,-8.36171210e-02, 6.43225983e-02,
   5.44446670e-02,-6.68748841e-02, 3.34852119e-03,-2.43476033e-02,
  -5.24594299e-02, 1.18586607e-01,-1.48961283e-02,-7.12206587e-02,
  -1.78508889e-02, 1.64770156e-01,-2.79852394e-02,-1.91179037e-01,
  -1.04583763e-01, 6.77519888e-02, 5.53251803e-02, 1.19155385e-02,
   8.68872181e-02, 7.08375201e-02,-2.48186290e-02,-1.42132314e-02,
  -9.36386734e-02, 3.56978248e-03, 9.69976783e-02, 2.70800829e-01,
  -1.38461679e-01,-1.47096097e-01, 9.56858695e-02, 1.05396189e-01,
   1.14963338e-01,-8.38801041e-02,-2.05750577e-02,-9.94595047e-03,
   6.26410022e-02,-3.20423245e-02, 9.25648212e-02, 1.56610221e-01,
  -6.44263625e-02, 1.62268221e-01,-8.03324655e-02,-1.40329793e-01,
   1.46938026e-01,-2.81483326e-02, 1.37273585e-02, 2.98405718e-02,
   3.21036838e-02,-3.75952311e-02,-1.75585542e-02, 2.01657668e-01,
   3.95652000e-03,-1.23703619e-02,-2.20671818e-02, 1.25659823e-01,
  -6.20601438e-02, 5.40346988e-02, 3.23282927e-02,-4.18171920e-02,
  -2.28207245e-01, 1.90791905e-01, 1.69035494e-01,-5.27262986e-02,
  -2.10442737e-01, 1.28545314e-01,-2.24578511e-02, 1.07615992e-01,
  -1.53091192e-01,-1.27701228e-02,-8.62740427e-02, 9.32674333e-02,
   1.87734682e-02,-3.51161417e-03,-8.80110823e-03, 5.60692661e-02,
   3.13706137e-02, 5.40427603e-02,-1.02062421e-02,-1.96992084e-01,
   8.55818540e-02,-2.38481626e-01,-5.12800775e-02, 1.51078507e-01],
 [-5.51227108e-02,-8.88709277e-02, 3.30189653e-02, 9.48806107e-02,
   2.07433432e-01,-9.51931551e-02,-2.25819558e-01, 2.47596234e-01,
  -3.71654555e-02,-6.33873418e-02,-6.13447912e-02,-1.26097783e-01,
  -8.81297365e-02,-1.60542037e-02, 3.15575837e-03, 1.10790126e-01,
   7.25446865e-02, 6.44197986e-02, 8.62538293e-02, 1.06830701e-01,
   1.52487457e-01,-1.16468459e-01, 1.59672409e-01, 1.59942016e-01,
   1.69392213e-01,-1.70429915e-01, 2.13664770e-02,-3.18535455e-02,
  -2.37071782e-01,-1.13994397e-01, 1.31044909e-01, 1.68326616e-01,
   1.27437368e-01,-1.82040349e-01, 1.51028797e-01, 7.02445135e-02,
  -3.20813656e-01,-2.79924929e-01, 1.02384062e-02, 7.00408891e-02,
   2.23293174e-02, 1.80429630e-02, 1.46482900e-01,-9.37096477e-02,
  -3.74125354e-02,-1.39523923e-01, 2.35257685e-01,-1.20850779e-01,
  -1.29859537e-01, 1.26485471e-02,-1.62534997e-01, 9.87213776e-02,
  -1.22234873e-01, 1.55907804e-02, 2.10028607e-02, 9.03837979e-02,
  -1.27426803e-01, 2.46234611e-01, 1.20344318e-01,-1.72143698e-01,
   1.92246046e-02,-5.16094230e-02,-1.72166929e-01,-1.97050050e-01,
  -2.92202178e-02,-2.17290491e-01,-2.30738774e-01, 8.36447924e-02,
  -2.48875637e-02,-1.06652407e-03,-1.29974067e-01, 2.33722720e-02,
   1.49596557e-01, 2.41381451e-02,-3.46027344e-01, 3.45150977e-02,
  -4.56383787e-02,-1.57075733e-01,-1.69250090e-02, 3.07675730e-02,
  -1.64924338e-01, 2.31217910e-02, 8.28000903e-02,-8.77716094e-02,
   5.40231466e-02, 1.94977503e-02,-1.91593089e-03, 1.40456319e-01,
  -5.62457554e-02,-1.31332770e-01,-9.78332013e-03,-1.38354078e-01,
   1.34776637e-01,-9.40274447e-02, 4.80775386e-02, 9.79675129e-02,
   2.64588803e-01,-5.54340445e-02,-1.00305490e-01, 1.32284611e-01,
   1.93629280e-01,-1.16465397e-01,-4.77040298e-02, 2.26512283e-01,
  -7.45458603e-02,-1.64947137e-01, 1.76171660e-01,-1.12976752e-01,
  -1.97470605e-01,-8.65601599e-02, 1.60690874e-01,-1.82022840e-01,
  -1.49804309e-01,-1.71293467e-01,-1.92478329e-01,-1.41183302e-01,
  -6.53948560e-02, 1.57938614e-01, 2.88836449e-01,-1.40348941e-01],
 [-6.49245754e-02, 5.05464487e-02, 6.43593967e-02,-1.69021115e-02,
   1.38467345e-02, 6.99699521e-02,-7.54851028e-02, 6.28371835e-02,
  -9.64532048e-02, 4.89311367e-02, 7.65133426e-02, 4.71010692e-02,
   3.29884663e-02, 9.06285867e-02, 8.04556832e-02,-2.12729368e-02,
  -7.53030479e-02, 3.11045088e-02,-4.15566973e-02, 6.46230578e-02,
  -1.30708098e-01,-5.65952668e-03,-1.16039716e-01,-2.22430192e-02,
   4.50890921e-02,-4.15278822e-02, 1.39922388e-02,-3.33937816e-02,
   1.96700588e-01,-1.50020614e-01, 5.76632917e-02, 1.21513559e-02,
  -2.49318928e-02,-6.28663450e-02, 7.86087289e-02, 4.21381146e-02,
   9.31140855e-02,-9.25494581e-02, 1.32280305e-01, 1.96671486e-01,
   9.56520662e-02, 8.94250795e-02, 9.66616273e-02, 8.78087804e-02,
   3.51237617e-02, 2.36784611e-02, 6.30721524e-02,-9.29305404e-02,
  -7.39458203e-02,-1.52039498e-01, 7.81406835e-02, 4.84196134e-02,
   5.82923330e-02, 4.23638858e-02,-8.19795281e-02,-2.29519233e-02,
  -3.28415520e-02, 3.18101794e-02, 3.53682712e-02,-7.25597069e-02,
   3.08231749e-02, 7.25593790e-03,-7.17075840e-02, 1.43012377e-02,
  -1.08421437e-01,-2.69944780e-02, 2.92962845e-02,-2.61976644e-02,
  -7.98360482e-02,-7.24790394e-02, 3.32907550e-02, 1.17429741e-01,
  -9.14183557e-02, 1.11778537e-02, 2.92519629e-02, 3.87291722e-02,
  -1.02343984e-01,-1.05183780e-01, 2.32540742e-02,-6.94546998e-02,
  -7.10206628e-02,-9.17022303e-02, 8.61380175e-02,-5.46986200e-02,
  -1.40017495e-01, 3.76695134e-02,-1.82356667e-02,-1.97001118e-02,
  -1.54496916e-02,-8.66347458e-03, 1.42880641e-02, 7.39782630e-03,
   4.80442587e-03,-2.40979297e-03, 8.72162078e-03,-3.40677798e-04,
  -1.00109875e-02,-3.51294316e-02, 1.04098633e-01,-4.79950048e-02,
  -3.34275626e-02,-9.64109153e-02, 3.82523276e-02,-3.82293575e-02,
  -1.30454063e-01, 2.82921363e-03,-9.93680432e-02, 9.06352326e-02,
  -8.73466954e-02, 1.01354085e-01,-8.71338770e-02,-3.30266692e-02,
  -2.62246169e-02, 5.07362597e-02, 4.48345281e-02,-1.25720948e-01,
   2.30711903e-02,-1.08799018e-01, 7.72710133e-04, 1.09777771e-01],
 [ 4.95438538e-02,-1.41865045e-01,-2.77709514e-01, 1.07727267e-01,
   7.15544820e-03,-1.65648550e-01, 6.11780706e-05,-6.62845671e-02,
  -9.75441858e-02,-1.41260833e-01,-3.28039229e-02,-2.21840844e-01,
  -3.69100682e-02, 6.68983757e-02,-1.29157841e-01,-7.05201775e-02,
  -1.66179806e-01, 9.67892930e-02, 2.23177969e-01,-9.13841054e-02,
   1.22682177e-01, 1.28761381e-01,-1.80343822e-01,-4.83745411e-02,
  -1.69725746e-01,-1.31778613e-01,-6.02092370e-02,-1.22446097e-01,
  -9.70857292e-02, 1.87699199e-01, 5.24250120e-02, 1.79979444e-01,
  -2.89550703e-02,-1.50127336e-01, 7.18931630e-02, 1.85908481e-01,
  -8.26282278e-02, 1.48122370e-01, 1.41128808e-01, 1.36941910e-01,
  -3.93864280e-03, 1.06192149e-01,-1.43884239e-03, 1.65158555e-01,
  -6.75959652e-03, 8.51834938e-02, 1.98524833e-01,-1.92369625e-01,
   1.39731124e-01, 2.33429521e-02,-6.85922289e-03,-1.73699744e-02,
  -4.60464470e-02,-2.82809678e-02, 2.58119166e-01, 2.29053259e-01,
  -5.16004227e-02, 1.77452937e-02, 1.34171218e-01,-2.02983618e-01,
  -1.64630488e-01, 3.24093997e-01, 1.50310108e-02,-6.42534196e-02,
  -5.23968078e-02,-1.51724830e-01,-1.57058612e-01, 2.55849630e-01,
  -5.96365184e-02,-3.96452956e-02,-2.62017380e-02, 7.19919428e-02,
  -2.96131745e-02, 5.14195375e-02, 6.91653490e-02, 1.85692474e-01,
  -9.47905555e-02,-1.00265943e-01, 1.19509965e-01,-1.45806909e-01,
  -4.97790240e-03, 1.56610403e-02, 2.86463089e-02, 6.85387328e-02,
  -2.10980222e-01,-1.48209587e-01,-3.65840830e-02,-1.79125145e-01,
   3.83064784e-02,-1.23940945e-01,-4.60771695e-02, 1.77438334e-01,
   1.15398511e-01,-2.69302547e-01, 1.25294598e-02, 2.78188810e-02,
  -3.68391275e-02,-1.73627615e-01, 3.72130722e-02, 2.19577000e-01,
  -1.38123140e-01,-1.28639236e-01,-1.41179189e-01, 9.86640826e-02,
   7.88369924e-02,-7.82120824e-02,-2.82150991e-02, 1.28152579e-01,
  -2.78938740e-01, 4.24464345e-02,-1.13598421e-01,-2.62922704e-01,
  -1.16117047e-02,-9.06204507e-02,-1.09109096e-02, 2.86575430e-03,
   9.29796994e-02,-6.62283748e-02, 6.84275478e-02, 4.80523743e-02],
 [ 1.75757512e-01,-9.99106374e-03,-2.75791828e-02, 1.20463558e-02,
  -2.61460632e-01, 1.72671795e-01, 1.88855350e-01,-8.36528912e-02,
  -1.97541174e-02, 1.98889613e-01,-3.77186835e-02,-2.48817913e-02,
  -1.00914627e-01,-9.45877582e-02, 1.41262203e-01, 9.09250304e-02,
  -1.10545279e-02,-1.86705682e-02,-5.96402539e-03, 8.95143896e-02,
  -1.83784783e-01,-8.58283788e-02, 4.67734784e-02,-2.74069309e-01,
  -1.50295720e-01,-2.39303117e-04, 6.70062304e-02,-1.03965938e-01,
   2.30396301e-01, 1.00698285e-02,-1.13910057e-01,-2.00955659e-01,
   2.56531723e-02, 6.30817562e-02, 1.27643179e-02,-1.67975068e-01,
   1.49029508e-01, 2.20620498e-01,-1.23191111e-01,-4.15230021e-02,
  -2.83700526e-01,-5.64581938e-02,-2.28191972e-01, 1.71358764e-01,
   2.89913416e-02, 3.72127183e-02,-1.53310701e-01, 1.50630809e-02,
   6.57131448e-02, 9.14228801e-03,-4.49851230e-02,-5.57445474e-02,
   5.26163168e-02,-5.75903393e-02,-2.56181598e-01,-1.48788035e-01,
  -6.47636354e-02, 2.86719901e-03, 1.48722471e-03, 2.74960369e-01,
   5.73116653e-02, 1.34783879e-01, 2.72297353e-01, 6.78091263e-03,
   6.61260709e-02, 1.48599371e-01, 1.72301546e-01,-1.44021854e-01,
   2.15706915e-01, 3.91384922e-02, 5.41299880e-02,-9.70900804e-02,
  -1.00345813e-01,-5.56268692e-02, 2.21504450e-01,-8.88915360e-02,
  -1.48066267e-01, 1.07783023e-02, 1.72409862e-01, 1.07239410e-01,
   2.80217044e-02, 8.34555253e-02, 4.16650660e-02,-8.78995806e-02,
   1.94099456e-01, 1.73992112e-01, 2.94732656e-02, 1.66648664e-02,
  -6.96598813e-02, 1.25400145e-02, 1.78078547e-01, 2.11583059e-02,
  -1.40769072e-02, 9.18029994e-02, 1.11329891e-01, 2.02903390e-01,
  -1.63083792e-01, 1.45896032e-01,-1.03429459e-01,-3.22546214e-02,
  -5.41294143e-02,-1.66800003e-02, 5.13472185e-02,-3.51601452e-01,
   1.39982492e-01, 9.07943696e-02, 1.43612117e-01,-4.39802110e-02,
   2.23081261e-01, 1.48116410e-01,-1.01235941e-01, 1.44163504e-01,
   3.92478146e-02, 1.28136486e-01, 2.11314172e-01,-7.27331042e-02,
   7.13527016e-03,-1.68865889e-01,-1.63007304e-01, 5.81711940e-02],
 [-1.52102053e-01, 1.69632665e-04, 7.86595941e-02,-9.55445226e-03,
  -6.59726560e-02,-3.54066268e-02,-1.52039856e-01, 5.09587266e-02,
  -1.47462919e-01, 1.33730276e-02, 1.04463816e-01,-8.19159597e-02,
  -4.79765683e-02, 7.86383525e-02, 1.18842535e-01,-1.35858104e-01,
   1.04206339e-01, 1.13629691e-01,-1.00970012e-03, 4.44288030e-02,
  -2.04137247e-02,-1.38364360e-01,-1.22398339e-01,-9.65058431e-02,
   1.29713088e-01, 3.19429189e-02,-9.92145240e-02, 2.73898840e-02,
  -7.28678852e-02,-1.04795799e-01, 1.92716956e-01, 1.29923597e-01,
   1.01608604e-01, 5.67316338e-02,-5.75233735e-02, 1.15367778e-01,
   2.25165691e-02,-8.16017985e-02, 3.15681472e-02, 9.30272639e-02,
   5.31154834e-02, 5.43654757e-03, 1.26578018e-01,-1.28856421e-01,
  -1.46513944e-02,-3.47336046e-02, 1.22515433e-01,-7.49819800e-02,
   1.36687830e-01,-3.00372578e-02,-9.25637782e-02,-3.50231342e-02,
  -2.95203421e-02,-7.82937482e-02,-6.61579669e-02,-9.25863236e-02,
   1.39190421e-01, 8.12574327e-02, 9.87241790e-02,-3.53104174e-02,
  -1.39434025e-01, 8.35871045e-03,-9.39470902e-02, 6.86154664e-02,
  -1.81816325e-01,-2.00341865e-01,-9.12193954e-02, 1.61170423e-01,
  -1.13295443e-01, 1.09479850e-04,-1.89371318e-01, 1.40432075e-01,
   5.32765090e-02,-5.25439195e-02,-7.31317326e-02, 1.33922309e-01,
   7.85168409e-02, 7.82034639e-03,-1.44070406e-02,-6.54496476e-02,
  -4.56306264e-02,-6.65473565e-02, 1.72383383e-01,-7.17749223e-02,
  -1.41248539e-01, 1.49192736e-01, 9.51326936e-02, 2.21323609e-01,
  -5.61853376e-05, 1.36116836e-02, 3.07747093e-03,-9.31456238e-02,
   8.57128948e-02, 5.83889224e-02,-9.23926570e-03, 3.51799838e-02,
   1.60280485e-02, 1.67794406e-01,-3.34987566e-02, 1.65164322e-02,
  -8.38459358e-02, 1.06530264e-02, 7.30041340e-02, 2.18856975e-01,
  -1.05175741e-01,-2.73857219e-03, 3.22781466e-02,-6.38915524e-02,
  -7.69573227e-02,-4.22661453e-02, 9.70244408e-02,-3.83154564e-02,
  -6.13919646e-02, 4.61443439e-02,-2.26782322e-01,-2.50743806e-01,
   1.27322495e-01, 2.86205914e-02, 4.34252247e-02,-5.86051233e-02],
 [ 1.13392211e-02,-8.46308991e-02, 1.99021429e-01,-2.46076174e-02,
  -1.78683534e-01,-4.33961898e-02,-3.62242013e-02, 9.02115032e-02,
  -1.79558903e-01,-8.66104662e-02, 1.18747249e-01, 4.58576046e-02,
   2.26997249e-02, 1.64658949e-02, 1.44663766e-01, 6.58529624e-02,
  -1.73689071e-02,-6.80567622e-02, 2.24516261e-02, 6.88796025e-03,
  -4.22304049e-02, 8.48704353e-02,-1.26819834e-01,-7.62265399e-02,
   3.68942544e-02,-9.10379738e-03,-4.02573533e-02,-3.99513468e-02,
   1.99571494e-02,-9.96466428e-02,-5.73775768e-02, 1.03279807e-01,
   3.33697982e-02,-5.58445454e-02, 7.83383660e-03,-2.54173763e-02,
  -1.00781918e-01, 5.11494726e-02, 4.08091657e-02, 1.34218082e-01,
   4.51438464e-02,-5.97238168e-02, 1.03436902e-01, 5.39419055e-02,
   3.82313170e-02,-6.22212999e-02,-1.44195445e-02, 1.00869802e-03,
  -7.36638252e-03,-9.73124877e-02,-1.28840685e-01,-4.99948254e-03,
   9.19389352e-02, 1.54801654e-02, 7.38562867e-02,-6.42091036e-02,
   4.23971526e-02, 2.59156656e-02,-1.61832109e-01,-7.51808807e-02,
  -5.65625960e-03,-8.10033232e-02,-7.85281882e-02, 1.17359094e-01,
   8.69365633e-02,-1.88499913e-01, 3.16981971e-02, 8.06819946e-02,
  -1.41773745e-02, 5.50914905e-04,-4.50068116e-02, 1.56387426e-02,
   7.22277164e-02, 8.29229727e-02,-1.64701059e-01, 9.27805454e-02,
  -1.25855030e-02,-6.33129478e-02, 2.40066350e-01, 5.63444793e-02,
   3.55196744e-03, 7.33023658e-02, 1.18015356e-01,-4.47155610e-02,
  -2.71528624e-02, 5.10046259e-02, 9.01414901e-02, 5.51605001e-02,
   4.41200696e-02, 7.20621422e-02, 4.97721434e-02,-7.80594870e-02,
  -9.23095718e-02, 1.50600165e-01, 3.98589578e-03, 4.87302011e-03,
   6.51636496e-02,-6.80414587e-02, 1.89380407e-01, 1.42082378e-01,
  -1.80879906e-01,-2.57691671e-03,-4.93361689e-02,-2.60205604e-02,
   9.18098614e-02, 1.33967206e-01,-8.31533596e-03, 4.39741351e-02,
  -7.89235681e-02,-3.18465196e-02,-9.24177095e-02,-3.90374772e-02,
   1.50329456e-01,-1.07061587e-01,-1.18692562e-01,-1.34422079e-01,
  -1.89659698e-03,-1.87572718e-01,-3.26068215e-02, 1.41430363e-01],
 [ 5.19629335e-03, 1.05197757e-01, 2.55453158e-02,-3.12702358e-02,
   1.34549946e-01,-2.48767287e-02, 5.17515689e-02, 1.56548187e-01,
  -9.45308059e-02,-5.58969639e-02,-2.66142748e-02, 2.84780879e-02,
  -6.15577064e-02, 1.06307797e-01, 1.10031381e-01, 1.43824192e-02,
  -2.30085328e-02,-6.60728440e-02,-1.13489315e-01, 7.67340437e-02,
   3.73843499e-02, 4.82681766e-02, 2.46227961e-02, 4.51439172e-02,
   1.04997428e-02, 3.79880480e-02,-4.42042090e-02, 1.50718577e-02,
  -3.48619632e-02,-8.30910131e-02,-2.97629498e-02, 9.10932869e-02,
  -4.44439054e-02,-7.10835382e-02, 5.97208478e-02, 1.20525677e-02,
  -4.86641861e-02,-1.26998916e-01, 4.33398373e-02,-3.50486822e-02,
   1.19813614e-01,-8.49323794e-02, 7.54926950e-02,-3.04203741e-02,
  -7.31827551e-03,-1.23650087e-02, 1.25888348e-01, 9.51052979e-02,
  -9.07267928e-02,-9.27329585e-02,-1.10665411e-02, 5.15175611e-02,
   1.01819448e-01, 6.95439950e-02,-2.54555251e-02,-6.81148693e-02,
   1.11449286e-02, 1.87466651e-01,-3.44192758e-02,-9.90859047e-02,
   6.89917728e-02,-1.76882967e-01,-1.46021828e-01,-4.29930165e-02,
   4.49141413e-02, 1.88557394e-02, 1.09589417e-02,-1.32672876e-01,
   9.69353840e-02,-1.27203032e-01, 3.19618508e-02, 7.58897066e-02,
  -1.04648843e-01, 1.17581837e-01,-9.44526792e-02, 1.07809871e-01,
  -1.40183687e-01, 6.29872531e-02,-3.94726023e-02, 1.67954005e-02,
  -5.67496270e-02,-6.86225593e-02,-2.45634858e-02,-2.83312909e-02,
  -5.71683310e-02, 7.91046843e-02, 9.92651656e-03,-7.16177514e-03,
  -1.54974192e-01,-1.39847010e-01, 2.87108701e-02,-1.80472378e-02,
  -3.98581242e-03, 2.00173184e-02,-1.35273814e-01,-7.55647570e-02,
   8.48356821e-03,-1.63298864e-02,-8.40794966e-02, 5.99020859e-03,
  -4.79609445e-02,-1.17646642e-01, 1.40564442e-02, 9.69495326e-02,
  -1.57345653e-01, 7.23782182e-02, 6.41758069e-02,-1.05496717e-03,
  -8.75372346e-03, 4.14652005e-02,-8.56160596e-02,-2.56259851e-02,
   1.28301904e-01,-6.93228841e-02, 3.51412734e-03,-1.11122303e-01,
   3.46019119e-02, 3.50902788e-02, 1.07427910e-02, 1.40164956e-01],
 [ 6.52297512e-02,-1.45339873e-02,-8.51034448e-02,-7.68879382e-03,
   4.68814820e-02,-4.22508419e-02, 7.68174306e-02, 8.82477835e-02,
   3.37684974e-02,-2.42056753e-02, 1.81725085e-01,-1.07610233e-01,
   1.64590225e-01,-1.17772706e-01,-1.55975334e-02,-9.86931548e-02,
   6.75716018e-03,-3.05390656e-02,-8.75867680e-02, 7.42259473e-02,
  -1.62548088e-02, 7.64164850e-02,-1.86383292e-01,-6.02850318e-02,
  -8.76568407e-02, 1.14771284e-01,-4.49366681e-02, 8.36793184e-02,
   1.53989017e-01,-5.25825471e-02,-1.57580748e-02, 4.80959937e-02,
  -2.59857643e-02,-3.72314826e-02,-6.60315156e-02, 1.62159100e-01,
   1.14352055e-01,-2.74562053e-02, 6.50931001e-02, 1.73091769e-01,
   3.16545330e-02, 6.78041652e-02, 8.35616365e-02,-6.81080446e-02,
   4.73197736e-02, 1.37056962e-01, 2.92012338e-02,-2.57302187e-02,
   2.08473206e-02, 2.55257785e-02, 6.14052154e-02,-1.09721594e-01,
  -5.83894178e-02, 9.17478055e-02,-5.64791225e-02, 5.12246378e-02,
   1.70982093e-01, 9.38758552e-02, 4.43967693e-02, 6.41574338e-02,
   2.39550583e-02,-1.66482218e-02, 5.46363518e-02, 1.60038173e-01,
   2.50978712e-02,-1.15336571e-02, 6.10635765e-02,-3.77995446e-02,
  -1.31211961e-02, 2.83034369e-02, 2.22422648e-02,-3.55733149e-02,
  -2.55590095e-03, 1.18263461e-01, 1.24073610e-01, 5.64545877e-02,
   1.02252819e-01, 1.43477380e-01, 6.91000819e-02, 2.51945704e-02,
   1.55264465e-02, 1.06947962e-02, 1.28345238e-02,-1.03427231e-01,
  -2.72562224e-02,-3.76551263e-02,-4.80181314e-02, 3.81411612e-02,
  -8.81582797e-02, 5.30579649e-02,-6.86813444e-02, 1.25626087e-01,
   6.98023243e-03, 1.19100567e-02,-5.40425582e-03,-1.77459061e-01,
  -2.15468660e-01, 1.02135681e-01, 1.39487714e-01,-8.93388987e-02,
  -7.15868250e-02,-5.11950776e-02, 6.31972030e-02, 3.95799167e-02,
  -8.62642229e-02, 3.85625027e-02,-3.46400514e-02, 3.88808958e-02,
   1.08449936e-01, 1.75516069e-01,-9.86140147e-02, 1.54832453e-02,
   1.60218142e-02, 6.21308945e-02,-5.80900833e-02,-6.15586452e-02,
  -5.03412001e-02,-1.93393320e-01,-5.97913004e-03, 9.54291448e-02],
 [ 1.20550487e-02, 2.86137965e-02, 2.95712147e-02, 1.34220585e-01,
   6.60688579e-02,-9.92580652e-02, 8.90014023e-02, 8.75308290e-02,
  -2.18198642e-01,-1.14634030e-01,-4.64004874e-02,-4.67242785e-02,
   3.24523950e-04,-3.85607779e-02, 1.10715508e-01, 1.42004952e-01,
  -4.58438415e-03, 3.79726216e-02,-8.37013498e-02, 6.49583638e-02,
   1.49560079e-01, 7.06002712e-02,-1.79513961e-01,-2.01483052e-02,
   9.84892622e-02, 2.94764359e-02,-6.50857911e-02, 7.28444476e-03,
  -6.64720759e-02,-8.87237266e-02,-7.84417763e-02, 1.19501010e-01,
   1.43377393e-01,-1.42785609e-01, 1.38537809e-01,-5.59876719e-03,
  -3.36492881e-02,-1.25131337e-02,-1.01155512e-01, 8.62964019e-02,
  -2.14256402e-02,-2.83785071e-02,-5.27597293e-02,-1.05125986e-01,
   3.44700180e-02,-2.65342034e-02, 6.97441697e-02,-9.04957727e-02,
   6.76024109e-02,-2.91186888e-02, 9.31354538e-02, 1.09330639e-02,
   2.34660655e-01,-3.47792543e-02, 1.16498761e-01,-1.42194495e-01,
   1.32252313e-02, 1.33861244e-01, 6.17204122e-02, 2.77714897e-02,
   2.74404958e-02,-1.99667156e-01, 6.76814020e-02, 1.06566288e-01,
   1.54884504e-02,-2.02062950e-01,-1.01094045e-01,-1.35168821e-01,
   2.33168915e-01,-3.01403217e-02, 7.99495503e-02, 5.53185344e-02,
   2.09442209e-02, 1.53530508e-01,-1.13885887e-01, 1.56102210e-01,
  -1.60590619e-01, 4.77593020e-02, 7.95917585e-02,-7.20844716e-02,
   1.04191296e-01, 1.60651989e-02, 7.65025616e-02,-7.57373050e-02,
   1.97556987e-02, 1.74848750e-01, 1.19516812e-02,-4.16600108e-02,
  -6.90189973e-02,-1.79252420e-02,-9.35802236e-02, 3.25202942e-02,
   5.24703711e-02, 1.25526811e-03,-1.98233217e-01, 9.92847085e-02,
   3.61570492e-02, 9.93830338e-03, 5.40146679e-02, 1.24245338e-01,
  -8.88527110e-02,-2.47545224e-02,-7.33212084e-02,-1.00367546e-01,
   3.28518413e-02, 8.44708532e-02, 1.09601416e-01,-2.22162399e-02,
   7.63019696e-02, 4.27585766e-02,-1.29111975e-01,-8.59961212e-02,
   1.09424122e-01,-1.80595443e-01, 2.86489204e-02,-3.06002926e-02,
   1.77135840e-01,-1.80164333e-02,-1.28005564e-01, 5.84585294e-02],
 [ 2.26757824e-02, 7.55229667e-02, 8.36045966e-02, 1.41922742e-01,
  -2.35856976e-02, 1.38210356e-02, 1.99348703e-02, 2.61625592e-02,
  -4.42086905e-03,-5.86599931e-02, 1.42559320e-01,-5.86803034e-02,
  -5.09120226e-02,-1.83243258e-03,-3.52149159e-02, 9.54353362e-02,
  -1.35277629e-01, 5.61638847e-02, 1.32500883e-02,-2.04222696e-03,
   7.74450526e-02, 2.26973314e-02, 1.88902561e-02,-3.73058096e-02,
   9.37335864e-02,-2.62176655e-02,-4.34019864e-02, 1.10806204e-01,
  -9.75132957e-02,-4.51554991e-02, 2.70179436e-02, 4.49696071e-02,
  -2.96226125e-02,-8.42957795e-02, 9.88294035e-02,-5.40247597e-02,
   8.44951998e-03,-1.16696820e-01,-8.82816836e-02, 9.14611593e-02,
   1.23012587e-02, 3.60397585e-02,-7.27665499e-02,-6.74570678e-03,
   7.86879882e-02, 5.31207472e-02, 5.46234399e-02,-7.32551888e-02,
  -5.73981591e-02,-1.31982759e-01, 3.23054940e-02,-4.24340274e-03,
  -4.09787036e-02,-2.32965536e-02,-8.92237946e-02,-1.25516891e-01,
  -3.91431004e-02, 3.50510292e-02, 3.54983509e-02, 1.18563548e-02,
   6.84049353e-02,-1.76619310e-02,-5.93024306e-02, 1.50929481e-01,
  -5.58951348e-02,-6.06686510e-02,-2.57516261e-02, 3.62023041e-02,
   1.35784909e-01,-2.28844602e-02, 3.60121801e-02, 3.27166878e-02,
  -8.69715214e-02, 5.77109493e-03,-5.15929870e-02,-1.02291803e-03,
  -1.28632262e-01, 1.00318320e-01, 7.32845813e-02,-3.34317945e-02,
  -1.60364769e-02, 8.99716914e-02, 1.96229350e-02, 4.47770162e-03,
  -6.65431693e-02,-6.52542412e-02,-2.22328473e-02,-3.31906378e-02,
   3.56338732e-03,-6.05031811e-02,-1.44938566e-02, 1.20544970e-01,
  -5.07126041e-02, 9.17184055e-02, 1.66177545e-02, 1.87144931e-02,
  -1.00794032e-01, 8.64063576e-02, 9.03714169e-03, 4.33500223e-02,
  -1.43947080e-01,-1.47137381e-02, 7.63077661e-02,-2.11495608e-02,
  -6.89302757e-02, 1.22044884e-01,-1.65975485e-02, 7.79989660e-02,
   3.20503116e-02, 1.02847897e-01,-9.66426637e-03, 4.69898321e-02,
   1.15748920e-01,-6.76306114e-02, 4.97954637e-02,-2.97770910e-02,
   7.64920563e-02,-1.99334156e-02,-2.47735213e-02,-9.20565240e-03],
 [-2.42748167e-02,-1.71108663e-01, 2.22540826e-01,-6.89670891e-02,
  -2.12287419e-02, 3.95913310e-02, 8.27493966e-02, 1.97227985e-01,
  -1.68269724e-01, 1.32521465e-02,-2.07899641e-02, 9.22333822e-02,
  -6.28763437e-02, 4.33681086e-02, 1.00263402e-01, 5.35367094e-02,
   1.26880780e-01, 5.37228659e-02,-8.61436054e-02,-2.11441442e-02,
  -2.87774950e-03,-9.91455540e-02,-7.11773932e-02, 1.30933877e-02,
  -2.49189809e-02,-2.27977112e-02, 3.66780674e-03,-3.87627035e-02,
  -9.68133658e-02,-7.17838332e-02,-8.53529051e-02, 2.83358004e-02,
   1.64890632e-01, 7.14368001e-03, 3.74792330e-02, 2.92047430e-02,
   7.14045539e-02,-1.69758461e-02,-2.14883778e-02, 1.93293840e-02,
   6.66008368e-02, 1.00924239e-01, 1.24611467e-01,-8.65356177e-02,
  -8.84161815e-02, 1.47170827e-01,-1.41591672e-02, 1.36366352e-01,
   6.11975603e-03, 6.53943270e-02,-1.94447078e-02, 6.84645958e-03,
  -8.57145712e-02, 9.44539532e-02, 1.35763893e-02,-5.12011088e-02,
  -8.74395967e-02,-6.98254406e-02,-7.16130510e-02,-1.31126761e-01,
   1.96871813e-02,-5.93006462e-02, 4.64438014e-02, 1.19259521e-01,
   1.62465125e-01,-1.16782725e-01, 1.54228196e-01, 4.95453924e-02,
  -5.14657050e-02,-5.26019186e-02, 6.18933188e-03, 1.18139088e-01,
  -9.12522376e-02, 1.95950851e-01,-8.94994438e-02, 1.32221341e-01,
  -1.72766987e-02, 5.87027408e-02, 8.62941705e-03, 8.20436701e-02,
  -6.22213222e-02, 2.36033127e-02, 9.83835161e-02,-2.10948214e-02,
  -2.03605201e-02,-1.55351264e-02, 1.03745885e-01, 2.11411640e-01,
  -1.37383416e-01, 9.67500061e-02, 1.28333822e-01,-3.90138887e-02,
   1.19182885e-01, 1.52574420e-01,-7.89911300e-02,-9.61600989e-03,
  -1.82769388e-01, 7.45408460e-02, 6.78832904e-02,-3.69275012e-03,
   4.97661233e-02,-7.39413947e-02, 9.81705189e-02, 1.64928615e-01,
  -1.17433652e-01,-8.60861838e-02, 1.96723446e-01, 8.88727754e-02,
   1.26926631e-01,-4.81344163e-02, 6.42824918e-02, 6.29579723e-02,
   1.78285480e-01,-9.10274386e-02,-1.48736551e-01, 1.81950424e-02,
  -6.04110695e-02,-9.24966857e-02,-4.94572818e-02, 1.32790893e-01],
 [-3.93717401e-02,-3.11816204e-02, 1.55646861e-01, 8.93532410e-02,
   1.07190594e-01,-6.70902655e-02, 1.13511048e-01, 6.35221004e-02,
  -1.46876886e-01,-4.99564335e-02, 2.89855283e-02, 8.45881552e-02,
  -9.13349167e-02, 7.16051981e-02, 1.07061844e-02,-5.67313470e-02,
  -6.87957928e-02,-6.81001926e-03,-4.36486378e-02, 2.38900613e-02,
  -4.48049232e-02, 2.18973868e-02,-3.28771807e-02,-8.63163471e-02,
   7.34361187e-02,-5.26871942e-02, 1.73147768e-02, 7.38682970e-02,
  -2.38467641e-02,-1.27455622e-01,-1.02654710e-01, 8.01216438e-02,
   7.08302930e-02,-1.15953069e-02, 9.28759053e-02,-7.55524412e-02,
  -9.55276787e-02,-9.08336863e-02, 3.12642716e-02, 2.91157719e-02,
   8.05979818e-02, 7.85550848e-03,-6.63459599e-02,-2.19003186e-02,
  -8.40491895e-03, 9.12253261e-02, 5.56743406e-02, 8.41976795e-03,
  -5.36344834e-02, 1.38411261e-02, 2.68135648e-02,-6.97178394e-02,
  -2.63573043e-02, 9.34230462e-02, 3.08167506e-02,-7.48040453e-02,
   7.34847337e-02, 1.42237460e-02,-4.34203744e-02, 2.25336216e-02,
   3.86020467e-02,-5.64859286e-02,-6.85336813e-02,-3.84744778e-02,
   6.10499643e-02,-4.57427613e-02, 2.30502468e-02,-5.01025990e-02,
  -2.89016380e-03,-5.46495654e-02,-5.75741157e-02, 2.68186368e-02,
   6.27232492e-02, 1.82678399e-03,-1.06009401e-01, 7.16390535e-02,
  -7.05538094e-02, 8.43136013e-03,-3.99697572e-02, 4.95568514e-02,
   8.32350403e-02,-3.00041377e-03, 9.60828364e-02,-5.02461642e-02,
   3.69445905e-02,-1.30497850e-02, 6.07548133e-02, 5.99362627e-02,
   3.04825660e-02,-4.89678755e-02,-3.15556638e-02, 8.73139407e-03,
   8.15644190e-02, 9.75349247e-02,-7.93160498e-02,-6.82062879e-02,
  -8.38201195e-02, 9.20846835e-02, 7.73401260e-02, 4.95353453e-02,
  -9.92584899e-02, 2.79058311e-02, 3.31838913e-02, 2.49326229e-02,
  -8.51344243e-02, 1.54897626e-02, 1.06083669e-01, 1.53751802e-02,
  -2.33754646e-02, 5.43771423e-02,-1.78113934e-02, 7.32894987e-02,
   5.53266592e-02,-8.43657032e-02, 3.37357633e-02,-1.09353460e-01,
   3.33945863e-02,-1.07808590e-01, 7.37423077e-02, 7.33332336e-02],
 [ 3.53539675e-01, 2.38404274e-02,-3.27837244e-02,-2.16957718e-01,
  -1.43271372e-01,-1.51761509e-02, 4.08836007e-02,-3.23292941e-01,
   9.29885879e-02,-1.72085345e-01,-1.68753952e-01, 4.94993292e-02,
  -8.20675492e-02, 5.28802536e-02, 8.09097290e-02, 9.32200998e-02,
   6.61036968e-02,-7.02758282e-02, 7.59279653e-02,-1.73992947e-01,
   1.34637251e-01,-5.66254072e-02,-3.94004174e-02, 4.79129292e-02,
   1.78544953e-01,-1.17004439e-02, 2.04511777e-01,-2.55758971e-01,
   5.15640676e-02, 1.67103514e-01,-2.54314840e-01, 8.98220316e-02,
   1.48248142e-02,-5.38633242e-02,-2.46238504e-02,-6.07213899e-02,
   5.08780591e-02, 2.62836486e-01,-1.01990856e-01,-1.70603603e-01,
   4.68068011e-02,-4.40029167e-02,-7.36106113e-02, 3.37895565e-02,
  -5.91285266e-02,-1.05021745e-01,-1.54522374e-01, 2.58980580e-02,
   1.56992301e-01, 6.41743690e-02, 6.62350506e-02, 1.42715275e-02,
   1.63583964e-01,-2.02641800e-01, 5.30245900e-02,-1.35258391e-01,
  -2.66862273e-01,-7.10840821e-02,-1.55637920e-01, 8.17121267e-02,
   7.22231790e-02, 1.54774919e-01, 2.27624681e-02, 1.75112747e-02,
   8.42300877e-02, 2.21193805e-02, 1.58029795e-01, 1.22946210e-01,
   3.57563049e-03,-1.52405918e-01, 1.47327688e-02,-2.96243846e-01,
   2.05038846e-01,-6.26918599e-02, 8.76221135e-02,-1.46538228e-01,
  -3.15129049e-02,-5.84153719e-02, 1.02567710e-02,-6.77950755e-02,
  -2.24545179e-03,-2.35747565e-02,-1.27718374e-02, 1.46377712e-01,
  -5.12561910e-02,-1.34805078e-03,-1.60705168e-02,-2.32168689e-01,
   9.10370797e-02,-5.62215671e-02, 2.26241738e-01,-5.58425076e-02,
  -2.06381202e-01,-2.71495823e-02, 1.08904593e-01,-9.00872350e-02,
   2.41331324e-01,-1.44740999e-01, 1.38142750e-01, 1.24982722e-01,
   3.03805973e-02, 4.50601242e-02,-6.23148568e-02,-1.94625467e-01,
   2.16336891e-01, 1.74339786e-01, 2.18087941e-01,-1.24909028e-01,
  -1.16932400e-01,-1.06414422e-01, 7.65573010e-02,-1.72993928e-01,
  -2.00896353e-01,-1.08240403e-01, 2.39156792e-03, 6.35125488e-02,
  -7.03928620e-02, 3.36612500e-02,-1.80680990e-01,-1.77306717e-03],
 [ 2.72083879e-02, 6.34824187e-02, 8.11306760e-02, 2.17188165e-01,
  -9.59322676e-02, 5.10638729e-02,-2.72455830e-02,-8.01359117e-02,
  -1.71274111e-01, 1.62362039e-01, 9.54286084e-02,-5.57453185e-03,
  -4.37715389e-02, 2.96066348e-02, 6.16661608e-02,-4.25566472e-02,
   6.45824075e-02, 4.83598299e-02,-1.88610315e-01, 1.11458078e-01,
  -1.81778327e-01,-1.66374668e-01,-2.19448432e-01,-6.94080964e-02,
   6.90976232e-02, 3.38889398e-02,-1.15916342e-01,-3.89659293e-02,
  -1.95935190e-01,-2.17908829e-01, 2.13407218e-01,-5.13190068e-02,
   1.88554853e-01,-4.80586253e-02, 1.30459880e-02, 1.70131791e-02,
   8.93369839e-02,-1.25667742e-02,-1.21698253e-01,-1.03094883e-03,
  -1.67080551e-01, 3.72362509e-02, 8.50702301e-02,-2.87082959e-02,
   5.40636890e-02, 3.51550840e-02,-1.22973405e-01,-1.77074298e-01,
   2.36372024e-01, 3.03745810e-02,-4.54494916e-02, 3.33513953e-02,
   8.01572129e-02,-1.68303952e-01,-1.37309507e-01,-1.60104394e-01,
   8.29286426e-02, 1.65461358e-02,-6.29755035e-02, 1.47877097e-01,
  -1.40015572e-01,-3.70573960e-02,-7.42646828e-02, 5.37945330e-02,
  -3.30307931e-01,-1.64183646e-01,-1.78978786e-01, 3.02559417e-02,
   2.48535201e-01, 7.02457316e-03,-2.40908667e-01, 8.73992667e-02,
  -2.18976499e-03,-4.01787534e-02, 6.72684982e-02, 8.30449462e-02,
   6.29195720e-02,-2.07069308e-01, 2.11824365e-02,-1.23593017e-01,
   1.72036335e-01, 4.14886661e-02, 1.82492137e-01, 6.09344058e-02,
  -8.61533508e-02, 2.65261739e-01, 1.04696333e-01, 1.06834643e-01,
  -4.76342179e-02, 8.74180496e-02, 1.90178640e-02,-1.78540125e-01,
  -2.11076681e-02, 1.43811703e-02, 2.23630499e-02, 1.39574960e-01,
  -1.39147580e-01, 1.86845705e-01,-2.25817680e-01,-5.78237325e-02,
   2.17470899e-02, 5.96988387e-02, 3.68207581e-02,-1.16994372e-02,
  -3.00863925e-02, 1.19160369e-01, 1.76439986e-01,-1.41205207e-01,
   1.47241145e-01,-7.45986775e-02,-3.47675160e-02, 6.56244978e-02,
   1.19291741e-04, 2.67779112e-01,-2.64737517e-01,-3.70244861e-01,
   2.72358179e-01,-1.93478405e-01,-8.34805816e-02, 1.41951129e-01],
 [-1.13400742e-01, 3.89065710e-03,-1.59587208e-02, 1.31896272e-01,
   3.69736589e-02,-2.40441523e-02, 3.02968007e-02,-3.21714431e-02,
   5.44338375e-02,-7.07846135e-02, 1.13737136e-01,-1.35955968e-04,
   1.22144438e-01,-8.00787210e-02,-1.01723179e-01, 4.75571565e-02,
  -1.91449255e-01, 3.56112793e-02, 2.04445180e-02, 1.36457205e-01,
  -3.18094390e-03, 7.10855797e-03, 9.49014351e-02,-9.64601785e-02,
   4.87240627e-02, 8.87157843e-02, 3.20155099e-02, 2.00318530e-01,
  -3.09031969e-03, 8.19038600e-03, 7.87632242e-02,-1.86077580e-02,
  -3.44264805e-02,-9.77886096e-03, 6.87716529e-02, 1.07592419e-01,
   1.43866660e-03, 5.70878834e-02,-2.21835114e-02, 4.33267877e-02,
  -3.79328988e-02, 5.34336008e-02, 2.71551553e-02,-3.01683694e-02,
   1.42306434e-02,-3.19223180e-02, 8.35418552e-02, 4.02642563e-02,
  -2.31746677e-02, 4.24232259e-02,-3.37402336e-02,-4.59459573e-02,
  -5.76143116e-02, 5.19328192e-03, 1.13324456e-01,-6.10990599e-02,
   3.11653148e-02, 7.25647286e-02, 1.37332410e-01,-8.03819522e-02,
  -2.76757032e-02,-1.21422492e-01, 3.81666869e-02, 8.27059075e-02,
  -6.32933453e-02, 4.71360534e-02,-5.59462197e-02,-4.55068536e-02,
   1.04359105e-01,-2.69426983e-02, 2.82553118e-02, 7.63016567e-02,
   4.94813919e-02, 9.67426747e-02,-5.13558416e-03, 1.75185964e-01,
   3.05356998e-02, 1.44080892e-01,-2.35853028e-02,-2.07813364e-02,
   1.95192862e-02, 8.87535438e-02,-8.57206807e-02, 6.83081076e-02,
  -1.77912042e-02,-1.12023234e-01,-7.92402104e-02, 2.40435638e-02,
  -2.23292001e-02, 7.01529160e-02,-3.23713496e-02,-7.25678494e-03,
   3.55623849e-02, 3.35297249e-02,-1.33051097e-01, 4.65581194e-03,
  -2.09405906e-02, 1.98218925e-03,-3.31625454e-02, 1.67918950e-02,
  -8.01555961e-02, 2.34616585e-02, 1.46476028e-04,-4.04812284e-02,
   5.54811098e-02, 3.98953632e-03,-8.99500996e-02, 1.30078301e-01,
  -3.47498171e-02,-2.54420228e-02,-1.96211599e-02, 1.89744066e-02,
   1.21739030e-01,-1.13810554e-01,-6.70879111e-02,-1.12486362e-01,
  -6.61910176e-02,-5.65886684e-02, 4.44143750e-02, 9.77327675e-02],
 [ 2.29428411e-01, 6.78357482e-02, 3.94734330e-02,-5.15165925e-03,
   1.71669215e-01, 5.20715490e-02, 1.15501858e-01,-2.47450080e-02,
   3.08626853e-02, 3.08373813e-02,-8.18909407e-02, 8.92049726e-03,
   4.02832142e-04, 3.37398380e-01,-1.36172203e-02, 5.46808317e-02,
   1.69737816e-01,-1.94088131e-01,-9.68313962e-02, 1.47501677e-01,
  -3.51672582e-02,-5.31906635e-02,-1.77245960e-01,-1.53086483e-01,
   1.48967564e-01,-8.76767784e-02, 1.86226413e-01,-1.67464241e-01,
   8.63625705e-02,-1.70988888e-01, 1.01095252e-01,-2.63765514e-01,
  -2.54048388e-02, 5.23227639e-02, 1.44441158e-01, 4.58578728e-02,
  -4.83511165e-02,-2.28131730e-02,-7.84599334e-02,-5.88130392e-02,
   2.62880713e-01,-5.33178076e-02,-1.20032594e-01,-2.32053980e-01,
   2.53224909e-01,-2.80876621e-03, 6.36546239e-02,-5.05950116e-02,
   9.82082933e-02,-1.64169371e-01,-3.68748419e-02,-2.01410085e-01,
   7.40829185e-02,-6.50582165e-02,-1.84123635e-01,-3.61578576e-02,
  -5.88908717e-02, 1.00389697e-01, 1.19514443e-01, 1.56361610e-01,
  -5.21408357e-02,-1.85931884e-02,-9.86890048e-02, 2.76995808e-01,
   1.38470884e-02,-1.41954795e-01, 2.31531113e-02,-7.35581070e-02,
   2.40770116e-01,-1.07995562e-01, 9.61376727e-02,-1.54567957e-01,
   8.58365325e-04, 3.92278433e-02, 3.22145298e-02,-2.70187587e-01,
  -3.33879963e-02, 1.92760862e-02,-9.64036435e-02,-3.06256916e-02,
   3.07354536e-02, 4.29387987e-02,-4.08987440e-02,-1.31662682e-01,
   8.64414275e-02, 1.78609997e-01,-3.03166490e-02,-3.39218467e-01,
   6.28629923e-02,-1.70731351e-01,-2.18118653e-02,-9.24900472e-02,
   5.75790331e-02,-1.46660730e-01,-9.89535004e-02,-3.02327015e-02,
   6.07225392e-03,-4.90420945e-02, 1.32567152e-01, 4.44504954e-02,
  -9.53231007e-02,-1.04655968e-02,-3.73613602e-03,-2.81189501e-01,
  -1.50698170e-01, 8.69229734e-02, 1.45600922e-02,-1.97920993e-01,
   6.08763881e-02,-1.56787895e-02,-7.70244449e-02,-1.13989927e-01,
  -1.36844411e-01,-4.96011637e-02, 1.11274533e-01, 5.78605346e-02,
   2.62076166e-02, 3.73227634e-02,-2.87150424e-02, 9.00205076e-02],
 [-2.44035628e-02,-9.79558527e-02, 5.77543816e-03, 1.04493804e-01,
  -1.07777692e-01, 7.75468722e-02,-1.60086602e-02,-1.56630222e-02,
  -1.69387147e-01, 6.42062211e-03, 1.49406716e-02,-9.99081060e-02,
   4.27230187e-02,-8.13727528e-02,-1.10880151e-01, 1.06273592e-01,
  -6.75633326e-02, 7.03619793e-02,-1.45536706e-01, 1.33068293e-01,
   1.17973713e-02, 3.01881079e-02,-5.21962196e-02,-6.40077665e-02,
   9.27265808e-02,-6.89653456e-02, 8.12855139e-02,-3.35283093e-02,
   9.59762782e-02,-3.49746980e-02,-1.52261168e-01, 9.04483199e-02,
   1.04856826e-01,-1.19165540e-01, 9.16324630e-02,-1.60766616e-02,
   1.88036188e-02,-7.84211606e-02,-7.93418363e-02,-9.60224960e-03,
  -1.15402369e-02,-2.90063955e-02, 8.67056623e-02, 2.57596914e-02,
   5.17696403e-02, 1.03504501e-01,-1.15023650e-01,-4.15310375e-02,
   4.80360426e-02, 1.40029071e-02,-4.01588976e-02,-8.98580104e-02,
   1.91183880e-01, 2.17362773e-02,-2.10334994e-02,-9.59046278e-03,
  -3.93724442e-02,-9.37324297e-03, 3.18105556e-02, 1.29338041e-01,
  -2.60014576e-03,-9.51219499e-02, 1.03690416e-01,-4.23491411e-02,
  -2.88295243e-02, 1.33347474e-02, 1.47799756e-02,-6.20067827e-02,
   7.98979178e-02, 5.97698949e-02,-2.60426737e-02,-2.21963413e-02,
   9.08046365e-02,-8.89333547e-04,-5.06572723e-02, 1.20031282e-01,
  -1.12425640e-01,-3.85326780e-02, 1.99031428e-01, 3.61397676e-02,
  -5.03141358e-02, 8.84388536e-02, 3.28784622e-02,-1.08988032e-01,
   3.87070030e-02,-8.92330054e-03, 1.70561373e-02, 1.90298818e-02,
  -8.20611343e-02, 1.25323758e-02,-3.44181666e-03,-3.55263017e-02,
   2.13083234e-02,-3.60456854e-02,-1.50842741e-01, 5.85836545e-02,
  -2.08351873e-02,-1.27418950e-01, 2.03937795e-02, 1.75325740e-02,
   3.02520841e-02, 2.80639250e-02, 1.02384269e-01,-1.73961684e-01,
   1.35236189e-01,-1.38601242e-02, 5.44865131e-02,-1.17288224e-01,
   1.13801032e-01,-2.29633690e-04,-1.43253118e-01,-8.75099003e-02,
   9.48333964e-02,-8.01699832e-02, 9.38410014e-02, 6.69730231e-02,
   1.23973146e-01, 3.48403715e-02,-9.33377370e-02, 2.25242916e-02],
 [ 2.10639667e-02, 9.68077183e-02, 2.06394166e-01, 2.09611114e-02,
   7.36040398e-02, 1.34192690e-01,-1.62285388e-01, 2.87969828e-01,
   1.24950543e-01,-8.82944837e-02,-1.28204688e-01, 1.94545791e-01,
  -4.97029573e-02, 1.94208220e-01, 1.47442117e-01, 7.80859888e-02,
   9.57016572e-02,-7.75575824e-03,-2.06900701e-01, 2.17299923e-01,
  -5.93632087e-02, 3.73287983e-02, 1.89371541e-01,-5.84774232e-03,
   3.11007410e-01,-5.08393459e-02,-4.97986488e-02, 3.64366882e-02,
   6.71489462e-02,-1.63063318e-01, 7.10617900e-02,-9.65238139e-02,
  -1.16348192e-01, 9.89559367e-02, 4.68791872e-02, 1.59921557e-01,
  -7.47505277e-02,-2.91163653e-01,-1.19081698e-02,-8.73025581e-02,
   3.44535381e-01,-1.36828408e-01, 6.48233593e-02,-2.61565357e-01,
   7.68851787e-02,-4.05927226e-02, 5.28593697e-02, 1.18748993e-01,
   4.84447628e-02,-1.91374809e-01,-2.21296810e-02,-1.06577039e-01,
  -3.51235978e-02, 1.81124762e-01,-1.60329416e-01,-1.30154163e-01,
  -4.77834456e-02, 1.30035385e-01, 6.51027039e-02,-2.02295817e-02,
   1.12613544e-01,-1.22632951e-01, 1.80369243e-02, 2.95553744e-01,
  -2.26352923e-02,-9.34812650e-02,-1.30010262e-01,-1.73453853e-01,
   4.98226248e-02,-1.00141108e-01,-1.47047922e-01, 8.20159167e-02,
   2.00244471e-01,-9.63111818e-02,-8.70164484e-02, 1.26208290e-01,
   6.03992157e-02, 7.06747314e-03,-1.85855734e-03,-2.89982092e-02,
  -8.26603093e-04, 1.80587843e-01,-1.01896197e-01, 6.37150854e-02,
  -3.25463042e-02,-7.39310607e-02,-8.99739787e-02,-9.26533192e-02,
   1.39555752e-01,-2.97898930e-02,-6.11028560e-02,-5.51200137e-02,
  -8.97977278e-02, 1.58790246e-01, 1.75144579e-02, 8.72853100e-02,
  -1.48412243e-01, 8.70062783e-02, 7.66924992e-02,-4.30986471e-02,
  -8.86683352e-03, 1.22107774e-01, 2.56464660e-01, 1.54469728e-01,
  -3.57546866e-01, 9.46111679e-02,-3.81525643e-02,-1.12075210e-01,
  -4.11609709e-02,-3.93360890e-02, 8.66302177e-02, 1.14220418e-01,
  -7.85461217e-02, 1.23718493e-01, 1.33330710e-02, 5.52422181e-02,
  -6.36324584e-02, 5.90107180e-02, 2.23781854e-01, 5.06926365e-02],
 [ 3.17324474e-02, 8.70340597e-03,-7.04040527e-02, 9.18518603e-02,
  -2.85434544e-01, 1.54184297e-01, 1.04312599e-01, 5.31709157e-02,
  -1.36794582e-01, 1.29411578e-01,-6.02846779e-02, 2.67645493e-02,
  -1.65378749e-01, 2.80194897e-02, 2.72503346e-02, 4.27196696e-02,
   2.16599461e-02, 1.22477897e-02,-1.25172902e-02, 2.11593248e-02,
  -6.43450320e-02, 2.54007298e-02,-2.01095324e-02,-1.29105225e-01,
  -1.24583878e-01, 1.07730150e-01, 8.63475651e-02, 7.02030137e-02,
   1.52636185e-01, 4.23606634e-02,-5.80154993e-02,-6.18691184e-02,
   9.30027291e-02, 2.81083863e-02,-4.22352441e-02,-1.27835602e-01,
   1.69706747e-01, 1.09166995e-01,-1.74703568e-01,-2.65206154e-02,
  -1.86117664e-01,-1.69818364e-02,-8.53475854e-02, 4.50877734e-02,
  -1.34817347e-01,-3.62225138e-02,-8.15746486e-02,-4.90384772e-02,
  -3.84287350e-02, 5.55933006e-02, 5.96636832e-02,-3.14507633e-02,
   1.52135819e-01,-1.37704864e-01,-1.57139942e-01,-1.37382224e-01,
  -1.45405307e-01, 6.99472874e-02,-1.11658134e-01, 1.36896640e-01,
  -9.50715989e-02, 2.99068056e-02, 1.49152592e-01,-1.54422879e-01,
  -8.83167163e-02, 3.11889630e-02, 1.55899391e-01, 2.23268010e-02,
  -6.74054306e-03, 8.02938119e-02,-8.04998353e-02, 7.48178512e-02,
  -1.12010658e-01,-9.58028529e-03,-1.76690929e-02,-9.50547755e-02,
  -3.51381041e-02,-7.32748443e-03, 1.97534040e-01, 1.02294952e-01,
   2.23922618e-02,-1.64949745e-02, 1.77499190e-01,-1.19974114e-01,
   1.26273766e-01, 7.69771338e-02, 7.83012807e-02, 2.31977608e-02,
  -6.29762113e-02, 9.74988379e-03, 1.23931788e-01,-4.62215729e-02,
  -4.92523909e-02,-1.02015287e-02, 1.02398738e-01, 1.72463700e-01,
  -1.59563050e-02, 5.77558987e-02,-1.30229056e-01, 1.10859849e-01,
  -2.85978615e-02,-3.46710570e-02,-3.65822576e-03,-1.97292969e-01,
  -2.11734194e-02, 3.07109877e-02, 1.07366942e-01,-3.70705202e-02,
   1.23040825e-01,-1.49990385e-02,-1.02945842e-01, 1.28429532e-01,
   1.31759062e-01, 1.97222114e-01, 1.18024275e-01, 4.83789556e-02,
   1.67973191e-01,-1.52688086e-01,-1.69325903e-01, 6.46084994e-02],
 [-4.81955446e-02, 6.55668676e-02, 1.67324871e-01, 4.51769941e-02,
   7.77145699e-02,-3.69521603e-02, 9.52108726e-02,-1.15091968e-02,
  -1.02063432e-01,-5.24563491e-02, 1.24914283e-02,-7.46109011e-03,
  -6.74283430e-02, 2.94250920e-02,-7.60107767e-03, 8.19224939e-02,
  -2.58617159e-02, 3.94446254e-02,-8.48760679e-02, 8.44640508e-02,
   3.65725830e-02,-6.24086428e-03,-1.61530331e-01,-9.23907086e-02,
   1.77017957e-01,-1.47678107e-01, 5.80440834e-02, 3.81795093e-02,
  -8.44236463e-02,-8.91603529e-02,-1.10029280e-01, 8.76543596e-02,
   8.50059241e-02,-6.96551101e-03, 1.93317253e-02, 8.51486251e-02,
  -9.31014791e-02,-6.31353706e-02, 3.95601476e-03,-7.64496345e-03,
  -2.82249856e-03, 7.97142014e-02, 3.19308005e-02,-6.83111697e-02,
   1.31426334e-01,-1.05446274e-03,-1.99770667e-02,-5.47080226e-02,
  -8.90144985e-03,-2.65054796e-02,-9.54695195e-02,-5.28454073e-02,
   1.96558267e-01, 7.06048608e-02,-4.61653359e-02, 1.75584387e-02,
  -7.14509189e-02, 6.29067421e-03, 1.15672722e-02, 5.56960963e-02,
   2.53132768e-02,-1.31163433e-01, 5.16527519e-03, 8.02882463e-02,
   2.75407303e-02,-1.14996344e-01, 1.01516090e-01,-1.48160502e-01,
   7.82669932e-02,-9.13017467e-02, 3.73172350e-02, 7.89059699e-02,
   3.09008304e-02, 9.06273648e-02,-9.76950750e-02, 1.91146299e-01,
  -3.38431224e-02,-2.56657265e-02, 9.56227779e-02, 4.45033796e-02,
   1.26666844e-01,-4.24170913e-03,-6.18779883e-02,-2.48644873e-02,
  -1.67559739e-02, 1.34237334e-02, 1.83661398e-03, 4.49452698e-02,
   4.23623621e-02,-5.10181449e-02,-4.16413229e-03, 3.26227881e-02,
   5.43744937e-02, 2.20395089e-03,-6.61978796e-02, 6.70246407e-02,
  -8.21316093e-02, 1.01032548e-01, 1.07256874e-01, 8.84863362e-02,
  -8.91719460e-02,-3.21237147e-02, 4.91995923e-02,-8.11263546e-02,
   7.88819939e-02, 9.55012441e-02, 3.00263483e-02,-5.51314726e-02,
   3.71847712e-02,-8.13329779e-03,-1.24355122e-01,-5.86390719e-02,
   1.66665629e-01,-1.82514861e-01,-7.13989586e-02,-1.50074467e-01,
   1.55859357e-02, 4.84048156e-03,-1.38624683e-01, 4.79272157e-02],
 [-5.06296344e-02, 6.89087585e-02, 1.98552180e-02, 9.35725570e-02,
  -6.36045411e-02,-6.21196479e-02, 3.59811671e-02, 1.67656213e-01,
   3.86106744e-02, 2.24502180e-02, 6.07888550e-02,-3.88451573e-03,
   1.62494499e-02, 2.54049376e-02, 1.31515026e-01,-6.57691620e-03,
  -1.23812333e-01,-2.80899145e-02,-1.70316733e-02, 7.04019144e-02,
  -1.58845633e-02, 3.10938712e-02,-1.58638716e-01, 5.84893376e-02,
   4.13897224e-02,-9.10607055e-02,-1.24432348e-01, 5.70247956e-02,
   2.54238062e-02,-1.57518864e-01,-4.83558103e-02, 9.39839706e-03,
  -1.26106627e-02,-2.02394631e-02,-4.16391827e-02, 1.26032367e-01,
   5.83769102e-03,-4.80759628e-02,-8.55332166e-02,-1.16030723e-02,
   9.29386243e-02, 5.81742488e-02, 7.25985840e-02,-3.71570550e-02,
   7.75443316e-02,-3.91258523e-02,-4.39770594e-02,-4.07149233e-02,
  -7.38902902e-03,-1.97915062e-02,-3.63289192e-02,-6.40278459e-02,
  -7.77092502e-02, 2.22997051e-02, 3.48462909e-02,-1.04483604e-01,
   1.43140526e-02, 1.00050114e-01, 4.59625274e-02, 7.95919076e-02,
  -6.60958663e-02,-1.11676663e-01, 5.39807305e-02, 2.16151625e-01,
  -1.45313412e-01,-1.71353355e-01,-8.89056455e-03, 1.12900212e-01,
  -9.66043118e-03,-1.09963737e-01,-1.01915002e-01, 2.96892039e-02,
   1.07262127e-01,-5.99176111e-03, 1.16078332e-02, 7.19945505e-02,
  -8.91530216e-02, 8.78570825e-02,-2.94377413e-02,-2.23174449e-02,
   2.00038031e-02,-1.96008123e-02, 4.81715351e-02,-5.47226481e-02,
  -4.53496948e-02, 7.02536777e-02, 1.16000623e-01, 1.94331065e-01,
   3.31320353e-02, 7.65903145e-02,-7.56854713e-02, 5.53818233e-02,
   1.36951134e-02,-3.91480736e-02, 1.40420437e-01,-5.44770285e-02,
  -1.01271786e-01, 1.26883566e-01, 9.96554494e-02,-2.03273948e-02,
  -3.26479003e-02, 1.32429451e-02, 9.20057595e-02, 1.26012355e-01,
  -2.17783391e-01,-2.13078391e-02,-1.37195073e-03,-6.12154864e-02,
  -4.40443605e-02, 3.86064360e-03,-1.00728229e-01, 7.60340542e-02,
  -2.49595772e-02, 4.84707840e-02, 1.05316611e-02,-1.42883331e-01,
   1.68163866e-01,-2.06076145e-01, 5.90653159e-02, 8.18568319e-02],
 [ 1.83867857e-01, 3.65736671e-02,-1.57553628e-01, 6.73363656e-02,
   2.18083174e-03,-7.41522759e-02, 2.59382814e-01, 1.57800853e-01,
   1.18231744e-01, 8.36011618e-02, 7.57902563e-02,-9.46887508e-02,
  -1.35877028e-01, 1.42721713e-01, 1.20623797e-01,-1.54724285e-01,
  -7.11622089e-02, 5.21700308e-02,-9.49017629e-02,-9.45940316e-02,
   8.69615376e-02, 6.03518635e-02,-2.45712459e-01,-8.46509114e-02,
   2.26874296e-02,-1.17838658e-01, 1.03220470e-01, 5.03687076e-02,
   1.51725143e-01,-1.48096085e-01,-9.88374799e-02,-8.77680629e-02,
  -1.92765266e-01, 4.25044522e-02, 4.63011414e-02, 1.00715175e-01,
   9.63021293e-02,-6.14230707e-02,-1.19057186e-01, 7.07885176e-02,
  -6.45793229e-02, 3.59970219e-02,-3.08633178e-01,-8.15008655e-02,
   7.50072226e-02, 9.23759863e-02, 1.04896195e-01,-1.64809868e-01,
  -7.70913512e-02, 1.84787497e-01, 7.93057084e-02,-1.44659728e-01,
   1.81754485e-01,-8.77219625e-03,-5.24167232e-02, 2.84219272e-02,
   1.04883887e-01, 1.77430317e-01,-2.05580983e-02,-4.68610488e-02,
  -9.35498103e-02,-5.87691367e-02, 1.72716584e-02, 1.88983232e-01,
   3.02991662e-02,-2.07211785e-02, 2.14886621e-01,-1.75334848e-02,
   1.20102301e-01,-1.05117165e-01, 4.08214666e-02, 2.92485468e-02,
  -1.46356001e-01, 1.15028165e-01, 2.19461024e-01, 1.11979477e-01,
  -3.43235321e-02, 6.22863956e-02,-5.37747927e-02,-2.07629487e-01,
   4.37451750e-02,-2.16267839e-01, 1.29076660e-01,-6.88285902e-02,
  -6.02848344e-02,-3.16286692e-03,-3.15726106e-03, 6.44333363e-02,
  -1.53627053e-01,-1.33750781e-01, 7.92799294e-02, 7.90097043e-02,
  -8.34712014e-02,-1.35712147e-01,-1.76171750e-01, 4.44695167e-02,
  -2.32451051e-01, 1.16459563e-01, 1.59555867e-01,-1.18864372e-01,
  -8.44479874e-02,-1.14525266e-01,-2.39822138e-02,-6.33096099e-02,
  -2.60931343e-01, 8.50239173e-02,-3.57605778e-02, 1.64009422e-01,
   4.06456254e-02, 1.10806637e-01,-2.24045932e-01, 1.21345185e-01,
  -6.40629008e-02,-3.11018098e-02, 1.43513277e-01,-7.13004097e-02,
   1.36290312e-01,-2.53387004e-01,-5.04057482e-02, 2.39928782e-01],
 [-6.92642778e-02,-1.45363316e-01, 1.99719563e-01,-2.48152390e-02,
  -1.79327652e-01,-7.27507025e-02, 4.68482822e-02, 1.59538895e-01,
  -6.04328550e-02,-6.64318129e-02, 1.26593173e-01, 8.23347867e-02,
   4.20931540e-02,-9.41231474e-02, 1.02866970e-01, 7.59930313e-02,
   1.16072246e-03, 6.38776347e-02, 4.77075018e-02, 5.70676029e-02,
  -8.92523676e-03,-4.45941724e-02, 4.41664420e-02, 7.35606579e-03,
   4.46926095e-02,-1.39643401e-02, 7.53503758e-03, 4.04394008e-02,
   4.75678034e-02, 6.07318524e-03,-1.79825068e-01, 8.65550488e-02,
  -3.29743722e-03,-1.91506565e-01,-9.52721294e-03,-6.86221421e-02,
   5.75766619e-03,-6.65941834e-02,-8.02801475e-02, 8.52948278e-02,
   5.23333699e-02, 4.78217788e-02, 1.98604420e-01, 7.14545995e-02,
  -6.08404633e-03, 4.11885902e-02,-3.74404043e-02,-6.23865426e-02,
  -4.93548112e-03, 1.53020499e-02,-8.79232660e-02, 6.28265515e-02,
   6.69610575e-02, 6.98415264e-02,-1.95267971e-03,-2.10028484e-01,
  -1.45967737e-01,-2.30934704e-03, 1.69481337e-02,-1.23373955e-01,
   1.41758204e-01,-1.08081609e-01, 5.12561165e-02,-3.41755264e-02,
  -9.99552384e-02,-4.65700962e-02, 4.87528332e-02, 3.54523025e-02,
   5.14453687e-02,-9.58756804e-02,-9.69403833e-02,-1.04791388e-01,
   2.16717154e-01, 1.08330725e-02,-2.03992039e-01, 2.45475397e-01,
  -1.58588648e-01,-5.91627881e-02, 2.46993721e-01,-1.92085616e-02,
  -1.15666389e-01, 4.64266688e-02,-1.57742389e-02, 7.08883256e-02,
  -7.66267702e-02,-1.40664419e-02, 7.80756325e-02, 1.94172129e-01,
   7.02895224e-03, 1.02663621e-01, 2.27333270e-02,-8.86463746e-02,
   1.89311840e-02, 1.39858961e-01,-6.63644969e-02,-7.32033029e-02,
   1.23371840e-01,-1.40625522e-01, 2.64027156e-02, 1.52121097e-01,
  -1.35163128e-01,-6.45167157e-02, 8.30319896e-02, 1.37754679e-01,
  -4.70955446e-02, 1.01149656e-01, 6.89429194e-02, 3.79572287e-02,
  -7.83099011e-02,-1.12524718e-01, 4.90618125e-02, 7.27571249e-02,
   7.28320377e-03, 3.21673080e-02,-3.17824297e-02, 3.92675586e-02,
   6.68948516e-02,-1.24905251e-01,-3.06607950e-02, 3.75829786e-02],
 [-5.15095629e-02,-7.37698898e-02,-6.55505508e-02, 5.28449863e-02,
  -1.09066106e-01, 9.88167748e-02,-8.74138474e-02, 9.02882591e-02,
   1.72224008e-02,-1.52191550e-01, 3.61967310e-02,-4.06748848e-03,
  -6.12113811e-02,-7.65373791e-03,-2.71246739e-04,-4.75024916e-02,
   2.49598343e-02, 1.15080108e-03, 5.21842996e-03, 1.61237270e-02,
   3.78198512e-02, 9.49042141e-02,-1.41653316e-02,-4.62603867e-02,
   1.32247940e-01,-8.72725770e-02,-5.87330423e-02, 1.38305515e-01,
  -2.50886157e-02,-6.12812825e-02,-4.32462245e-02,-2.49575600e-02,
  -1.35763556e-01, 1.47611368e-03,-2.42013615e-02, 1.16267920e-01,
  -2.91460864e-02,-9.56049263e-02, 1.23554152e-02, 8.99378732e-02,
  -2.94625061e-03,-5.73465638e-02, 1.11993246e-01,-1.13644883e-01,
   8.48139748e-02, 4.65946738e-03, 1.27591819e-01,-4.27927673e-02,
  -6.69330880e-02, 1.02795064e-02,-4.69502099e-02, 5.51195964e-02,
  -4.00477760e-02,-9.95850656e-04, 1.28710577e-02,-3.58233266e-02,
   2.30487827e-02, 1.30955979e-01, 1.18539944e-01, 1.53073864e-02,
  -1.00814700e-01,-5.31519130e-02,-7.08231255e-02, 2.27205660e-02,
  -1.21086791e-01, 8.54074862e-03,-4.33543231e-03, 1.26717519e-02,
   1.73536371e-02,-2.18338817e-02,-1.80677399e-02,-3.07253636e-02,
  -2.35013552e-02,-4.30784933e-03,-5.87959886e-02, 8.73540938e-02,
   7.61713786e-03, 7.26660481e-03, 1.24010079e-01,-4.91901021e-03,
  -3.49926241e-02,-2.48376243e-02,-7.49498829e-02, 3.99824828e-02,
  -8.07468742e-02, 3.49490009e-02,-3.31110172e-02, 3.24020609e-02,
  -5.93095049e-02, 8.10151249e-02,-7.42779896e-02, 6.97641820e-02,
  -1.26269013e-02,-8.06922186e-03, 4.41803373e-02, 6.27304465e-02,
   8.15132558e-02,-1.03241675e-01, 1.08888052e-01, 8.19775313e-02,
  -1.32580632e-02,-1.56034483e-02, 1.07916735e-01, 6.22919239e-02,
   1.11677106e-02,-4.61436920e-02, 5.01159765e-02,-2.88918950e-02,
  -1.25542600e-02, 8.16273615e-02,-1.00319814e-02, 9.43417698e-02,
  -5.02747372e-02,-9.67282504e-02,-2.26409491e-02,-1.13198861e-01,
   6.60935715e-02, 3.88354175e-02, 1.49356648e-02,-6.35837018e-02],
 [-8.69020894e-02, 2.53215820e-01,-1.13676704e-01,-1.60892438e-02,
   2.29778048e-02, 1.53341547e-01,-1.16810203e-01, 1.89681694e-01,
  -1.60626099e-02,-1.84844106e-01, 6.30922765e-02, 1.08005598e-01,
   5.11208996e-02,-1.41137734e-01,-8.79500359e-02,-1.83124155e-01,
   1.05447404e-01,-1.30880193e-03,-8.84151012e-02, 1.85979486e-01,
  -1.67009115e-01, 2.35332415e-01, 7.24612698e-02, 4.96028028e-02,
  -7.84087628e-02, 4.64831218e-02,-5.69109693e-02,-3.57593596e-02,
   3.06810796e-01,-1.30163223e-01,-1.06897727e-01, 9.36541185e-02,
  -4.76925075e-02,-1.12860017e-01, 6.96388260e-02, 1.45002633e-01,
   6.89096227e-02,-1.25929907e-01, 1.73453093e-01,-8.75142589e-03,
   9.97485518e-02, 1.63108632e-02, 4.98982035e-02,-6.11734353e-02,
  -5.99750541e-02,-1.74263716e-01, 9.44162682e-02, 3.02804802e-02,
  -9.94215012e-02,-1.74750894e-01, 7.76106268e-02, 1.22772872e-01,
  -1.22095034e-01, 8.56724158e-02,-6.90690726e-02, 1.47379600e-02,
   1.92577124e-01, 8.77461508e-02,-3.06840129e-02,-4.97189956e-03,
  -6.31176606e-02,-1.05684903e-02, 5.13008051e-02,-3.40274908e-02,
  -6.24627108e-04,-4.29785959e-02,-1.27993286e-01,-5.49612707e-03,
  -7.23052621e-02,-1.54792601e-02,-2.87219472e-02, 1.48082778e-01,
   4.50630300e-03,-5.52357920e-02,-7.86365494e-02, 6.15789406e-02,
  -2.65278593e-02, 1.16217554e-01, 1.37940958e-01, 3.81585979e-03,
  -3.90094705e-02, 1.32655621e-01, 2.18659677e-02, 6.83013946e-02,
  -6.16397671e-02,-5.60916774e-02,-1.69015169e-01,-2.00263366e-01,
   1.28043666e-01,-6.83556795e-02,-2.30671123e-01,-1.72587298e-02,
   1.22129202e-01, 3.93595584e-02,-1.03406116e-01,-1.46624580e-01,
  -7.48800039e-02, 1.37706036e-02, 3.32822837e-02,-1.81756280e-02,
  -1.04832083e-01, 1.58712398e-02, 1.34613290e-01, 6.96599856e-02,
  -2.39610299e-02, 7.51933688e-03,-2.35348165e-01, 1.53721767e-02,
  -5.42797782e-02, 1.20707504e-01, 5.44514731e-02, 4.03133705e-02,
  -1.05218641e-01, 1.99184909e-01, 8.11436921e-02, 1.06762163e-01,
  -8.92384201e-02, 2.41644885e-02, 6.68760836e-02,-8.96870792e-02],
 [-3.53540331e-02, 1.36071160e-01, 1.00568540e-01,-1.09513514e-01,
  -3.00189741e-02,-1.02925571e-02, 8.11719149e-02, 1.29996806e-01,
   5.41383661e-02, 3.12898308e-02, 5.28775388e-03, 1.11420631e-01,
  -7.12565407e-02, 1.10906381e-02, 1.02406017e-01, 1.25760138e-01,
   1.11637086e-01,-9.38756689e-02, 3.03224148e-03, 5.92562295e-02,
   5.02028801e-02,-6.87218010e-02, 4.72720228e-02,-9.08056553e-03,
   1.11385174e-01, 1.70847005e-03,-2.13855505e-02, 2.96031944e-02,
  -2.80503426e-02, 3.31212394e-02,-1.17384493e-01, 1.45376623e-01,
   3.61773819e-02, 7.63297873e-03,-8.85506943e-02, 8.71852320e-03,
  -6.49777502e-02,-9.76525247e-02,-1.71504185e-01,-1.16635345e-01,
   6.69757351e-02,-8.18017572e-02, 6.82210028e-02,-1.05425403e-01,
  -1.09474406e-01, 2.74502113e-02,-9.76742208e-02, 1.31060213e-01,
  -1.78262424e-02, 5.84465340e-02, 1.01080067e-01,-3.32565717e-02,
  -4.59601432e-02,-7.21119568e-02, 2.55443137e-02,-7.99667314e-02,
  -2.56138351e-02,-2.92147528e-02,-1.03501305e-01,-1.26845390e-01,
   1.53753206e-01,-1.62807569e-01,-3.29623334e-02, 9.82094780e-02,
   5.36625162e-02, 1.21448249e-01, 3.54968868e-02,-1.20883480e-01,
   4.96947505e-02,-7.38504604e-02,-1.00099511e-01,-9.71637592e-02,
   6.77923635e-02, 7.94399306e-02,-1.07878231e-01,-2.26231217e-02,
  -8.43175873e-02, 1.69476584e-01,-3.81310843e-02,-4.27591577e-02,
  -9.40877423e-02, 4.05847654e-02, 7.43376464e-02, 4.76490386e-04,
  -8.81240796e-03,-8.21458474e-02,-7.09259044e-03, 1.31383196e-01,
  -7.33043179e-02, 9.69653577e-03,-1.69472471e-02, 5.31528750e-03,
  -9.80606005e-02, 1.30913332e-01,-1.37665227e-01,-7.57476985e-02,
  -4.14572144e-03,-1.00665644e-01,-5.84407337e-02, 3.57356668e-02,
   2.55138520e-02, 1.03219882e-01, 4.44422215e-02, 1.07866630e-01,
  -7.90354311e-02, 5.37013076e-03,-4.98219719e-03, 1.32006392e-01,
  -7.61011541e-02, 5.59310503e-02, 4.99474891e-02, 1.35087758e-01,
  -3.23999822e-02,-1.41155258e-01,-7.87458867e-02, 5.23738936e-02,
   6.70770779e-02, 6.54015224e-03,-4.27590422e-02, 1.09483086e-01],
 [ 1.51350215e-01, 9.40204337e-02,-7.15430155e-02,-8.15919563e-02,
  -2.59883434e-01, 1.25708640e-01, 6.62549213e-02, 1.76466197e-01,
  -1.46570504e-01,-2.69897163e-01, 8.41416884e-03, 1.13960197e-02,
  -4.30402867e-02, 5.61737195e-02, 2.51026452e-02,-1.42105520e-01,
   6.81512132e-02,-3.82419899e-02,-9.44759250e-02, 2.41385382e-02,
   2.56910529e-02, 2.16123730e-01,-9.21412632e-02,-1.35479160e-02,
   6.78489432e-02,-1.01376645e-01, 1.09509856e-01, 6.57318234e-02,
   4.88305360e-01,-3.21346782e-02,-2.98844665e-01, 2.38927193e-02,
  -2.22009242e-01,-5.00085838e-02, 1.30643785e-01, 1.37138531e-01,
   6.48091882e-02, 1.36084154e-01, 2.00245246e-01,-1.02648064e-01,
   3.33545469e-02,-2.07010970e-01, 5.16599305e-02, 1.18753947e-01,
  -1.09937772e-01,-1.24211505e-01, 1.94788277e-01, 4.91772173e-03,
   5.84144257e-02,-1.89461410e-01, 7.03890398e-02,-1.72525812e-02,
   1.13507405e-01,-6.60712831e-03, 1.73386559e-02,-1.32653490e-01,
  -2.35039014e-02,-3.01180035e-02,-1.54771030e-01,-1.13618776e-01,
  -5.10174707e-02, 2.10164875e-01,-4.53068092e-02, 8.27552527e-02,
   6.20153062e-02,-1.69228911e-01, 1.09251104e-01, 1.26675829e-01,
  -1.96600750e-01,-7.00326636e-02,-4.75420579e-02,-6.24671951e-02,
   2.17616428e-02,-1.00329824e-01,-9.03814957e-02, 1.33522809e-01,
  -5.25156707e-02, 2.51191035e-02, 2.56803811e-01,-1.94244180e-02,
   1.64730489e-01,-4.17376682e-02,-2.70969123e-02, 9.21284482e-02,
  -1.11759752e-01,-3.30962650e-02,-1.12997197e-01,-1.61362797e-01,
   5.71087524e-02,-6.68986291e-02,-2.92754583e-02, 1.30025133e-01,
  -3.38913649e-02,-4.11316864e-02,-1.13432020e-01, 7.77147487e-02,
   9.00076982e-03,-6.02047518e-02, 3.09403948e-02, 1.66985974e-01,
  -2.26126403e-01,-2.05787256e-01, 1.35716423e-01,-5.40843792e-02,
  -1.28401503e-01,-1.94900599e-03,-2.26337701e-01, 5.38235568e-02,
  -1.57309547e-01, 1.94684565e-02, 1.90854464e-02,-5.14462963e-03,
   2.30151042e-02, 1.48038924e-01, 7.20955655e-02, 6.30693212e-02,
  -5.45679256e-02,-2.94739642e-04, 9.55726113e-03, 9.69551057e-02],
 [-5.49899377e-02, 5.46691678e-02, 6.01646304e-02, 2.06156913e-02,
  -2.54017621e-01, 7.62813836e-02,-1.95210665e-01, 1.40424296e-01,
  -5.25453389e-02,-2.67287701e-01, 1.86994717e-01,-4.02368680e-02,
   2.46606305e-01,-2.46603400e-01, 2.25586131e-01,-2.12943275e-03,
  -2.78598726e-01, 2.38335833e-01,-7.48283714e-02, 2.95943886e-01,
  -2.47134358e-01, 3.34833175e-01,-4.34914567e-02,-5.07938266e-02,
  -2.91577857e-02,-3.12665215e-04, 4.69674319e-02, 2.80299366e-01,
   7.49118254e-02,-3.74467229e-03,-4.51329872e-02,-7.43999630e-02,
   1.86268135e-03,-5.95215447e-02, 8.95590782e-02, 1.65375665e-01,
  -2.82790102e-02,-2.28915457e-02, 3.12532522e-02,-6.12461604e-02,
   1.28683215e-03, 6.54748008e-02, 2.06286222e-01, 4.64455858e-02,
  -8.46660659e-02, 1.38055682e-01, 2.68087983e-02,-1.90549511e-02,
   2.97230743e-02,-1.21337801e-01,-1.86132029e-01, 2.27834564e-03,
  -1.18336439e-01,-3.33141210e-03,-1.45635009e-01,-8.93137455e-02,
   1.50010556e-01,-8.17752406e-02, 2.15434805e-01,-4.90898006e-02,
  -1.38266847e-01,-5.14046326e-02, 2.21979141e-01, 2.31836438e-01,
  -2.04019491e-02,-6.10100366e-02,-1.44487843e-01, 4.56326082e-02,
  -4.46958616e-02, 6.85184523e-02,-1.90003917e-01, 1.50084749e-01,
  -7.93948695e-02,-1.40832618e-01,-3.81026305e-02, 2.75319219e-01,
   4.59149107e-02, 3.47339176e-02, 5.06948292e-01, 2.08018810e-01,
   1.55828655e-01, 1.36744589e-01, 1.21049382e-01, 1.08238980e-01,
